Version 8.1.1
Id
Min label:-1
Max label:1
bits:30
lda:0
1 ngram:2 
0 skip:
options:
Checksum: 806720718
:0
Constant:11650396:0.229749
addeddate^00COLON00COLON24:841427049:2.97394e-05
addeddate^00COLON01COLON15:686164427:0.00536536
addeddate^00COLON03COLON41:445561376:0.0191294
addeddate^00COLON04COLON00:62595891:0.00434771
addeddate^00COLON05COLON24:445453285:0.00755157
addeddate^00COLON06COLON53:185587878:0.0165573
addeddate^00COLON17COLON40:637903886:0.0122639
addeddate^00COLON18COLON37:126917280:0.00489765
addeddate^00COLON19COLON42:996926694:0.0159513
addeddate^00COLON20COLON05:108231801:0.00211673
addeddate^00COLON21COLON36:291896946:0.0178534
addeddate^00COLON24COLON04:830543936:0.0085703
addeddate^00COLON27COLON02:367549216:0.013606
addeddate^00COLON28COLON20:180742320:0.0212025
addeddate^00COLON29COLON09:777382411:-0.0122757
addeddate^00COLON32COLON01:706381402:0.0097467
addeddate^00COLON32COLON04:473500596:0.00438862
addeddate^00COLON32COLON56:442909129:0.0206622
addeddate^00COLON35COLON28:659570083:0.0112061
addeddate^00COLON35COLON34:607071806:0.00343431
addeddate^00COLON46COLON42:786012340:0.0130039
addeddate^00COLON47COLON05:501688483:0.0379911
addeddate^00COLON47COLON09:223334232:0.00911492
addeddate^00COLON53COLON39:1009183456:0.0175556
addeddate^00COLON53COLON59:489798056:0.0132575
addeddate^00COLON55COLON46:123373835:-0.00059501
addeddate^00COLON57COLON09:523163976:0.0120312
addeddate^01COLON00COLON15:280762154:0.000191283
addeddate^01COLON00COLON46:1015274620:0.0156115
addeddate^01COLON02COLON24:351639691:0.00581281
addeddate^01COLON04COLON39:278922869:0.00260393
addeddate^01COLON06COLON52:100914710:0.0164811
addeddate^01COLON07COLON12:1054469066:0.0155616
addeddate^01COLON07COLON34:221950529:0.00205634
addeddate^01COLON12COLON53:757007556:0.00685269
addeddate^01COLON14COLON31:208130873:0.0187427
addeddate^01COLON18COLON38:690430584:0.0129026
addeddate^01COLON23COLON05:233875659:-0.00450647
addeddate^01COLON23COLON20:714391924:0.0155957
addeddate^01COLON23COLON56:192088875:0.0164931
addeddate^01COLON31COLON43:965675021:0.0141771
addeddate^01COLON50COLON27:919271415:0.0181376
addeddate^01COLON53COLON53:666403177:0.0155844
addeddate^02COLON02COLON21:785441399:0.000822473
addeddate^02COLON11COLON14:564070160:0.00910735
addeddate^02COLON22COLON36:518202019:-0.0133041
addeddate^02COLON24COLON22:966070462:-0.00108962
addeddate^02COLON33COLON11:808417192:0.0165689
addeddate^02COLON43COLON12:142343682:4.9756e-05
addeddate^02COLON46COLON59:577749165:0.00536998
addeddate^02COLON58COLON45:383594447:0.0111017
addeddate^03COLON16COLON17:763691799:0.0120895
addeddate^03COLON30COLON11:853557866:0.0144819
addeddate^03COLON32COLON09:751685087:0.0360126
addeddate^03COLON42COLON02:856097803:0.0111307
addeddate^03COLON48COLON47:934732888:0.000142435
addeddate^03COLON49COLON59:897678074:0.0105072
addeddate^04COLON00COLON02:679650774:0.0150795
addeddate^04COLON04COLON05:5552671:-0.000692373
addeddate^04COLON27COLON41:405336007:0.0128009
addeddate^04COLON29COLON27:518532192:-0.000582127
addeddate^04COLON37COLON17:719484265:0.0130003
addeddate^04COLON39COLON53:413459255:0.000899518
addeddate^04COLON49COLON23:397101087:0.0015944
addeddate^05COLON07COLON02:36342650:-0.00134125
addeddate^05COLON08COLON46:720369855:0.0132573
addeddate^05COLON09COLON55:798703393:-0.00221168
addeddate^05COLON35COLON59:53438649:0.0319429
addeddate^05COLON59COLON05:840755232:-0.000650778
addeddate^06COLON08COLON19:129307071:-0.00252153
addeddate^06COLON08COLON35:936683744:0.00562867
addeddate^06COLON13COLON21:1034155151:0.000267106
addeddate^06COLON17COLON11:405900951:0.020838
addeddate^06COLON25COLON02:370420268:0.00605702
addeddate^06COLON26COLON24:929533967:0.00322179
addeddate^06COLON27COLON06:799000775:0.0120261
addeddate^06COLON30COLON46:40439855:0.0175312
addeddate^06COLON36COLON47:827507951:0.00130527
addeddate^06COLON45COLON45:360882014:0.010194
addeddate^06COLON55COLON25.419169:843910330:0.011889
addeddate^07COLON05COLON41:774756082:0.00140422
addeddate^07COLON15COLON18:68898874:-0.00572848
addeddate^07COLON24COLON58:678786797:0.0054723
addeddate^07COLON27COLON47:644990799:0.000130031
addeddate^07COLON27COLON52:131338872:0.00265732
addeddate^07COLON34COLON07:140009358:0.0142836
addeddate^07COLON38COLON43:974753596:0.0110485
addeddate^07COLON42COLON04:30653513:-0.00118152
addeddate^07COLON53COLON16:66491378:-0.00167613
addeddate^07COLON55COLON11:438920930:0.0116737
addeddate^08COLON08COLON38:120288978:0.00155822
addeddate^08COLON10COLON21:67546494:0.00207162
addeddate^08COLON15COLON22:509143844:0.00762458
addeddate^08COLON15COLON24.409386:144357526:0.0314222
addeddate^08COLON15COLON25.203824:17066611:0.00294833
addeddate^08COLON30COLON33:212678893:0.00441889
addeddate^08COLON44COLON04:143795397:-0.00311313
addeddate^08COLON45COLON26.504409:907697699:0.00381632
addeddate^08COLON54COLON40.085992:859876627:0.00513904
addeddate^08COLON58COLON56:94884026:0.0209044
addeddate^09COLON00COLON10:1016477866:-0.000685868
addeddate^09COLON14COLON35:737333549:0.00910315
addeddate^09COLON32COLON15:1014901619:0.00439212
addeddate^09COLON35COLON11:997467759:4.32723e-05
addeddate^09COLON35COLON17:880263032:7.92152e-05
addeddate^09COLON38COLON47:34634581:0.0368399
addeddate^09COLON50COLON57:14765888:0.00198688
addeddate^09COLON57COLON39:797015005:-0.000237063
addeddate^10COLON00COLON19:398929732:-0.00655212
addeddate^10COLON01COLON43:461609595:0.00781832
addeddate^10COLON03COLON08:491642080:-0.00185897
addeddate^10COLON09COLON06:1029034739:-0.0150433
addeddate^10COLON16COLON49:587823514:0.0128489
addeddate^10COLON17COLON27:34271505:0.0178467
addeddate^10COLON17COLON40:880328596:0.00610497
addeddate^10COLON36COLON08:726777214:-0.005534
addeddate^10COLON43COLON20:1052298703:0.011004
addeddate^10COLON43COLON53:457861174:0.0158623
addeddate^10COLON50COLON48:1041461221:0.0145656
addeddate^10COLON51COLON33:513330796:0.0115104
addeddate^11COLON02COLON33:1011116028:0.000482261
addeddate^11COLON07COLON31.773652:315311266:0.00394059
addeddate^11COLON10COLON47:831620968:0.00976562
addeddate^11COLON17COLON11:247779618:0.015347
addeddate^11COLON18COLON37:963671088:0.000175432
addeddate^11COLON22COLON56.405935:233028503:0.0160884
addeddate^11COLON27COLON24:371342640:-0.00204468
addeddate^11COLON28COLON02:398750928:-0.0311413
addeddate^11COLON28COLON59:194285186:-1.52823e-05
addeddate^11COLON30COLON01:395657824:-0.00399738
addeddate^11COLON30COLON03:870982559:-0.000542442
addeddate^11COLON34COLON28:282238944:-0.00265366
addeddate^11COLON34COLON43:1004595338:0.0161007
addeddate^11COLON37COLON29:357289486:0.011156
addeddate^11COLON39COLON22:366282884:0.000515884
addeddate^11COLON39COLON40:42419387:0.00445732
addeddate^11COLON43COLON20:485765997:0.0163545
addeddate^11COLON47COLON57:1008253382:0.015925
addeddate^11COLON48COLON24:777178968:0.00964225
addeddate^11COLON52COLON16:818198298:0.00705226
addeddate^11COLON55COLON01:811787534:0.0175422
addeddate^11COLON59COLON19:438733096:0.0281331
addeddate^12COLON02COLON41:1019462988:-0.000351651
addeddate^12COLON20COLON56:63702764:-0.000948925
addeddate^12COLON27COLON06:380617067:0.00909081
addeddate^12COLON27COLON52:454509281:0.0188515
addeddate^12COLON31COLON52:697763359:0.0166905
addeddate^12COLON33COLON01:1016713332:6.89702e-05
addeddate^12COLON33COLON16:768862511:0.00366452
addeddate^12COLON39COLON18:959872062:0.000541538
addeddate^12COLON41COLON03:127309307:0.00330207
addeddate^12COLON45COLON46:557757637:0.0181738
addeddate^12COLON58COLON33.031137:107477927:0.00115231
addeddate^12COLON59COLON19:281050113:0.0176096
addeddate^13COLON04COLON22:914471850:0.000901699
addeddate^13COLON08COLON04:1051549776:0.0153876
addeddate^13COLON18COLON06:1008122809:0.00881843
addeddate^13COLON18COLON07:957150111:0.0220847
addeddate^13COLON20COLON59:853269197:0.00475756
addeddate^13COLON39COLON30:735210884:0.00721054
addeddate^13COLON43COLON32:653182047:0.00044419
addeddate^13COLON45COLON45:316441768:0.0127691
addeddate^13COLON46COLON17:138066224:0.0117153
addeddate^13COLON47COLON17:986720040:0.0111739
addeddate^13COLON48COLON45:792213378:0.0147743
addeddate^13COLON54COLON21:398365824:0.0349887
addeddate^13COLON58COLON17:379719872:0.000167648
addeddate^13COLON59COLON48:32698067:-0.0215362
addeddate^14COLON05COLON47.571302:725780676:0.000339689
addeddate^14COLON08COLON42:163478993:0.0112894
addeddate^14COLON11COLON43:275357620:0.00524982
addeddate^14COLON18COLON49:473170504:0.0129893
addeddate^14COLON20COLON58:27088978:0.0177678
addeddate^14COLON22COLON29:572550839:0.0135828
addeddate^14COLON24COLON53:9125868:-0.00142635
addeddate^14COLON28COLON33:54877226:0.0217952
addeddate^14COLON30COLON46:498452411:-0.000443585
addeddate^14COLON31COLON30:189962005:0.00810593
addeddate^14COLON35COLON27:624959809:0.0137179
addeddate^14COLON42COLON42:302832441:0.00645059
addeddate^14COLON45COLON38:1029279559:0.000511882
addeddate^14COLON56COLON47:396872338:0.00836289
addeddate^14COLON57COLON15:126262195:8.16749e-05
addeddate^14COLON58COLON31:763595736:0.0254914
addeddate^14COLON58COLON38:158357860:0.000353501
addeddate^15COLON03COLON58:453247915:0.00668602
addeddate^15COLON06COLON20:973920170:0.000238286
addeddate^15COLON07COLON53:322193332:0.00310817
addeddate^15COLON10COLON01:64915855:0.00142337
addeddate^15COLON11COLON12:298479750:0.0129911
addeddate^15COLON11COLON33:804406754:0.0118515
addeddate^15COLON11COLON43:568599077:0.000410516
addeddate^15COLON15COLON17.427071:621465719:0.000174887
addeddate^15COLON15COLON47:171023674:0.0146344
addeddate^15COLON16COLON07:593744887:0.00709821
addeddate^15COLON16COLON40:597326882:0.0195111
addeddate^15COLON19COLON38:230368488:0.0275101
addeddate^15COLON23COLON25:809852475:0.00269968
addeddate^15COLON32COLON08:943824215:-0.0406178
addeddate^15COLON32COLON14:707945539:0.0169165
addeddate^15COLON34COLON54:883956990:0.00691785
addeddate^15COLON38COLON55:521873314:0.025066
addeddate^15COLON54COLON48:953342926:0.0284421
addeddate^15COLON57COLON51:305030899:-0.000802294
addeddate^16COLON00COLON44:689932741:0.0043395
addeddate^16COLON03COLON40:992716992:0.000116517
addeddate^16COLON19COLON17:780389071:0.00195751
addeddate^16COLON26COLON04:527281188:-0.0129812
addeddate^16COLON26COLON53:880113914:0.010785
addeddate^16COLON27COLON27:191963565:0.0155909
addeddate^16COLON36COLON14:974969314:0.0167337
addeddate^16COLON37COLON01:942654355:0.0146581
addeddate^16COLON39COLON57:345779417:0.0139776
addeddate^16COLON41COLON46:285410519:0.0141462
addeddate^16COLON47COLON53:392710851:0.0043581
addeddate^16COLON50COLON29:681154150:0.0192182
addeddate^16COLON55COLON41:664597566:0.020539
addeddate^17COLON01COLON54:846759887:0.0115817
addeddate^17COLON01COLON55:425023446:0.0159182
addeddate^17COLON03COLON48:500965799:0.00704354
addeddate^17COLON04COLON58:45658965:0.0133074
addeddate^17COLON05COLON16:33216888:0.0143087
addeddate^17COLON09COLON05:807010393:0.0169289
addeddate^17COLON12COLON01:294092966:0.000116282
addeddate^17COLON16COLON37:1008864059:0.0158574
addeddate^17COLON17COLON03:67801819:0.0204641
addeddate^17COLON19COLON01:809774650:0.0133218
addeddate^17COLON19COLON27:891441186:0.0189627
addeddate^17COLON26COLON16:852004096:0.0181611
addeddate^17COLON29COLON16:405779622:0.0003286
addeddate^17COLON33COLON54:450091810:0.0195259
addeddate^17COLON34COLON43:255153437:0.000355837
addeddate^17COLON43COLON06:732776989:0.00467379
addeddate^17COLON47COLON46:705048300:0.00316339
addeddate^17COLON49COLON01:433554603:-0.0020447
addeddate^17COLON50COLON12:753497000:0.00854216
addeddate^17COLON53COLON49:864267194:0.014301
addeddate^17COLON54COLON40:423057930:-0.00290916
addeddate^17COLON56COLON51:1071623976:0.0104144
addeddate^18COLON01COLON39.354135:790120072:0.00124267
addeddate^18COLON09COLON43:323988965:0.0143081
addeddate^18COLON14COLON06:825951197:0.0343427
addeddate^18COLON16COLON25:495784738:0.0467652
addeddate^18COLON16COLON58:455825757:0.0101252
addeddate^18COLON19COLON29:607677965:0.00566437
addeddate^18COLON19COLON32.57894:99841586:0.00720996
addeddate^18COLON24COLON19:160130423:0.0117555
addeddate^18COLON34COLON06:1012118550:0.0192323
addeddate^18COLON36COLON34:216885109:0.00697447
addeddate^18COLON38COLON48:860855403:0.00755314
addeddate^18COLON40COLON34:926506978:0.0174145
addeddate^18COLON56COLON37:464426177:0.00414997
addeddate^18COLON56COLON38:700728960:0.00146051
addeddate^18COLON56COLON39:824891433:0.000216484
addeddate^19COLON01COLON43:710947004:0.0118353
addeddate^19COLON01COLON54:381040127:0.00641614
addeddate^19COLON04COLON39:198382812:5.94416e-05
addeddate^19COLON12COLON34:216055588:0.00769148
addeddate^19COLON22COLON41:88755760:0.000943832
addeddate^19COLON25COLON56:717379856:0.0131667
addeddate^19COLON37COLON40:128651437:0.0260504
addeddate^19COLON38COLON47:1000296592:0.00785927
addeddate^19COLON41COLON00:768132256:0.00479838
addeddate^19COLON50COLON02:667960661:0.000635299
addeddate^19COLON51COLON13:421746965:-0.0467031
addeddate^19COLON53COLON04.912243:416060530:0.000970902
addeddate^19COLON54COLON03:443662656:0.000293496
addeddate^2007-06-11:772198557:0.00198688
addeddate^2007-06-11^09COLON50COLON57:366470761:0.00198688
addeddate^2007-07-25:160901564:0.000943832
addeddate^2007-07-25^19COLON22COLON41:92675324:0.000943832
addeddate^2008-05-23:484625665:0.000515884
addeddate^2008-05-23^11COLON39COLON22:122683009:0.000515884
addeddate^2008-08-11:79602674:-0.00450647
addeddate^2008-08-11^01COLON23COLON05:301442805:-0.00450647
addeddate^2009-09-30:923175207:0.0112894
addeddate^2009-09-30^14COLON08COLON42:1063521628:0.0112894
addeddate^2009-10-02:130998208:0.0178467
addeddate^2009-10-02^10COLON17COLON27:661066193:0.0178467
addeddate^2009-10-04:899349898:0.0057682
addeddate^2009-10-04^20COLON14COLON28:92613447:0.0057682
addeddate^2009-10-05:842744278:0.00259997
addeddate^2009-10-05^06COLON36COLON47:799522157:0.00130527
addeddate^2009-10-05^07COLON05COLON41:746770288:0.00140422
addeddate^2009-10-06:864451744:0.00781832
addeddate^2009-10-06^10COLON01COLON43:1047938203:0.00781832
addeddate^2009-10-07:333781369:0.00142337
addeddate^2009-10-07^15COLON10COLON01:634008100:0.00142337
addeddate^2009-10-08:272258456:0.00743571
addeddate^2009-10-08^06COLON25COLON02:91054436:0.00605702
addeddate^2009-10-08^07COLON27COLON52:925714864:0.00265732
addeddate^2009-10-09:645117939:0.00366452
addeddate^2009-10-09^12COLON33COLON16:514459734:0.00366452
addeddate^2009-10-30:207118707:0.00394539
addeddate^2009-10-30^21COLON13COLON29:182580162:0.00394539
addeddate^2009-12-08:191883464:0.000511882
addeddate^2009-12-08^14COLON45COLON38:527072495:0.000511882
addeddate^2010-06-30:828516635:0.00703444
addeddate^2010-06-30^22COLON58COLON33:1017482837:0.00703444
addeddate^2010-07-26:438045249:0.000410516
addeddate^2010-07-26^15COLON11COLON43:326344802:0.000410516
addeddate^2011-04-04:371914647:0.0155844
addeddate^2011-04-04^01COLON53COLON53:40859044:0.0155844
addeddate^2011-04-28:751114166:0.000793618
addeddate^2011-04-28^20COLON27COLON16:606218433:0.000793618
addeddate^2011-05-11:201315225:0.0296883
addeddate^2011-05-11^22COLON46COLON55:895366996:0.0296883
addeddate^2011-06-03:158934070:2.97394e-05
addeddate^2011-06-03^00COLON00COLON24:431970759:2.97394e-05
addeddate^2011-06-21:528073756:0.000424308
addeddate^2011-06-21^17COLON12COLON01:99639378:0.000116282
addeddate^2011-06-21^17COLON29COLON16:211326034:0.0003286
addeddate^2011-09-18:399778145:0.000355837
addeddate^2011-09-18^17COLON34COLON43:591605242:0.000355837
addeddate^2011-09-30:118929424:0.001405
addeddate^2011-09-30^22COLON05COLON02:121874118:0.001405
addeddate^2011-10-02:1034474497:0.000408509
addeddate^2011-10-02^20COLON40COLON51:1064776734:0.000408509
addeddate^2011-11-18:105116869:5.94416e-05
addeddate^2011-11-18^19COLON04COLON39:952420237:5.94416e-05
addeddate^2011-11-19:251066329:0.00044152
addeddate^2011-11-19^06COLON13COLON21:937615876:0.000267106
addeddate^2011-11-19^15COLON06COLON20:877380895:0.000238286
addeddate^2011-11-21:664535354:0.000130031
addeddate^2011-11-21^07COLON27COLON47:647222689:0.000130031
addeddate^2011-11-22:794221674:0.000353501
addeddate^2011-11-22^14COLON58COLON38:300041766:0.000353501
addeddate^2011-11-23:479773111:0.000635299
addeddate^2011-11-23^19COLON50COLON02:720075568:0.000635299
addeddate^2012-07-12:569786827:0.000167648
addeddate^2012-07-12^13COLON58COLON17:578030175:0.000167648
addeddate^2012-07-26:661875685:0.000116517
addeddate^2012-07-26^16COLON03COLON40:1041602065:0.000116517
addeddate^2012-07-29:274595599:0.000548577
addeddate^2012-07-29^12COLON33COLON01:538854983:6.89702e-05
addeddate^2012-07-29^12COLON39COLON18:482013713:0.000541538
addeddate^2012-08-05:70379554:0.00205634
addeddate^2012-08-05^01COLON07COLON34:713905115:0.00205634
addeddate^2012-09-09:38679369:0.000899518
addeddate^2012-09-09^04COLON39COLON53:299224668:0.000899518
addeddate^2012-12-10:574225597:-0.0215362
addeddate^2012-12-10^13COLON59COLON48:1050124700:-0.0215362
addeddate^2012-12-25:239026363:-0.000802294
addeddate^2012-12-25^15COLON57COLON51:421696450:-0.000802294
addeddate^2013-02-02:235105171:-0.00059501
addeddate^2013-02-02^00COLON55COLON46:503491922:-0.00059501
addeddate^2013-02-04:357785797:-1.52823e-05
addeddate^2013-02-04^11COLON28COLON59:496237875:-1.52823e-05
addeddate^2013-03-13:487644288:0.00910315
addeddate^2013-03-13^09COLON14COLON35:567983021:0.00910315
addeddate^2013-03-24:158811268:-0.000237063
addeddate^2013-03-24^09COLON57COLON39:715629137:-0.000237063
addeddate^2013-03-31:539728423:-0.0129812
addeddate^2013-03-31^16COLON26COLON04:449906863:-0.0129812
addeddate^2013-04-06:228074096:-0.00167613
addeddate^2013-04-06^07COLON53COLON16:772856994:-0.00167613
addeddate^2013-04-19:934282079:-0.0020447
addeddate^2013-04-19^17COLON49COLON01:1506702:-0.0020447
addeddate^2013-05-05:36419748:0.000822473
addeddate^2013-05-05^02COLON02COLON21:189353099:0.000822473
addeddate^2013-05-15:75636856:0.00260393
addeddate^2013-05-15^01COLON04COLON39:278215949:0.00260393
addeddate^2013-07-17:148904044:0.0145846
addeddate^2013-07-17^23COLON23COLON58:259680405:0.0145846
addeddate^2013-08-05:608623633:0.00969353
addeddate^2013-08-05^11COLON48COLON24:867854373:0.00964225
addeddate^2013-08-05^13COLON04COLON22:1005147255:0.000901699
addeddate^2013-08-31:759917685:0.000482261
addeddate^2013-08-31^11COLON02COLON33:360358813:0.000482261
addeddate^2013-09-14:544321234:0.00146051
addeddate^2013-09-14^18COLON56COLON38:1046840330:0.00146051
addeddate^2013-10-04:418578827:0.0148562
addeddate^2013-10-04^20COLON03COLON26.807818:871076725:0.0148562
addeddate^2013-10-27:866452722:-0.0048907
addeddate^2013-10-27^22COLON27COLON42.237764:1006111420:-0.0048907
addeddate^2013-11-05:398018460:-0.00142635
addeddate^2013-11-05^14COLON24COLON53:838538520:-0.00142635
addeddate^2013-11-07:883976278:-0.0311413
addeddate^2013-11-07^11COLON28COLON02:783710670:-0.0311413
addeddate^2013-11-14:605012189:0.018783
addeddate^2013-11-14^11COLON07COLON31.773652:258886411:0.00394059
addeddate^2013-11-14^11COLON22COLON56.405935:176603648:0.0160884
addeddate^2013-11-17:774080485:-0.00778387
addeddate^2013-11-17^14COLON30COLON46:515596556:-0.000443585
addeddate^2013-11-17^21COLON47COLON29.41511:337941251:-0.00752505
addeddate^2013-11-24:292471689:0.0314222
addeddate^2013-11-24^08COLON15COLON24.409386:860959483:0.0314222
addeddate^2013-11-26:152108051:0.00124267
addeddate^2013-11-26^18COLON01COLON39.354135:924203343:0.00124267
addeddate^2013-12-14:659299304:0.000970902
addeddate^2013-12-14^19COLON53COLON04.912243:958105786:0.000970902
addeddate^2013-12-15:674079587:0.00610638
addeddate^2013-12-15^22COLON25COLON24.533257:840098756:0.00610638
addeddate^2013-12-18:59425711:0.00316339
addeddate^2013-12-18^17COLON47COLON46:699561695:0.00316339
addeddate^2013-12-25:591710863:0.0131667
addeddate^2013-12-25^19COLON25COLON56:276819043:0.0131667
addeddate^2014-01-26:532711483:0.0132466
addeddate^2014-01-26^22COLON24COLON15:129295211:0.0132466
addeddate^2014-01-30:453647628:0.000216484
addeddate^2014-01-30^18COLON56COLON39:579984645:0.000216484
addeddate^2014-02-03:565718660:0.00435222
addeddate^2014-02-03^21COLON24COLON14.463927:253538910:0.00435222
addeddate^2014-02-11:100914985:0.00238765
addeddate^2014-02-11^18COLON19COLON29:26267026:0.00238765
addeddate^2014-03-11:183012235:0.0189088
addeddate^2014-03-11^22COLON41COLON09:467488136:0.0189088
addeddate^2014-04-07:774036875:0.0171762
addeddate^2014-04-07^21COLON14COLON28:1056132947:0.0171762
addeddate^2014-04-14:1067240712:0.024559
addeddate^2014-04-14^21COLON54COLON46:687992341:0.024559
addeddate^2014-04-27:218335523:0.0077556
addeddate^2014-04-27^20COLON08COLON50:528006713:0.0077556
addeddate^2014-05-30:712280467:0.00115231
addeddate^2014-05-30^12COLON58COLON33.031137:195216878:0.00115231
addeddate^2014-06-08:716288507:-0.00134125
addeddate^2014-06-08^05COLON07COLON02:996910217:-0.00134125
addeddate^2014-07-09:1005005161:0.00166725
addeddate^2014-07-09^23COLON34COLON16.322325:917333392:0.00166725
addeddate^2014-07-10:869245199:0.000600818
addeddate^2014-07-10^21COLON17COLON20.062167:845903172:0.000600818
addeddate^2014-07-20:797953609:0.010785
addeddate^2014-07-20^16COLON26COLON53:691049247:0.010785
addeddate^2014-07-22:505740534:0.000174887
addeddate^2014-07-22^15COLON15COLON17.427071:735917973:0.000174887
addeddate^2014-08-04:892646769:0.0467652
addeddate^2014-08-04^18COLON16COLON25:300089295:0.0467652
addeddate^2014-08-07:893830607:0.0117153
addeddate^2014-08-07^13COLON46COLON17:146315971:0.0117153
addeddate^2014-08-09:706843917:0.00562867
addeddate^2014-08-09^06COLON08COLON35:876061369:0.00562867
addeddate^2014-08-22:633663584:0.0130039
addeddate^2014-08-22^00COLON46COLON42:144549780:0.0130039
addeddate^2014-08-25:721541020:0.00294833
addeddate^2014-08-25^08COLON15COLON25.203824:887787423:0.00294833
addeddate^2014-09-03:444845927:0.00269968
addeddate^2014-09-03^15COLON23COLON25:611867398:0.00269968
addeddate^2014-09-06:406893500:0.00639025
addeddate^2014-09-06^08COLON45COLON26.504409:91983599:0.00381632
addeddate^2014-09-06^08COLON54COLON40.085992:44162527:0.00513904
addeddate^2014-09-06^14COLON05COLON47.571302:983808400:0.000339689
addeddate^2014-09-16:170523765:0.0164763
addeddate^2014-09-16^23COLON28COLON59:996075567:0.0164763
addeddate^2014-09-17:143630871:0.0192833
addeddate^2014-09-17^17COLON17COLON03:310642582:0.0204641
addeddate^2014-09-17^17COLON54COLON40:665898693:-0.00290916
addeddate^2014-09-19:626596489:-0.00572848
addeddate^2014-09-19^07COLON15COLON18:447595935:-0.00572848
addeddate^2014-10-05:216337306:0.00697447
addeddate^2014-10-05^18COLON36COLON34:700004007:0.00697447
addeddate^2014-10-10:213547898:8.16749e-05
addeddate^2014-10-10^14COLON57COLON15:423000901:8.16749e-05
addeddate^2014-10-11:48338761:0.00769148
addeddate^2014-10-11^19COLON12COLON34:933985865:0.00769148
addeddate^2014-10-18:358929298:0.0123001
addeddate^2014-10-18^22COLON36COLON37.567164:707318734:0.0123001
addeddate^2014-10-28:714065388:0.0160572
addeddate^2014-10-28^18COLON19COLON29:975689801:0.00488867
addeddate^2014-10-28^18COLON19COLON32.57894:467853422:0.00720996
addeddate^2014-10-28^19COLON01COLON43:5217016:0.0118353
addeddate^2014-10-28^22COLON39COLON22:466034176:0.004701
addeddate^2014-11-01:632900789:0.00668602
addeddate^2014-11-01^15COLON03COLON58:535289484:0.00668602
addeddate^2014-11-14:926638377:0.00842076
addeddate^2014-11-14^21COLON31COLON42.55106:750379440:0.00842076
addeddate^2014-11-15:603722379:0.013606
addeddate^2014-11-15^00COLON27COLON02:402563711:0.013606
addeddate^2014-11-28:900748781:0.0284421
addeddate^2014-11-28^15COLON54COLON48:593163015:0.0284421
addeddate^2014-12-01:218038223:0.0421637
addeddate^2014-12-01^23COLON53COLON28:507068886:0.0421637
addeddate^2014-12-02:711015762:0.011889
addeddate^2014-12-02^06COLON55COLON25.419169:283385540:0.011889
addeddate^2014-12-03:1012892428:0.0171344
addeddate^2014-12-03^22COLON29COLON47:364333514:0.0171344
addeddate^2014-12-04:312585068:0.00044419
addeddate^2014-12-04^13COLON43COLON32:738721307:0.00044419
addeddate^2014-12-16:276464171:0.00903488
addeddate^2014-12-16^23COLON26COLON57.414832:3827689:0.00903488
addeddate^2014-12-29:654408445:0.0177678
addeddate^2014-12-29^14COLON20COLON58:1061736539:0.0177678
addeddate^2015-01-05:7351785:0.0372327
addeddate^2015-01-05^00COLON04COLON00:684867192:0.00434771
addeddate^2015-01-05^17COLON03COLON48:49495276:0.00704354
addeddate^2015-01-05^18COLON14COLON06:374480674:0.0343427
addeddate^2015-01-17:511693794:0.00721054
addeddate^2015-01-17^13COLON39COLON30:375393246:0.00721054
addeddate^2015-01-25:484964630:0.0220847
addeddate^2015-01-25^13COLON18COLON07:644744797:0.0220847
addeddate^2015-02-09:550811341:0.0284328
addeddate^2015-02-09^18COLON34COLON06:291506351:0.0192323
addeddate^2015-02-09^22COLON07COLON12:317769508:0.00791518
addeddate^2015-02-09^22COLON22COLON15:313797517:0.014535
addeddate^2015-02-22:1044051046:0.0127691
addeddate^2015-02-22^13COLON45COLON45:883996022:0.0127691
addeddate^2015-03-02:568936298:0.0412101
addeddate^2015-03-02^13COLON54COLON21:123224130:0.0349887
addeddate^2015-03-02^14COLON28COLON33:853477356:0.0217952
addeddate^2015-03-16:1030918473:0.0113093
addeddate^2015-03-16^21COLON05COLON34:738282326:0.0113093
addeddate^2015-03-23:980853882:0.0151487
addeddate^2015-03-23^20COLON34COLON10:36235913:0.0151487
addeddate^2015-03-26:506138358:0.0210862
addeddate^2015-03-26^23COLON32COLON54:136482849:0.0210862
addeddate^2015-04-08:543069837:0.0156539
addeddate^2015-04-08^23COLON50COLON37:184459975:0.0156539
addeddate^2015-04-12:185034490:0.0195111
addeddate^2015-04-12^15COLON16COLON40:250681652:0.0195111
addeddate^2015-04-13:989572614:0.0420647
addeddate^2015-04-13^11COLON37COLON29:680325628:0.011156
addeddate^2015-04-13^11COLON43COLON20:808802139:0.0163545
addeddate^2015-04-13^11COLON55COLON01:61081852:0.0175422
addeddate^2015-04-13^12COLON59COLON19:604086255:0.0176096
addeddate^2015-04-13^16COLON27COLON27:514999707:0.0155909
addeddate^2015-04-13^20COLON02COLON09:1005284055:0.0193418
addeddate^2015-04-13^20COLON16COLON32:657556773:0.0165455
addeddate^2015-04-14:539680886:0.0403154
addeddate^2015-04-14^16COLON41COLON46:141115765:0.0141462
addeddate^2015-04-14^16COLON50COLON29:536859396:0.0192182
addeddate^2015-04-14^17COLON05COLON16:962663958:0.0143087
addeddate^2015-04-14^17COLON09COLON05:662715639:0.0169289
addeddate^2015-04-14^17COLON19COLON27:747146432:0.0189627
addeddate^2015-04-16:652476139:0.0146344
addeddate^2015-04-16^15COLON15COLON47:472842105:0.0146344
addeddate^2015-04-17:847058819:0.0298585
addeddate^2015-04-17^14COLON35COLON27:525431224:0.0137179
addeddate^2015-04-17^15COLON11COLON12:198951165:0.0129911
addeddate^2015-04-17^15COLON11COLON33:704878169:0.0118515
addeddate^2015-04-17^22COLON03COLON43:265883283:0.0153466
addeddate^2015-04-17^22COLON20COLON17:1018651221:0.0122247
addeddate^2015-04-17^22COLON27COLON34:267390841:0.0201615
addeddate^2015-04-20:408676219:0.0181285
addeddate^2015-04-20^20COLON05COLON16:566676189:0.0181285
addeddate^2015-04-21:457700644:0.0161049
addeddate^2015-04-21^20COLON32COLON49:332065349:0.0039073
addeddate^2015-04-21^20COLON39COLON56:131343199:0.0156829
addeddate^2015-04-22:31980035:0.0215794
addeddate^2015-04-22^18COLON09COLON43:476632796:0.0143081
addeddate^2015-04-22^18COLON38COLON48:1013499234:0.00755314
addeddate^2015-04-22^19COLON41COLON00:920776087:0.00479838
addeddate^2015-04-22^22COLON04COLON12:273597876:0.00814714
addeddate^2015-04-22^22COLON06COLON45:457919770:0.00250082
addeddate^2015-04-23:486441868:0.0398591
addeddate^2015-04-23^12COLON27COLON52:551392317:0.0188515
addeddate^2015-04-23^13COLON08COLON04:74690988:0.0153876
addeddate^2015-04-23^13COLON18COLON06:31264021:0.00881843
addeddate^2015-04-23^13COLON47COLON17:9861252:0.0111739
addeddate^2015-04-23^14COLON22COLON29:669433875:0.0135828
addeddate^2015-04-23^15COLON16COLON07:690627923:0.00709821
addeddate^2015-04-23^17COLON53COLON49:961150230:0.014301
addeddate^2015-04-23^23COLON14COLON00:948747161:0.0036191
addeddate^2015-04-24:628043319:0.0262143
addeddate^2015-04-24^20COLON27COLON04:468238140:0.0060287
addeddate^2015-04-24^20COLON31COLON58:59655617:0.00496941
addeddate^2015-04-24^21COLON54COLON18:241491751:5.71633e-05
addeddate^2015-04-24^22COLON03COLON18:446397354:0.0169245
addeddate^2015-04-24^23COLON17COLON17:933241802:0.0134144
addeddate^2015-04-25:942511907:0.0133968
addeddate^2015-04-25^00COLON05COLON24:36308348:0.00755157
addeddate^2015-04-25^00COLON20COLON05:772828688:0.00211673
addeddate^2015-04-25^00COLON24COLON04:421398999:0.0085703
addeddate^2015-04-26:843056342:0.0232495
addeddate^2015-04-26^16COLON19COLON17:631339597:0.00195751
addeddate^2015-04-26^16COLON39COLON57:196729943:0.0139776
addeddate^2015-04-26^16COLON47COLON53:243661377:0.0043581
addeddate^2015-04-26^17COLON01COLON54:697710413:0.0115817
addeddate^2015-04-26^22COLON16COLON38:171921074:0.0146857
addeddate^2015-04-26^22COLON53COLON04:777799970:0.00382231
addeddate^2015-04-27:52764981:0.0182212
addeddate^2015-04-27^00COLON18COLON37:1029928961:0.00489765
addeddate^2015-04-27^00COLON35COLON28:488839940:0.0112061
addeddate^2015-04-27^01COLON00COLON15:110032011:0.000191283
addeddate^2015-04-27^01COLON18COLON38:519700441:0.0129026
addeddate^2015-04-29:159844491:0.017231
addeddate^2015-04-29^10COLON17COLON40:491529459:0.00610497
addeddate^2015-04-29^11COLON18COLON37:574871951:0.000175432
addeddate^2015-04-29^11COLON34COLON43:615796201:0.0161007
addeddate^2015-04-30:65691061:0.021244
addeddate^2015-04-30^21COLON47COLON55:941846440:0.017408
addeddate^2015-04-30^23COLON12COLON20:799680683:0.0047941
addeddate^2015-04-30^23COLON21COLON37:839710393:0.00133668
addeddate^2015-04-30^23COLON38COLON25:888675388:0.00893143
addeddate^2015-05-01:740192485:0.0342695
addeddate^2015-05-01^02COLON11COLON14:156820833:0.00910735
addeddate^2015-05-01^02COLON33COLON11:401167865:0.0165689
addeddate^2015-05-01^02COLON58COLON45:1050086944:0.0111017
addeddate^2015-05-01^21COLON21COLON01:1054147162:0.0119248
addeddate^2015-05-01^21COLON24COLON57:598911306:0.00639941
addeddate^2015-05-01^21COLON50COLON42:290540096:0.00541194
addeddate^2015-05-02:236096054:0.0476004
addeddate^2015-05-02^17COLON16COLON37:201067161:0.0158574
addeddate^2015-05-02^18COLON40COLON34:118710080:0.0174145
addeddate^2015-05-02^20COLON25COLON03:467570052:0.0193568
addeddate^2015-05-02^22COLON14COLON40:602217384:0.00833124
addeddate^2015-05-02^22COLON19COLON44:76708952:0.00614096
addeddate^2015-05-02^22COLON42COLON12:599108891:0.0117229
addeddate^2015-05-02^23COLON08COLON44:164384908:0.0192912
addeddate^2015-05-03:573399984:0.0382074
addeddate^2015-05-03^00COLON01COLON15:578080443:0.00536536
addeddate^2015-05-03^00COLON06COLON53:77503894:0.0165573
addeddate^2015-05-03^00COLON21COLON36:183812962:0.0178534
addeddate^2015-05-03^00COLON32COLON04:365416612:0.00438862
addeddate^2015-05-03^00COLON47COLON09:115250248:0.00911492
addeddate^2015-05-03^00COLON53COLON59:381714072:0.0132575
addeddate^2015-05-03^01COLON23COLON56:84004891:0.0164931
addeddate^2015-05-03^17COLON04COLON58:1011316805:0.0133074
addeddate^2015-05-04:810922553:0.0248007
addeddate^2015-05-04^17COLON43COLON06:256174194:0.00467379
addeddate^2015-05-04^18COLON24COLON19:757269452:0.0117555
addeddate^2015-05-04^21COLON04COLON28:284448629:0.00699291
addeddate^2015-05-04^22COLON43COLON59:977344533:0.0123863
addeddate^2015-05-05:615699784:0.031033
addeddate^2015-05-05^20COLON12COLON28:874225864:0.000344297
addeddate^2015-05-05^20COLON24COLON55:156729203:0.0141541
addeddate^2015-05-05^20COLON41COLON15:177700489:0.00612794
addeddate^2015-05-05^21COLON54COLON19:736851233:0.0183384
addeddate^2015-05-05^23COLON30COLON24:1014104053:0.0138922
addeddate^2015-05-05^23COLON34COLON11:625855638:0.00118499
addeddate^2015-05-05^23COLON44COLON24:620413713:0.00291671
addeddate^2015-05-05^23COLON47COLON30:884108880:0.000670183
addeddate^2015-05-06:34778824:-0.0140957
addeddate^2015-05-06^00COLON19COLON42:394428558:0.0159513
addeddate^2015-05-06^00COLON35COLON34:4573670:0.00343431
addeddate^2015-05-06^00COLON57COLON09:994407664:0.0120312
addeddate^2015-05-06^01COLON12COLON53:154509420:0.00685269
addeddate^2015-05-06^19COLON51COLON13:892990653:-0.0467031
addeddate^2015-05-06^22COLON43COLON29:293158921:0.00491233
addeddate^2015-05-06^23COLON11COLON47:628606823:0.0135833
addeddate^2015-05-19:637982926:0.0181376
addeddate^2015-05-19^01COLON50COLON27:138757005:0.0181376
addeddate^2015-05-21:427671806:0.00518898
addeddate^2015-05-21^19COLON54COLON03:599835718:0.000293496
addeddate^2015-05-21^22COLON22COLON23:7679454:0.00518001
addeddate^2015-05-22:712972390:0.0129893
addeddate^2015-05-22^14COLON18COLON49:575653654:0.0129893
addeddate^2015-05-24:514326382:0.0042075
addeddate^2015-05-24^09COLON35COLON11:877862437:4.32723e-05
addeddate^2015-05-24^09COLON35COLON17:760657710:7.92152e-05
addeddate^2015-05-24^18COLON56COLON37:344820855:0.00414997
addeddate^2015-05-25:317849113:0.0288207
addeddate^2015-05-25^09COLON00COLON10:44651359:-0.000685868
addeddate^2015-05-25^10COLON00COLON19:500845049:-0.00655212
addeddate^2015-05-25^10COLON03COLON08:593557397:-0.00185897
addeddate^2015-05-25^10COLON43COLON53:559776491:0.0158623
addeddate^2015-05-25^10COLON50COLON48:69634714:0.0145656
addeddate^2015-05-25^12COLON31COLON52:799678676:0.0166905
addeddate^2015-05-25^20COLON13COLON20:391233706:-0.00147795
addeddate^2015-05-25^20COLON40COLON44:174699057:-0.00284854
addeddate^2015-05-25^23COLON40COLON04:229203058:-0.000367453
addeddate^2015-05-26:996053540:-0.0133041
addeddate^2015-05-26^02COLON22COLON36:935755831:-0.0133041
addeddate^2015-05-27:284247214:0.0195259
addeddate^2015-05-27^17COLON33COLON54:394216216:0.0195259
addeddate^2015-05-30:429383061:0.0236542
addeddate^2015-05-30^16COLON37COLON01:282676180:0.0146581
addeddate^2015-05-30^17COLON01COLON55:838787095:0.0159182
addeddate^2015-05-30^18COLON16COLON58:869589406:0.0101252
addeddate^2015-06-06:270058993:0.0281331
addeddate^2015-06-06^11COLON59COLON19:214877269:0.0281331
addeddate^2015-06-08:509786342:-0.000948925
addeddate^2015-06-08^12COLON20COLON56:881551930:-0.000948925
addeddate^2015-06-11:371510298:-0.0155592
addeddate^2015-06-11^21COLON37COLON45:102101034:-0.0155592
addeddate^2015-06-12:528005612:4.9756e-05
addeddate^2015-06-12^02COLON43COLON12:676629566:4.9756e-05
addeddate^2015-06-19:408893892:0.0153262
addeddate^2015-06-19^20COLON52COLON48:607622640:0.0153262
addeddate^2015-06-20:393198227:0.0247792
addeddate^2015-06-20^03COLON48COLON47:13441951:0.000142435
addeddate^2015-06-20^04COLON00COLON02:832101661:0.0150795
addeddate^2015-06-20^04COLON49COLON23:549551974:0.0015944
addeddate^2015-06-20^22COLON27COLON50:1009325619:0.0162097
addeddate^2015-06-21:381064005:0.026132
addeddate^2015-06-21^01COLON06COLON52:640822599:0.0164811
addeddate^2015-06-21^01COLON23COLON20:180557989:0.0155957
addeddate^2015-06-23:726023468:0.0171582
addeddate^2015-06-23^01COLON07COLON12:209203270:0.0155616
addeddate^2015-06-23^03COLON16COLON17:992167827:0.0120895
addeddate^2015-06-24:840541836:0.0147326
addeddate^2015-06-24^23COLON44COLON10:808816021:0.0147326
addeddate^2015-06-25:25835824:0.031839
addeddate^2015-06-25^01COLON14COLON31:678401961:0.0187427
addeddate^2015-06-25^02COLON46COLON59:1048020253:0.00536998
addeddate^2015-06-25^06COLON27COLON06:195530039:0.0120261
addeddate^2015-06-25^07COLON24COLON58:75316061:0.0054723
addeddate^2015-06-25^07COLON34COLON07:610280446:0.0142836
addeddate^2015-06-26:486403255:0.0118859
addeddate^2015-06-26^14COLON11COLON43:552883343:0.00524982
addeddate^2015-06-26^14COLON31COLON30:467487728:0.00810593
addeddate^2015-06-26^15COLON07COLON53:599719055:0.00310817
addeddate^2015-06-28:846632593:7.73236e-05
addeddate^2015-06-28^20COLON36COLON45.309182:813300846:7.73236e-05
addeddate^2015-06-30:956743678:0.0115104
addeddate^2015-06-30^10COLON51COLON33:602920050:0.0115104
addeddate^2015-07-01:630092513:0.0209044
addeddate^2015-07-01^08COLON58COLON56:1059206423:0.0209044
addeddate^2015-07-10:553565929:0.025066
addeddate^2015-07-10^15COLON38COLON55:926126055:0.025066
addeddate^2015-07-14:115461229:0.0156115
addeddate^2015-07-14^01COLON00COLON46:478416949:0.0156115
addeddate^2015-07-15:521332474:0.0225184
addeddate^2015-07-15^22COLON43COLON50:451639281:0.0135785
addeddate^2015-07-15^23COLON08COLON54:781051958:0.0183644
addeddate^2015-07-16:239517302:0.0167346
addeddate^2015-07-16^03COLON42COLON02:733980329:0.0111307
addeddate^2015-07-16^04COLON27COLON41:283218533:0.0128009
addeddate^2015-07-17:116816830:-0.00257356
addeddate^2015-07-17^22COLON45COLON48:749923697:-0.00212767
addeddate^2015-07-17^22COLON52COLON27:628433582:-0.000460647
addeddate^2015-07-18:483976124:0.0368399
addeddate^2015-07-18^09COLON38COLON47:756620321:0.0368399
addeddate^2015-07-19:966997580:0.00976266
addeddate^2015-07-19^11COLON30COLON01:266156924:-0.00399738
addeddate^2015-07-19^22COLON10COLON37:960579417:0.0103749
addeddate^2015-07-20:484925586:0.00376217
addeddate^2015-07-20^04COLON04COLON05:715629161:-0.000692373
addeddate^2015-07-20^11COLON39COLON40:752495877:0.00445732
addeddate^2015-07-23:721933215:0.00239595
addeddate^2015-07-23^10COLON09COLON06:984947478:-0.0150433
addeddate^2015-07-23^12COLON45COLON46:513670376:0.0181738
addeddate^2015-07-24:305106900:-0.000676697
addeddate^2015-07-24^03COLON32COLON09:340206179:-0.000676697
addeddate^2015-07-25:209741609:0.00763035
addeddate^2015-07-25^19COLON38COLON47:634519573:0.00785927
addeddate^2015-07-25^23COLON33COLON26:869762921:-0.00180931
addeddate^2015-07-26:1036028241:0.014011
addeddate^2015-07-26^23COLON26COLON29:849883608:0.014011
addeddate^2015-07-28:627364332:0.016964
addeddate^2015-07-28^05COLON08COLON46:767311611:0.0132573
addeddate^2015-07-28^06COLON45COLON45:407823770:0.010194
addeddate^2015-07-28^07COLON38COLON43:1021695352:0.0110485
addeddate^2015-07-31:432243403:0.0130003
addeddate^2015-07-31^04COLON37COLON17:166308872:0.0130003
addeddate^2015-08-01:582719137:0.036022
addeddate^2015-08-01^03COLON32COLON09:306022140:0.036022
addeddate^2015-08-02:682895453:0.0145679
addeddate^2015-08-02^10COLON43COLON20:570957240:0.011004
addeddate^2015-08-02^11COLON10COLON47:350279505:0.00976562
addeddate^2015-08-04:316220955:0.0247238
addeddate^2015-08-04^20COLON21COLON57:412461968:0.0247238
addeddate^2015-08-08:481583425:0.0319429
addeddate^2015-08-08^05COLON35COLON59:177267190:0.0319429
addeddate^2015-08-10:85817030:0.00705226
addeddate^2015-08-10^11COLON52COLON16:990789832:0.00705226
addeddate^2015-08-13:1065895381:0.0097467
addeddate^2015-08-13^00COLON32COLON01:559027675:0.0097467
addeddate^2015-08-14:814818959:0.020838
addeddate^2015-08-14^06COLON17COLON11:729157098:0.020838
addeddate^2015-08-16:732047431:-0.00252153
addeddate^2015-08-16^06COLON08COLON19:865493994:-0.00252153
addeddate^2015-08-22:264928446:0.0104144
addeddate^2015-08-22^17COLON56COLON51:872234734:0.0104144
addeddate^2015-08-23:446990067:-0.00265366
addeddate^2015-08-23^11COLON34COLON28:373903879:-0.00265366
addeddate^2015-09-01:203808895:0.00854216
addeddate^2015-09-01^17COLON50COLON12:509343019:0.00854216
addeddate^2015-09-02:212158652:0.0128489
addeddate^2015-09-02^10COLON16COLON49:291367782:0.0128489
addeddate^2015-09-03:948231292:0.0332084
addeddate^2015-09-03^21COLON37COLON46:48148466:0.0332084
addeddate^2015-09-05:522579288:0.0143963
addeddate^2015-09-05^06COLON26COLON24:362725383:0.00322179
addeddate^2015-09-05^07COLON55COLON11:945854170:0.0116737
addeddate^2015-09-08:920464961:0.0179699
addeddate^2015-09-08^08COLON10COLON21:828817339:0.00207162
addeddate^2015-09-08^08COLON15COLON22:196672865:0.00762458
addeddate^2015-09-08^08COLON30COLON33:973949738:0.00441889
addeddate^2015-09-08^09COLON32COLON15:702430640:0.00439212
addeddate^2015-09-08^14COLON56COLON47:84401359:0.00836289
addeddate^2015-09-16:70794216:0.0210591
addeddate^2015-09-16^14COLON42COLON42:590835585:0.00645059
addeddate^2015-09-16^14COLON58COLON31:1051598880:0.0254914
addeddate^2015-09-16^15COLON34COLON54:98218310:0.00691785
addeddate^2015-09-22:663284630:0.0341297
addeddate^2015-09-22^00COLON17COLON40:882663244:0.0122639
addeddate^2015-09-22^00COLON28COLON20:425501678:0.0212025
addeddate^2015-09-22^00COLON53COLON39:180200990:0.0175556
addeddate^2015-09-23:533306179:0.0169165
addeddate^2015-09-23^15COLON32COLON14:633006458:0.0169165
addeddate^2015-09-28:712018265:0.0141771
addeddate^2015-09-28^01COLON31COLON43:708624642:0.0141771
addeddate^2015-10-07:477148909:0.0167337
addeddate^2015-10-07^16COLON36COLON14:1033948699:0.0167337
addeddate^2015-10-11:644199870:0.0206622
addeddate^2015-10-11^00COLON32COLON56:140977807:0.0206622
addeddate^2015-10-22:684576845:0.00909081
addeddate^2015-10-22^12COLON27COLON06:18106756:0.00909081
addeddate^2015-11-01:461891596:-0.0122757
addeddate^2015-11-01^00COLON29COLON09:520261095:-0.0122757
addeddate^2015-11-05:995986645:-0.00118152
addeddate^2015-11-05^07COLON42COLON04:643200714:-0.00118152
addeddate^2015-11-06:370291691:0.0318259
addeddate^2015-11-06^13COLON48COLON45:787217089:0.0147743
addeddate^2015-11-06^15COLON19COLON38:225372199:0.0275101
addeddate^2015-11-15:813835735:0.0121268
addeddate^2015-11-15^22COLON01COLON31:911530055:0.0121268
addeddate^2015-11-23:421194716:-0.005534
addeddate^2015-11-23^10COLON36COLON08:600303082:-0.005534
addeddate^2015-11-28:57935676:-0.00124954
addeddate^2015-11-28^21COLON27COLON55:429222366:-0.00124954
addeddate^2015-12-05:558054765:-0.000582127
addeddate^2015-12-05^04COLON29COLON27:533794073:-0.000582127
addeddate^2015-12-09:126440896:0.0043395
addeddate^2015-12-09^16COLON00COLON44:673859717:0.0043395
addeddate^2015-12-11:259860109:0.00330207
addeddate^2015-12-11^12COLON41COLON03:918707028:0.00330207
addeddate^2015-12-12:337145212:0.0109553
addeddate^2015-12-12^08COLON44COLON04:476506193:-0.00311313
addeddate^2015-12-12^17COLON19COLON01:68743622:0.0133218
addeddate^2015-12-30:948022897:0.0144819
addeddate^2015-12-30^03COLON30COLON11:767837207:0.0144819
addeddate^2015-12-31:134220297:0.0246796
addeddate^2015-12-31^11COLON17COLON11:761526279:0.015347
addeddate^2015-12-31^11COLON47COLON57:448258219:0.015925
addeddate^2016-01-05:411299487:-0.00108962
addeddate^2016-01-05^02COLON24COLON22:844040161:-0.00108962
addeddate^2016-01-09:593078012:-0.0406178
addeddate^2016-01-09^15COLON32COLON08:1060516963:-0.0406178
addeddate^2016-01-12:183519400:0.020539
addeddate^2016-01-12^16COLON55COLON41:952181318:0.020539
addeddate^2016-01-14:963475169:-0.00204468
addeddate^2016-01-14^11COLON27COLON24:7574925:-0.00204468
addeddate^2016-01-15:301893150:0.0105072
addeddate^2016-01-15^03COLON49COLON59:606785184:0.0105072
addeddate^2016-01-24:102131114:0.0127069
addeddate^2016-01-24^22COLON47COLON42:1037900833:0.0127069
addeddate^2016-01-25:7934164:0.00491021
addeddate^2016-01-25^20COLON08COLON03:963688721:0.00491021
addeddate^2016-01-31:848798852:-0.000503346
addeddate^2016-01-31^21COLON27COLON40:1024865660:-0.000503346
addeddate^2016-02-01:536342421:0.0286533
addeddate^2016-02-01^21COLON52COLON02:944519932:0.0286533
addeddate^2016-02-05:761005099:-0.000650778
addeddate^2016-02-05^05COLON59COLON05:119175839:-0.000650778
addeddate^2016-02-07:792210739:0.0379911
addeddate^2016-02-07^00COLON47COLON05:797452298:0.0379911
addeddate^2016-02-09:1012020750:0.00297306
addeddate^2016-02-09^23COLON33COLON38:137995671:0.00297306
addeddate^2016-02-13:842561194:0.0177682
addeddate^2016-02-13^11COLON30COLON03:390103457:-0.000542442
addeddate^2016-02-13^12COLON02COLON41:538583886:-0.000351651
addeddate^2016-02-13^17COLON26COLON16:371124994:0.0181611
addeddate^2016-02-17:425998488:0.00581281
addeddate^2016-02-17^01COLON02COLON24:508044995:0.00581281
addeddate^2016-02-18:709952457:0.00712589
addeddate^2016-02-18^21COLON12COLON37:297385856:0.00712589
addeddate^2016-02-20:431412816:0.00475756
addeddate^2016-02-20^13COLON20COLON59:850552797:0.00475756
addeddate^2016-02-26:1023147708:0.0193841
addeddate^2016-02-26^00COLON03COLON41:335350252:0.0191294
addeddate^2016-02-26^08COLON08COLON38:10077854:0.00155822
addeddate^2016-02-29:481592223:0.00641614
addeddate^2016-02-29^19COLON01COLON54:452947490:0.00641614
addeddate^2016-03-01:299275741:-0.00221168
addeddate^2016-03-01^05COLON09COLON55:273335946:-0.00221168
addeddate^2016-03-02:401167212:0.0260504
addeddate^2016-03-02^19COLON37COLON40:351621737:0.0260504
addeddate^2016-03-23:752309543:0.0175312
addeddate^2016-03-23^06COLON30COLON46:683162554:0.0175312
addeddate^2016-03-29:583843269:0.00287674
addeddate^2016-03-29^22COLON16COLON32:179944284:0.00287674
addeddate^20COLON02COLON09:682247913:0.0193418
addeddate^20COLON03COLON26.807818:635902230:0.0148562
addeddate^20COLON05COLON16:353686094:0.0181285
addeddate^20COLON08COLON03:1056368525:0.00491021
addeddate^20COLON08COLON50:158573218:0.0077556
addeddate^20COLON12COLON28:15268000:0.000344297
addeddate^20COLON13COLON20:289318389:-0.00147795
addeddate^20COLON14COLON28:815202789:0.0057682
addeddate^20COLON16COLON32:334520631:0.0165455
addeddate^20COLON21COLON57:89870049:0.0247238
addeddate^20COLON24COLON55:371513163:0.0141541
addeddate^20COLON25COLON03:201625126:0.0193568
addeddate^20COLON27COLON04:15093473:0.0060287
addeddate^20COLON27COLON16:469258723:0.000793618
addeddate^20COLON31COLON58:680252774:0.00496941
addeddate^20COLON32COLON49:330085809:0.0039073
addeddate^20COLON34COLON10:617121271:0.0151487
addeddate^20COLON36COLON45.309182:635507489:7.73236e-05
addeddate^20COLON39COLON56:129363659:0.0156829
addeddate^20COLON40COLON44:72783740:-0.00284854
addeddate^20COLON40COLON51:432231201:0.000408509
addeddate^20COLON41COLON15:392484449:0.00612794
addeddate^20COLON52COLON48:892407612:0.0153262
addeddate^21COLON04COLON28:761051424:0.00699291
addeddate^21COLON05COLON34:35093041:0.0113093
addeddate^21COLON12COLON37:366134747:0.00712589
addeddate^21COLON13COLON29:723931419:0.00394539
addeddate^21COLON14COLON28:898787572:0.0171762
addeddate^21COLON17COLON20.062167:492954993:0.000600818
addeddate^21COLON21COLON01:387654665:0.0119248
addeddate^21COLON24COLON14.463927:599214570:0.00435222
addeddate^21COLON24COLON57:1006160633:0.00639941
addeddate^21COLON27COLON40:980496136:-0.000503346
addeddate^21COLON27COLON55:863548306:-0.00124954
addeddate^21COLON31COLON42.55106:300294187:0.00842076
addeddate^21COLON37COLON45:119202424:-0.0155592
addeddate^21COLON37COLON46:33306982:0.0332084
addeddate^21COLON47COLON29.41511:320797106:-0.00752505
addeddate^21COLON47COLON55:816170951:0.017408
addeddate^21COLON50COLON42:697789423:0.00541194
addeddate^21COLON52COLON02:406382779:0.0286533
addeddate^21COLON54COLON18:862088908:5.71633e-05
addeddate^21COLON54COLON19:951635193:0.0183384
addeddate^21COLON54COLON46:34368813:0.024559
addeddate^22COLON01COLON31:139865804:0.0121268
addeddate^22COLON03COLON18:1066994511:0.0169245
addeddate^22COLON03COLON43:365411868:0.0153466
addeddate^22COLON04COLON12:120954045:0.00814714
addeddate^22COLON05COLON02:285867766:0.001405
addeddate^22COLON06COLON45:305275939:0.00250082
addeddate^22COLON07COLON12:1038381707:0.00791518
addeddate^22COLON10COLON37:16338493:0.0103749
addeddate^22COLON14COLON40:336272458:0.00833124
addeddate^22COLON16COLON32:140338091:0.00287674
addeddate^22COLON16COLON38:320970548:0.0146857
addeddate^22COLON19COLON44:884505850:0.00614096
addeddate^22COLON20COLON17:44437982:0.0122247
addeddate^22COLON22COLON15:1034409716:0.014535
addeddate^22COLON22COLON23:925248216:0.00518001
addeddate^22COLON24COLON15:55250204:0.0132466
addeddate^22COLON25COLON24.533257:864212717:0.00610638
addeddate^22COLON27COLON34:366919426:0.0201615
addeddate^22COLON27COLON42.237764:694628242:-0.0048907
addeddate^22COLON27COLON50:856874732:0.0162097
addeddate^22COLON29COLON47:105019118:0.0171344
addeddate^22COLON36COLON37.567164:948388996:0.0123001
addeddate^22COLON39COLON22:98022340:0.004701
addeddate^22COLON41COLON09:211251497:0.0189088
addeddate^22COLON42COLON12:333163965:0.0117229
addeddate^22COLON43COLON29:895657057:0.00491233
addeddate^22COLON43COLON50:1043815135:0.0135785
addeddate^22COLON43COLON59:380205504:0.0123863
addeddate^22COLON45COLON48:209083051:-0.00212767
addeddate^22COLON46COLON55:216341791:0.0296883
addeddate^22COLON47COLON42:5081887:0.0127069
addeddate^22COLON52COLON27:87592936:-0.000460647
addeddate^22COLON53COLON04:926849444:0.00382231
addeddate^22COLON58COLON33:15678118:0.00703444
addeddate^23COLON08COLON44:972181806:0.0192912
addeddate^23COLON08COLON54:299485988:0.0183644
addeddate^23COLON11COLON47:157363135:0.0135833
addeddate^23COLON12COLON20:674005194:0.0047941
addeddate^23COLON14COLON00:851864125:0.0036191
addeddate^23COLON17COLON17:480097135:0.0134144
addeddate^23COLON21COLON37:714034904:0.00133668
addeddate^23COLON23COLON58:495154649:0.0145846
addeddate^23COLON26COLON29:960323787:0.014011
addeddate^23COLON26COLON57.414832:349327210:0.00903488
addeddate^23COLON28COLON59:1047813262:0.0164763
addeddate^23COLON30COLON24:155146189:0.0138922
addeddate^23COLON32COLON54:416833283:0.0210862
addeddate^23COLON33COLON26:161798116:-0.00180931
addeddate^23COLON33COLON38:742470081:0.00297306
addeddate^23COLON34COLON11:840639598:0.00118499
addeddate^23COLON34COLON16.322325:127777995:0.00166725
addeddate^23COLON38COLON25:762999899:0.00893143
addeddate^23COLON40COLON04:127287741:-0.000367453
addeddate^23COLON44COLON10:269067577:0.0147326
addeddate^23COLON44COLON24:835197673:0.00291671
addeddate^23COLON47COLON30:25151016:0.000670183
addeddate^23COLON50COLON37:147271022:0.0156539
addeddate^23COLON53COLON28:869404227:0.0421637
boxid^OL100020605:835934549:0.00643384
contact^,aldarayn:95668449:-0.0215362
contact^,aldarayn^academy,:177112880:-0.0215362
contact^-:402372351:0.00613721
contact^-^Flames:563685683:0.0043395
contact^-^لهيب:966760582:0.0043395
contact^/:181137144:0.000628183
contact^/^سرية:709859077:0.00044419
contact^/^مؤسسة:514254707:0.00044419
contact^Flames:867937072:0.0043395
contact^Flames^of:16859107:0.0043395
contact^ISIS:79399180:0.0043395
contact^ISIS^-:948598747:0.0043395
contact^Roules:276326490:-0.0215362
contact^Roules^for:773122518:-0.0215362
contact^Ten:222200809:-0.0215362
contact^Ten^Roules:543326623:-0.0215362
contact^War:605556736:0.0043395
contact^War^-:159614719:0.0043395
contact^_منتديات:880513263:0.0112894
contact^_منتديات^الفلوجة:392520489:0.0112894
contact^academy,:88483027:-0.0215362
contact^for:1003581668:-0.0215362
contact^for^success,ten,rouls,success,aldarayn:522984071:-0.0215362
contact^httpCOLON//isdarat-istube.cf/ar/:495878897:0.00044419
contact^httpCOLON//isdarat-istube.cf/ar/^أو:624690397:0.00044419
contact^httpCOLON//isdarat-tube.ml/ar/:208263065:0.00044419
contact^of:287560051:0.0043395
contact^of^War:1025598119:0.0043395
contact^success,ten,rouls,success,aldarayn:557160755:-0.0215362
contact^success,ten,rouls,success,aldarayn^,aldarayn:160990280:-0.0215362
contact^أو:323748016:0.00044419
contact^أو^httpCOLON//isdarat-tube.ml/ar/:329631113:0.00044419
contact^إصدارات:856159190:0.00044419
contact^إصدارات^الدولة:101068876:0.00044419
contact^الإسلامية:361725567:0.00044419
contact^الإسلامية^httpCOLON//isdarat-istube.cf/ar/:1026173556:0.00044419
contact^الارهابية:234905472:0.0112894
contact^الامس:161488893:0.00705226
contact^البتار:230092743:0.00044419
contact^البتار^شاهدوا:614050570:0.00044419
contact^الحرب:349945559:0.0043395
contact^الدولة:963464654:0.00044419
contact^الدولة^الإسلامية:391605013:0.00044419
contact^الفلوجة:595280630:0.0112894
contact^الفلوجة^الارهابية:406713502:0.0112894
contact^المصري:1053851312:0.00044419
contact^المصري^/:490758888:0.00044419
contact^الملحمة:461454111:0.00044419
contact^الملحمة^/:207126683:0.00044419
contact^اليوم:851197271:0.00705226
contact^اليوم^و:364698065:0.00705226
contact^بين:403448803:0.00705226
contact^بين^ردة:63635570:0.00705226
contact^ردة:724038939:0.00705226
contact^ردة^اليوم:339553542:0.00705226
contact^سرية:204688365:0.00044419
contact^سرية^الملحمة:836661336:0.00044419
contact^شاهدوا:394080095:0.00044419
contact^شاهدوا^موقع:798195192:0.00044419
contact^قناص:778850557:0.0112894
contact^قناص^_منتديات:128222968:0.0112894
contact^لهيب:197270147:0.0043395
contact^لهيب^الحرب:322242126:0.0043395
contact^مؤسسة:9083995:0.00044419
contact^مؤسسة^البتار:374483382:0.00044419
contact^محمد:573486345:0.00044419
contact^محمد^المصري:285385877:0.00044419
contact^موقع:666863893:0.00044419
contact^موقع^إصدارات:763885975:0.00044419
contact^و:954398422:0.00705226
contact^و^الامس:314505595:0.00705226
coverage^(>:797483958:0.00265732
coverage^(>^الــولاء:119170503:0.00265732
coverage^//:467685126:0.00265732
coverage^//^خطبة:796204960:0.00265732
coverage^<):366139126:0.00265732
coverage^COLON:586277774:-0.0020447
coverage^COLONCOLONCOLONقوية:129953433:0.00265732
coverage^COLONCOLONCOLONقوية^//:736827451:0.00265732
coverage^COLON^مؤسسة:490503892:-0.0020447
coverage^PIPEPIPE~:1034670244:-0.0020447
coverage^_منتديات:39400851:0.00431922
coverage^_منتديات^الفلوجة:163739216:0.00431922
coverage^~PIPEPIPE:77081930:-0.0020447
coverage^~PIPEPIPE^براءة:427453180:-0.0020447
coverage^أبو:36477561:0.00265732
coverage^أبو^النور:425219205:0.00265732
coverage^أحكام:555981969:0.0057682
coverage^أحكام^الردة:940007752:0.0057682
coverage^إعادة:667340893:-0.0020447
coverage^إعادة^نشر:1028013004:-0.0020447
coverage^الأشرار:154808273:-0.0020447
coverage^الأشرار^PIPEPIPE~:388378161:-0.0020447
coverage^الإعلامية:44529853:-0.0020447
coverage^الإعلامية^~PIPEPIPE:1040215059:-0.0020447
coverage^البكر:605808585:0.00394539
coverage^البكر^الجوية:898304067:0.00394539
coverage^البيان:974716625:-0.0020447
coverage^البيان^الإعلامية:817391946:-0.0020447
coverage^التيار:885187283:-0.0020447
coverage^التيار^الجهادي:542725247:-0.0020447
coverage^الجهادي:1058887160:-0.0020447
coverage^الجهادي^من:966589907:-0.0020447
coverage^الجوية:170965662:0.00394539
coverage^الجوية^بصاروخ:220720866:0.00394539
coverage^الردة:575113723:0.0057682
coverage^الردة^والقتال:184683763:0.0057682
coverage^الزائغين:917207009:-0.0020447
coverage^الزائغين^الأشرار:741246254:-0.0020447
coverage^الصنع:573130220:0.00394539
coverage^العلاقة:690421444:0.0057682
coverage^العلاقة^بين:947403134:0.0057682
coverage^الــولاء:90125033:0.00265732
coverage^الــولاء^والــبــراء:627368906:0.00265732
coverage^الفلوجة:28946441:0.00431922
coverage^المقدسي:362038046:0.00265732
coverage^المقدسي^بعنوان:925944144:0.00265732
coverage^النور:510013168:0.00265732
coverage^النور^المقدسي:885974606:0.00265732
coverage^براءة:27988186:-0.0020447
coverage^براءة^التيار:530899525:-0.0020447
coverage^بصاروخ:755153084:0.00394539
coverage^بصاروخ^محلي:656717410:0.00394539
coverage^بعنوان:731884714:0.00265732
coverage^بعنوان^(>:21454776:0.00265732
coverage^بين:389546442:0.0057682
coverage^بين^أحكام:776337715:0.0057682
coverage^حصرياً:497430380:0.00265732
coverage^حصرياً^ولأول:1063234149:0.00265732
coverage^خطبة:107273906:0.00265732
coverage^خطبة^للشيخ:743527500:0.00265732
coverage^شاهد:118077955:0.00394539
coverage^شاهد^قصف:87431480:0.00394539
coverage^قاعدة:823143057:0.00394539
coverage^قاعدة^البكر:95163670:0.00394539
coverage^قصف:146944065:0.00394539
coverage^قصف^قاعدة:779826894:0.00394539
coverage^قناص:172574424:0.00431922
coverage^قناص^_منتديات:631888139:0.00431922
coverage^للشيخ:107300450:0.00265732
coverage^للشيخ^أبو:413294931:0.00265732
coverage^مؤسسة:1008440190:-0.0020447
coverage^مؤسسة^البيان:973539927:-0.0020447
coverage^محلي:137925782:0.00394539
coverage^محلي^الصنع:420873770:0.00394539
coverage^مرة:288752696:0.00265732
coverage^مرة^COLONCOLONCOLONقوية:953498097:0.00265732
coverage^من:649147:-0.0020447
coverage^من^الزائغين:753577904:-0.0020447
coverage^نشر:2548707:-0.0020447
coverage^نشر^COLON:990162661:-0.0020447
coverage^والــبــراء:675927941:0.00265732
coverage^والــبــراء^<):328376679:0.00265732
coverage^والقتال:420117476:0.0057682
coverage^ولأول:257948841:0.00265732
coverage^ولأول^مرة:857305917:0.00265732
credits^-:538154231:0.00613721
credits^-^Flames:78039988:0.0043395
credits^-^لهيب:132153835:0.0043395
credits^/:195601661:0.000628183
credits^/^سرية:324429726:0.00044419
credits^/^مؤسسة:1060359275:0.00044419
credits^Flames:616419225:0.0043395
credits^Flames^of:32547308:0.0043395
credits^ISIS:908640372:0.0043395
credits^ISIS^-:210466715:0.0043395
credits^War:829811615:0.0043395
credits^War^-:954242330:0.0043395
credits^httpCOLON//isdarat-istube.cf/ar/:1022156563:0.00044419
credits^httpCOLON//isdarat-istube.cf/ar/^أو:193065246:0.00044419
credits^httpCOLON//isdarat-tube.ml/ar/:610584243:0.00044419
credits^httpCOLON//isdarat-tube.ml/ar/^محمد:923625456:0.00044419
credits^of:119897015:0.0043395
credits^of^War:410841978:0.0043395
credits^أو:1067493207:0.00044419
credits^أو^httpCOLON//isdarat-tube.ml/ar/:957574062:0.00044419
credits^إصدارات:748494108:0.00044419
credits^إصدارات^الدولة:268256959:0.00044419
credits^الإسلامية:516698932:0.00044419
credits^الإسلامية^httpCOLON//isdarat-istube.cf/ar/:61483383:0.00044419
credits^الامس:1014277292:0.00705226
credits^الامس^بين:146321887:0.00705226
credits^البتار:755622884:0.00044419
credits^البتار^شاهدوا:174357449:0.00044419
credits^الحرب:678613637:0.0043395
credits^الحرب^ISIS:321872509:0.0043395
credits^الدولة:296317459:0.00044419
credits^الدولة^الإسلامية:199148539:0.00044419
credits^المصري:995445871:0.00044419
credits^المصري^/:119739056:0.00044419
credits^الملحمة:648460983:0.00044419
credits^الملحمة^/:504295384:0.00044419
credits^اليوم:482211602:0.00705226
credits^اليوم^و:418109880:0.00705226
credits^بين:744711069:0.00705226
credits^بين^ردة:935178193:0.00705226
credits^ردة:511037864:0.00705226
credits^ردة^اليوم:806783514:0.00705226
credits^سرية:626945429:0.00044419
credits^سرية^الملحمة:508334840:0.00044419
credits^شاهدوا:5264245:0.00044419
credits^شاهدوا^موقع:29400602:0.00044419
credits^لهيب:670533072:0.0043395
credits^لهيب^الحرب:138989845:0.0043395
credits^مؤسسة:289133154:0.00044419
credits^مؤسسة^البتار:198706878:0.00044419
credits^محمد:910940768:0.00044419
credits^محمد^المصري:176594255:0.00044419
credits^موقع:867047289:0.00044419
credits^موقع^إصدارات:527682481:0.00044419
credits^و:141571310:0.00705226
credits^و^الامس:980057058:0.00705226
date^01/10/2011:820327014:0.001405
date^01/10/2011^الأسطوانة:787996878:0.001405
date^02/10/2011:792449174:0.000408509
date^02/10/2011^الأسطوانة:659256894:0.000408509
date^09/09/2012:54290936:0.000899518
date^09/09/2012^الأسطوانة:538330136:0.000899518
date^12/07/2012:417603788:0.000167648
date^12/07/2012^الأسطوانة:156378012:0.000167648
date^1430-12-21:649159779:0.000511882
date^1430-12-21^جمع:753284632:0.000511882
date^18/11/2011:84327870:5.94416e-05
date^18/11/2011^الأسطوانة:44185286:5.94416e-05
date^19/11/2011:686644882:0.00044152
date^19/11/2011^الأسطوانة:2316362:0.00044152
date^2008-08-10:277484514:-0.00450647
date^2009:718404340:0.0288759
date^2009-07-12:956090146:-0.0048907
date^2009^السلام:448007695:0.00605702
date^2009^بسم:60888811:0.00795494
date^2009^قناص:462577815:0.0125748
date^2009^نشيد:446607241:0.00781832
date^2010-12-20:397941890:-0.00134125
date^2012:718404343:-0.0215362
date^2013-11-17:958597617:-0.00752505
date^2013-12-24:1052635901:0.00294833
date^2013-12-24^بسم:1072853968:0.00294833
date^2014-01-30:228904331:0.000216484
date^2014-02-11:334813883:0.00238765
date^2014-02-11^أبو:323570507:0.00238765
date^2014-05-30:133738252:0.00115231
date^2014-07-10:564420775:0.00199651
date^2014-07-20:62736886:0.000174887
date^2014-09-17:340117773:-0.00290916
date^2014-09-19:508317854:-0.00572848
date^2014-1-19:5351105:0.00513904
date^2014-1-7:1029989906:0.00381632
date^2014-10-18:388098340:0.0123001
date^2014-10-27:327701404:0.00720996
date^2014-11-15:161588655:0.00842076
date^2014-11-15^بسم:862324154:0.00842076
date^2014-3-9:449348116:0.000339689
date^2015:718404346:0.0122639
date^2015-02-09:718541381:0.0192323
date^2015-02-09^“رد:918869259:0.0192323
date^2015-02-17:382009254:0.0217952
date^2015-04-18:285295926:0.0181285
date^2015-04-18^hacked_isis:1027404265:0.0181285
date^2015-06-26:883393365:0.0118859
date^2015-07-21:234937425:0.0103749
date^2015-07-25:83071593:0.014011
date^2015-07-25^مؤسسة:285570391:0.014011
date^2015-08-14:331480146:0.020838
date^2015-08-14^نشأة:733609822:0.020838
date^2015-09-01:876269557:0.0128489
date^2015-09-01^لقطة:698462650:0.0128489
date^2015-09-08:1027365122:0.00836289
date^2015-09-08^رد:601404528:0.00836289
date^2015-10-22:971908246:0.00909081
date^2015-10-22^الرد:201699085:0.00909081
date^2015-12-31:1062894038:0.0246796
date^2015-12-31^نشيد:389106915:0.0246796
date^2015^-:194054272:0.0122639
date^2016-01-15:984940129:0.0105072
date^2016-03-23:829950866:0.0175312
date^2016-03-23^سلسلة:653176738:0.0175312
date^21/11/2011:677168269:0.000130031
date^21/11/2011^الأسطوانة:764368217:0.000130031
date^21/6/2011:338114214:0.000116282
date^21/6/2011^الأسطوانة:322769934:0.000116282
date^22/11/2011:50825637:0.000353501
date^22/11/2011^الأسطوانة:555269649:0.000353501
date^23/11/2011:814048106:0.000635299
date^23/11/2011^الأسطوانة:848150978:0.000635299
date^26/07/2012:856746495:0.000116517
date^26/07/2012^الأسطوانة:247549699:0.000116517
date^29/07/2012:763185073:0.000548577
date^29/07/2012^الأسطوانة:666492909:0.000548577
description^!:474175926:0.000649193
description^!!:143121977:0.000511882
description^!!!!!?:142275803:0.00435222
description^!!!!!?^-3مقطع:810017668:0.00435222
description^!!!؟؟-4بكاميرا:787608796:0.00435222
description^!!!؟؟-4بكاميرا^الصليبينCOLONمقطع:730216755:0.00435222
description^!!!مبادرة:94035728:0.000216484
description^!!!مبادرة^البغدادي:616559549:0.000216484
description^!!^قال:834614599:0.000511882
description^!^~fHFK*&LJQA:862248514:0.00316339
description^!^~fHFK*&LJQA^الجودة:847461856:0.00316339
description^!^،:813260805:0.000374918
description^!^لا:631659086:0.000306163
description^!^نأخذ:695271146:0.000216484
description^!^نرى:378267370:0.000216484
description^!^نعتقد:234165516:0.000216484
description^!^هنا:131332835:0.000216484
description^!لن:132893553:0.000216484
description^!لن^تستطيع:71936998:0.000216484
description^":399214700:0.0188569
description^"^httpsCOLON//198.144.120.187/:637250061:0.0131667
description^"^إخراج:396582095:0.000511882
description^"^العراق:274766662:0.000216484
description^"^في:640148849:0.0131667
description^"islamic:606415280:0.0117153
description^"islamic^state"original:676440870:0.0117153
description^"التخبط":778436378:4.9756e-05
description^"التخبط"^و"اللفلفة":488668514:4.9756e-05
description^"الدولة:490770727:4.9756e-05
description^"الدولة^والثورة"؛:823567753:4.9756e-05
description^"تحليل:285731990:4.9756e-05
description^"تحليل^النص":741415366:4.9756e-05
description^"صوت:153008916:0.00140422
description^"صوت^الإسلام":216274330:0.00140422
description^"قاعدة:234440661:-0.0020447
description^"قاعدة^الجهاد",:1062269499:-0.0020447
description^"منير:104744278:4.9756e-05
description^"منير^شفيق"،:418288068:4.9756e-05
description^"هزيمة:571351441:0.014011
description^"هزيمة^المرتدين:885448572:0.014011
description^"يــُــقـــدمالإصدار:285856831:0.00316339
description^"يــُــقـــدمالإصدار^المرئي:41059413:0.00316339
description^#:193857543:0.0124899
description^#^الدولة_الإسلامية:502191927:0.00721054
description^#^المغرب_الإسلامي:526451281:0.00721054
description^#^كتيبة_عقبة_بن_نافع:571024276:0.00721054
description^#الدولة_الاسلامية:848649161:0.0097467
description^(:270105782:0.0149338
description^((:707175546:0.000238286
description^((^لآ:167311526:0.000238286
description^(1:397412284:-0.000650778
description^(151هـ:516937020:0.000167648
description^(151هـ^768م):809363049:0.000167648
description^(1897:311534282:7.73236e-05
description^(1897^-:879272208:7.73236e-05
description^(1935-1.pdf:439321715:0.000238286
description^(1935-1.pdf^1781:306279944:0.000238286
description^(1948-1993).pdf:331256650:0.000130031
description^(1948-1993).pdf^3154:264137184:0.000130031
description^(1^2:15428154:-0.000650778
description^(1هـ:826402091:0.000167648
description^(1هـ^-:366941933:0.000167648
description^(25:314684355:-0.000650778
description^(25^ميجا):882246255:-0.000650778
description^(30):811224587:0.00124267
description^(30)^COLONCOLONCOLONCOLONCOLONCOLONCOLONCOLONCOLON:365073361:0.00124267
description^(300هـ:834820676:0.000116517
description^(300هـ^-:444714146:0.000116517
description^(39)كلمة:383688623:0.00294833
description^(39)كلمة^لمجاهد:663967968:0.00294833
description^(422-484هـ).pdf:72865595:0.000130031
description^(422-484هـ).pdf^3123:984296174:0.000130031
description^(505هـ):144157855:0.000353501
description^(505هـ)^بياناً:290519760:0.000353501
description^(577هـ665م):842795599:0.000267106
description^(577هـ665م)^عرض:567600166:0.000267106
description^(6111:846444816:-0.000650778
description^(6111^كتابًا)COLON:382220163:-0.000650778
description^(648-923هـ1250:545598194:0.000541538
description^(648-923هـ1250^-:362057880:0.000541538
description^(68):787089759:0.000116517
description^(68)^==============================:46816288:0.000116517
description^(69):491223782:0.000541538
description^(69)^==============================:345379467:0.000541538
description^(70):106289141:6.89702e-05
description^(70)^==============================:741305950:6.89702e-05
description^(8):377442808:0.00316339
description^(8)^]للتحميلكلمة:470404496:0.00316339
description^(922648:637289687:5.94416e-05
description^(922648^هـ:737488923:5.94416e-05
description^(96):584514259:0.000899518
description^(96)^تاريخ:18411845:0.000899518
description^(^2000:254928154:0.000511882
description^(^723:254926877:5.94416e-05
description^(^بعنوان:327130409:0.00265732
description^(^بلاد:388738773:0.000541538
description^(^ت555هـ)وكتابه:779153183:0.000541538
description^(^دراسة:843743866:0.000905111
description^(^ستخوض:57574478:0.00130527
description^(^سيتم:64082878:0.000216484
description^(^شبكة:291525930:0.000216484
description^(^فجر:266662441:0.00903488
description^(^مركز:1039980395:0.00610638
description^(^نداء:712888303:0.000511882
description^(^وقال:804628008:0.000793618
description^(^ولاية:879332878:0.00297306
description^(^ومدى:807016096:0.0057682
description^(armoured):968455663:0.000174887
description^(armoured)^column:806880519:0.000174887
description^(in:593564388:0.000174887
description^(in^their:773941502:0.000174887
description^(أبا:391219961:0.000511882
description^(أبا^بكر):863821191:0.000511882
description^(أذن):661134859:0.000116517
description^(أذن)^ومشتقاته:581235370:0.000116517
description^(أيزو)من:808398101:-0.000650778
description^(أيزو)من^موقع:1067589662:-0.000650778
description^(الأنفال39).:470859679:0.00366452
description^(الأنفال39).^الحمد:131291236:0.00366452
description^(الإمام:207596832:0.000116517
description^(الإمام^أبو:344556828:0.000116517
description^(الشيخ:521473475:0.000970902
description^(الشيخ^أنور:717533048:0.000970902
description^(الفاء:154288951:0.000765838
description^(الفاء^مع:441909419:0.000765838
description^(القاف:379215138:0.000541538
description^(القاف^مع:613880298:0.000541538
description^(المدنية):466100773:0.000355837
description^(المدنية)^بالمصطلح:285702676:0.000355837
description^(المذيل:328219965:0.000541538
description^(المذيل^لتاريخ:554881885:0.000541538
description^(بدون:496108859:-0.000650778
description^(بدون^كتب)COLON:275790469:-0.000650778
description^(بوثيقة:179804108:0.000515884
description^(بوثيقة^ترشيد:651142210:0.000515884
description^(تخريج:430398415:0.000238286
description^(تخريج^و:33215740:0.000238286
description^(جزرة):660640914:5.94416e-05
description^(جزرة)^ومنهجه:528173165:5.94416e-05
description^(حرمت:302860612:-0.00113063
description^(حرمت^عليكم:1060627932:-0.00113063
description^(حفظه:557111499:0.00386896
description^(حفظه^الله)بعنوانثُمَّ:415053122:0.000339689
description^(حفظه^لتنزيل:987104211:0.00381632
description^(حوالي:125880329:-0.000650778
description^(حوالي^2:125248083:-0.000650778
description^(داود:801068312:0.000109361
description^(داود^وسليمان:640408179:0.000109361
description^(دراسة:532141769:0.000799935
description^(دراسة^تقويمية:1014401016:0.000635299
description^(دراسة^فقهية:541961006:0.000238286
description^(دراسة^مقارنة).pdf:650203931:0.000130031
description^(دراسة^مقارنة.pdf:384396302:0.000238286
description^(دِرَاسَةٌ:421707899:0.000709736
description^(دِرَاسَةٌ^فِي:566790391:0.000238286
description^(دِرَاسَةٌ^لِّلرِّوَايَاتِ:839664164:0.000635299
description^(رؤية:951215135:0.000353501
description^(رؤية^إعلامية:394106132:0.000353501
description^(راية:595369163:0.000355837
description^(راية^العقاب):117235754:0.000355837
description^(ربيع:698501278:0.00712589
description^(ربيع^الامة:237755699:0.00712589
description^(رد:645925094:4.9756e-05
description^(رد^على:383298450:4.9756e-05
description^(ساق:136097272:0.000130031
description^(ساق^على:166610524:0.000130031
description^(شرط:430527848:-0.000650778
description^(شرط^أن:534062240:-0.000650778
description^(شروق:944649871:0.00854216
description^(شروق^الخلافة:288119324:0.00854216
description^(ط.:465149764:0.00112249
description^(ط.^الحلبي).pdf:45305545:0.000793618
description^(ط.^دار:359819453:0.000793618
description^(ط§ط¶ط؛ط·:352073490:-0.00356562
description^(ط§ط¶ط؛ط·^ط¹ظ„ظ‰:497762913:-0.00356562
description^(عقيدة:813944780:0.000355837
description^(عقيدة^وفقهاً:948790196:0.000355837
description^(ما:67029261:0.000116517
description^(ما^بكاء:984616322:0.000116517
description^(مجزّأة)COLONمن:361992096:-0.000650778
description^(مجزّأة)COLONمن^سيرفر:361628223:-0.000650778
description^(مرئي:953826567:0.00697447
description^(مرئي^):411281497:0.00697447
description^(مركز:782005224:0.00316339
description^(مركز^الفجر:651888400:0.00316339
description^(مزيل:879237690:2.97394e-05
description^(مزيل^الملام:86358896:2.97394e-05
description^(ملف:537821063:-0.000650778
description^(ملف^واحد)COLONمن:661594954:-0.000650778
description^(من:912703657:4.9756e-05
description^(من^خلال:692499862:4.9756e-05
description^(والله:835707348:0.00513904
description^(والله^يعلم:147987007:0.00513904
description^(ولد:285766669:0.000267106
description^(ولد^نحو:865359604:0.000267106
description^):759223406:0.0104209
description^)))This:855309765:0.00146051
description^)))This^image:959516174:0.00146051
description^).pdf:462261080:0.000261956
description^).pdf^1802:800756334:0.000238286
description^).pdf^40:800754572:7.73236e-05
description^)1:700676595:0.00712589
description^)^-:608935972:0.00111058
description^)^الـولاء:383020851:0.00265732
description^)^بفضل:1056839274:0.000511882
description^)^جاري:431749721:0.000216484
description^)^جانب:811716926:0.00697447
description^)^دعوتك:189672809:0.000511882
description^)^شبكة:1022895618:0.000216484
description^)^لفضيلة:20114702:0.0057682
description^)^من:846076397:5.94416e-05
description^)^مونتاج:466170175:0.00130527
description^)بسم:255862324:0.00769148
description^)بسم^الله:348143825:0.00769148
description^*:283883890:0.00120049
description^**:818797274:0.00140422
description^**^المركز:457542484:0.00140422
description^**و:269029346:0.00140422
description^**و^التي:943873556:0.00140422
description^*^*:406517532:0.00161885
description^*^إلى:438890539:0.000511882
description^*^مطاعاً:202410231:0.000511882
description^*^مقدمة.*:59875840:0.000355837
description^*^واقدم:196942652:-0.000802294
description^*^ويبقى:496214629:0.000511882
description^*^ويكسوك:978684112:0.000511882
description^*^ويهديك:682814834:0.000511882
description^,:819083433:-0.0126922
description^,^أشقياء:464553534:-0.0020447
description^,^إنهم:616866804:-0.0020447
description^,^الذين:970150109:0.000511882
description^,^رحمه:37361267:0.000511882
description^,^رقعاء:452115308:-0.0020447
description^,^غير:913632747:-0.0020447
description^,^فبعضهم:251038880:-0.0020447
description^,^ففي:795241914:-0.0020447
description^,^فقد:430514596:-0.0020447
description^,^فلا:618797155:-0.0020447
description^,^فلقد:790628983:-0.00408941
description^,^فما:735896467:-0.0020447
description^,^فمن:819955568:-0.0020447
description^,^فنرد:1043869815:-0.0020447
description^,^فهم:739800636:-0.0020447
description^,^فيتلون:456244651:-0.0020447
description^,^فيلبسون:2160256:-0.0020447
description^,^فيهذي:48930993:-0.0020447
description^,^كما:752388151:-0.0020447
description^,^مع:794135125:-0.0020447
description^,^وأصحابه:184878751:0.000511882
description^,^والجهاد:582815748:-0.0020447
description^,^والذي:22553929:-0.0020447
description^,^والرسول:1011618936:0.000511882
description^,^والصلاة:31215993:0.000511882
description^,^والمجاهدين:402274177:0.000511882
description^,^والموحدين:731833984:0.000511882
description^,^والنبي:761245948:0.000511882
description^,^وامتثال:771262930:0.000511882
description^,^وانتهازية:453456505:-0.0020447
description^,^وبعضهم:361805705:-0.0020447
description^,^وتأسست:355606226:-0.0020447
description^,^وحارب:360717447:-0.0020447
description^,^وزال:225436863:-0.0020447
description^,^وزجر:962273420:0.000511882
description^,^وصف:240897796:-0.0020447
description^,^وعلى:652650271:0.000723909
description^,^وقد:458676774:-0.0020447
description^,^وكان:27916191:-0.00186382
description^,^ولقد:667096658:-0.0020447
description^,^وما:602821150:-0.00289154
description^,^ومالأ:752891617:-0.0020447
description^,^وهم:236428486:-0.0020447
description^,^ويشتركون:800510634:-0.0020447
description^,^ويفرقهم:527499253:-0.0020447
description^,^وينادي:490738560:-0.0020447
description^,^ويهرف:598318688:-0.0020447
description^,^يجمعهم:573581269:-0.0020447
description^,^يخاطب:882678676:0.000511882
description^,فصارت:783604470:-0.0020447
description^,فصارت^تعرف:960724797:-0.0020447
description^,فيالبجاحته:270947245:-0.0020447
description^,فيالبجاحته^وسماجة:411732651:-0.0020447
description^,وبعضهم:498921740:-0.0020447
description^,وبعضهم^خبث:139360897:-0.0020447
description^,وتشهد:133779411:-0.0020447
description^,وتشهد^أقبية:775359816:-0.0020447
description^,ويبالغ:389113097:-0.0020447
description^,ويبالغ^في:106780826:-0.0020447
description^-:534128494:-0.00162273
description^-":533597859:0.000511882
description^-"^وهذه:598181230:0.000511882
description^--:247165213:-0.00335937
description^---:117386858:-0.000271326
description^----:154079165:-0.000832401
description^-----:936893902:-0.00130172
description^---------:1027394226:-0.000582127
description^----------:168937627:-0.000582127
description^-----------:211279661:-0.000582127
description^-------------:987659293:-0.000582127
description^--------------:619392108:-0.000582127
description^---------------:709624584:-0.000582127
description^------------------:796035561:0.00330441
description^----------------------:1001227045:0.00324942
description^----------------------^اصدار:160679131:0.00330441
description^----------------------^قمة:1052363715:-0.000582127
description^------------------^كل:690881607:0.00330441
description^---------------^لتشعر:944920686:-0.000582127
description^---------------مصحف:994236864:-0.000582127
description^---------------مصحف^التفصيل:654150632:-0.000582127
description^--------------^بالنسبة:761084285:-0.000582127
description^-------------^_______________:669063343:-0.000582127
description^-----------^من:354835632:-0.000582127
description^-----------تقرا:14813961:-0.000582127
description^-----------تقرا^من:642696476:-0.000582127
description^-----------كالمصحف:425571760:-0.000582127
description^-----------كالمصحف^الورقي:952169795:-0.000582127
description^----------^مع:60146815:-0.000582127
description^---------^بعد:89612324:-0.000582127
description^---------ppt:986263453:-0.000582127
description^---------ppt^وقبل:463499724:-0.000582127
description^--------مع:583036621:-0.000582127
description^--------مع^الترتيب:163802390:-0.000582127
description^-------التي:190673209:-0.000582127
description^-------التي^تقرا:634947187:-0.000582127
description^-----^الوان:385902038:-0.000582127
description^-----^حمله:841194463:-0.00082325
description^-----^لكي:135929430:-0.00082325
description^-----كل:547054827:-0.000582127
description^-----كل^مصحف:558357124:-0.000582127
description^----^بمجرد:930165264:-0.000351651
description^----^لانه:635875586:-0.000582127
description^----ارشادات:152838877:-0.000582127
description^----ارشادات^تجويدية:243678124:-0.000582127
description^----لا:980294085:-0.000582127
description^----لا^بد:32681477:-0.000582127
description^---2014:1035233078:-0.00142635
description^---2014^ميلادي:598193732:-0.00142635
description^---^إن:929845410:0.000515884
description^---^لكنها:709747739:-0.000582127
description^---^لن:1047139986:-0.000582127
description^---^مع:893371922:-0.000582127
description^---اسم:862261128:-0.000351651
description^---اسم^القارئ:425069264:-0.000351651
description^---برنامج:449713845:-0.000582127
description^---برنامج^---------:340019091:-0.000582127
description^--1--2016:10072357:-0.00331281
description^--1--2016^برنامج:659926238:-0.00331281
description^--11--2015:97201028:-0.00325503
description^--11--2015^برنامج:860602561:-0.00325503
description^--^المنشاوي:873497620:-0.00235097
description^--^بنقط:412175936:-0.00235097
description^--^وتحتها:708910116:-0.000351651
description^-.pdf:679278153:0.000130031
description^-.pdf^3169:936371186:0.000130031
description^-1.pdf:570146191:0.00115231
description^-1.pdf^1335:875820278:0.00115231
description^-3مقطع:710357781:0.00435222
description^-3مقطع^مُسرب:688991719:0.00435222
description^-^):924668964:0.000216484
description^-^-:699574052:0.0108169
description^-^03:3192101:-0.002471
description^-^04:3192102:-0.00265366
description^-^05:3192103:-0.00265366
description^-^06:3192104:-0.00265366
description^-^07:3192105:-0.00265366
description^-^08:3192106:-0.00265366
description^-^09:3192107:-0.00265366
description^-^1-:42815335:0.000408509
description^-^10:3192108:-0.00265366
description^-^12:3192110:-0.00265366
description^-^1299.pdf:103814470:0.000408509
description^-^13:3192111:-0.00265366
description^-^132هـ622م:272837530:0.000167648
description^-^1341.pdf:241513157:0.000408509
description^-^14:3192112:-0.00265366
description^-^15:3192113:-0.002471
description^-^1517:3193615:0.000541538
description^-^1517م).pdf:871085761:0.000541538
description^-^16:3192114:-0.00265366
description^-^17:3192115:-0.00265366
description^-^18:3192116:-0.00265366
description^-^19:3192117:-0.00265366
description^-^1948:3194046:7.73236e-05
description^-^1948.pdf:777669247:0.000353501
description^-^1993م.pdf:252248943:0.000130031
description^-^1997:3194095:0.000822473
description^-^2:3192100:0.000174887
description^-^20:3192118:-0.00265366
description^-^21:3192119:-0.00265366
description^-^22:3192120:-0.00265366
description^-^23:3192121:-0.00265366
description^-^24:3192122:-0.00265366
description^-^25:3192123:-0.00265366
description^-^26:3192124:-0.00265366
description^-^27:3192125:-0.00265366
description^-^28:3192126:-0.00265366
description^-^3:3192101:-0.002471
description^-^3-:152138184:0.000408509
description^-^387هـ)الخطاب:379036468:0.000116517
description^-^4-:455131165:0.000408509
description^-^40:3192138:0.000174887
description^-^461.pdf:203569297:0.000424308
description^-^5-:696188950:0.000408509
description^-^750م):291062988:0.000167648
description^-^804:3192902:5.94416e-05
description^-^923:3193021:0.000541538
description^-^Bengali:771745139:-0.000542442
description^-^Bosnian:335100037:-0.000542442
description^-^COLON:902103618:0.000511882
description^-^Flames:448840371:0.0043395
description^-^Honor:225445561:0.00785927
description^-^ISIS:1069896486:0.000588423
description^-^Makki:927422112:-0.00167738
description^-^Several:787340383:0.000174887
description^-^Urdu-Persian:957317654:-0.000542442
description^-^آراؤه.pdf:963723607:6.89702e-05
description^-^أبحاث:424925457:0.000980688
description^-^أبكار:530434228:7.73236e-05
description^-^أبو:710962226:0.00293718
description^-^أحمد:859267446:0.000793618
description^-^أسبابه:789520113:0.000353501
description^-^أمتي:832078260:0.0127069
description^-^إبراهيم:87364373:0.001405
description^-^إدارة:733789500:0.000424308
description^-^إدريس:957651387:-0.00059501
description^-^إصلاح:778795561:0.001405
description^-^إيملي:163903964:0.001405
description^-^ابن:136642567:0.000108871
description^-^احمد:575205524:7.73236e-05
description^-^ازدهار:642561233:0.000822473
description^-^اسامه:668950917:-0.00142635
description^-^افريقيا.pdf:953205376:0.001405
description^-^الأزمة:346731379:0.001405
description^-^الأستاذ:579117228:-0.0132703
description^-^الأندلس:1024872116:0.000913711
description^-^الإصدار:577068148:0.0181611
description^-^الاجتماعي:190581233:0.000899518
description^-^الاسرة:203277004:0.000822473
description^-^الاسطوانة:488151774:0.000600818
description^-^الاصدار:615177620:0.0133218
description^-^البنجالية:587141347:-0.000802906
description^-^البوسنية:620589810:-0.000802906
description^-^التأمين.pdf:387724832:0.000424308
description^-^التحاكم:552896233:0.00445732
description^-^التدمرية.pdf:599741020:0.000793618
description^-^الجزائر.pdf:289983752:0.000116517
description^-^الجهاد:684876067:0.000822473
description^-^الجهنى:103925434:-0.00142635
description^-^الحبس:1059107435:0.000130031
description^-^الحج:543790902:0.000822473
description^-^الحذيفى:656304459:-0.00142635
description^-^الدّولة:389807257:0.00520484
description^-^الرسالة:275253631:0.00269995
description^-^الرساله:734307063:0.000635299
description^-^الزكاة:291828619:0.000822473
description^-^السيوطي.pdf:450030420:0.000410516
description^-^الشبيلي.pdf:657161393:0.000424308
description^-^الشنقيطي.pdf:848593540:0.000410516
description^-^الشيخ:513559026:-0.0124041
description^-^الصلابي.pdf:783632871:0.000408509
description^-^الصلاة:274442292:0.000822473
description^-^الصوم:481111171:0.000822473
description^-^الطهارة:926671881:0.000822473
description^-^العباد:216536408:0.001405
description^-^العزة:849478357:0.00785927
description^-^العصور:748881118:7.73236e-05
description^-^العلواني.pdf:824733578:0.001405
description^-^العوا.pdf:463683225:0.001405
description^-^الغامدى:124133955:-0.00142635
description^-^الغزاوى:680335092:-0.00142635
description^-^الغزاوي:582811495:-0.00142635
description^-^الفارسية:325174026:-0.000802906
description^-^الكبار:890047974:-0.00265366
description^-^اللاحم.pdf:176623520:0.000410516
description^-^المجتمع:348309854:0.00198693
description^-^المختار:344587572:0.000408509
description^-^المدخل.pdf:130825180:0.001405
description^-^المعاملات:360610259:0.0011067
description^-^المعهد:87511979:0.00134169
description^-^المعيقلى:728075882:-0.00142635
description^-^المقدم.pdf:602514981:0.000410516
description^-^النجران.pdf:580052757:0.000410516
description^-^النص:131971766:0.000167648
description^-^اليهودية:565021133:0.00028754
description^-^انتشار:30185737:0.00142471
description^-^بحوث:482725364:0.001405
description^-^بحوث.pdf:994125278:0.000635299
description^-^بندر:175264608:-0.00142635
description^-^ت:438404994:0.00137417
description^-^تاريخ:926792308:0.0011504
description^-^تجربة:154090520:0.001405
description^-^تحقيق:61802084:0.000408509
description^-^تحليل:367641506:0.000424308
description^-^تكامل:743085394:0.001405
description^-^ثقافة:956663675:0.001405
description^-^ج:330816512:0.000635299
description^-^جزء:769028555:0.000408509
description^-^جمادى:403549447:-0.00201728
description^-^حركية):371372182:0.000116517
description^-^حسين:57877980:0.000506696
description^-^حصاد:145842991:0.0077556
description^-^حقيقة:769357967:0.0122639
description^-^حقيقته:188675107:0.000499848
description^-^حول:616586873:0.001405
description^-^حياته:308765851:6.89702e-05
description^-^خان:168145242:7.73236e-05
description^-^خلافة:885179459:0.001405
description^-^خواطر:72202899:0.001405
description^-^د.:1026867290:7.73236e-05
description^-^دراسة:592009810:0.0010662
description^-^ديوان:439892116:0.0209044
description^-^ذو:896967322:-0.00201728
description^-^راغب:234246288:0.001405
description^-^ربيع:201790599:-0.00201728
description^-^رجب:773831729:-0.00142635
description^-^رسائل:381175954:0.000635299
description^-^رمضان:146742861:-0.00142635
description^-^روبير:381090094:0.000899518
description^-^زياد:924131937:0.000408509
description^-^شعبان:904915806:-0.00142635
description^-^شهادة:878480886:0.0097467
description^-^شوال:626777021:-0.00142635
description^-^شيخ:472228032:-0.000366611
description^-^صالح:843840228:-0.00142635
description^-^صفر:920775561:-0.00142635
description^-^صياغة:67020174:0.001405
description^-^ط:994311961:0.0010669
description^-^ط§ط¶ط؛ط·:354827814:-0.00252153
description^-^ط§طھط´:324879738:-0.00252153
description^-^ط¨ط§ظ„ط§ظ†ط¬ظ„ظٹط²ظٹ:115382479:-0.00252153
description^-^طاهر:229942113:0.000424308
description^-^طبعة:185966525:0.000410516
description^-^طلع:186216575:-0.000443585
description^-^عائلة:904278246:-0.00265366
description^-^عاشور.pdf:912899487:0.000410516
description^-^عام:318368616:0.00297306
description^-^عبد:59290451:0.00229586
description^-^عبدالله:913191615:-0.00142188
description^-^عبدالمحسن:832219069:-0.00142635
description^-^عدنان:922263601:0.000130031
description^-^عرض:187748297:0.000541538
description^-^علوان.pdf:936879877:0.000410516
description^-^على:37599226:-0.00265366
description^-^علي:374339713:0.0014906
description^-^علياء:604419877:0.000408509
description^-^عليهما:863946436:0.000109361
description^-^عمر:583474526:0.000440537
description^-^عياض:40026701:0.000793618
description^-^عيسى:438160753:0.000424308
description^-^فاروق:910092317:-0.00184311
description^-^فان:506672600:-0.00113063
description^-^فرسان:52688105:0.000216484
description^-^فقه:638980848:0.000870102
description^-^فهمي:349853694:0.001405
description^-^قراءة:481120310:0.000153956
description^-^قسم:699015454:0.000899518
description^-^قصة:898682834:0.00106724
description^-^قضايا:909869146:0.00198693
description^-^قل:35548687:-0.00113063
description^-^قوقل:309640742:0.000577765
description^-^كامل:416424333:7.73236e-05
description^-^لاي:47292339:-0.00222196
description^-^للدكتور:830945221:0.000353501
description^-^لهيب:487263264:0.0043395
description^-^ماجد:1036899217:0.000793618
description^-^محمد:276296023:0.00290468
description^-^مختار:617561107:0.000899518
description^-^مذكرات:311464190:0.000577765
description^-^مصطفي:935613325:0.000408509
description^-^مقالة.pdf:233152916:0.000898528
description^-^مقدمة:816700383:0.00145378
description^-^ملتقى:1003649634:0.000410516
description^-^منتدى:277631378:0.00144165
description^-^منتديات:710232070:0.000216484
description^-^موجز:543748444:0.0118353
description^-^موشيه:519168382:7.73236e-05
description^-^نحو:12548561:0.001405
description^-^نظرية:821753048:0.001405
description^-^نظم:743599366:0.000822473
description^-^هيكل:320695871:0.000408509
description^-^والدال:252513278:-0.00222196
description^-^وليم:773531055:0.000408509
description^-^يوسف:351049375:0.000680219
description^-آل:235206125:2.97394e-05
description^-آل^الشيخ.pdf:1017083404:2.97394e-05
description^-أكاديمية:981816411:5.94416e-05
description^-أكاديمية^الدراسات:64378887:5.94416e-05
description^-ابوزهرة.pdf:1002323563:0.000410516
description^-ابوزهرة.pdf^فتاوى:564272310:0.000410516
description^-البصيلي.pdf:722175215:2.97394e-05
description^-البصيلي.pdf^الفتيا\تغير:16646212:2.97394e-05
description^-الجزء:887490439:0.000408509
description^-الجزء^الاول.pdf:872773915:0.000408509
description^-السالوس.pdf:220228099:2.97394e-05
description^-السالوس.pdf^الفتيا\الفتاوى:730159161:2.97394e-05
description^-الشثري.pdf:920195612:2.97394e-05
description^-الشثري.pdf^الفتيا\تنظيم:333622509:2.97394e-05
description^-المغرب:498555907:0.000541538
description^-المغرب^–:651118967:0.000541538
description^-النَفط:206430511:0.000424308
description^-النَفط^السُّوري:597225419:0.000424308
description^-بعد:185737511:-0.000650778
description^-بعد^اكتمال:571449369:-0.000650778
description^-دراسة:987367567:0.000130031
description^-دراسة^مقارنة-.pdf:864735124:0.000130031
description^-رفع:743010487:0.000822473
description^-رفع^مكتبة:924133800:0.000822473
description^-فيصل:829545724:-0.00142635
description^-فيصل^غزاوى:265500720:-0.00142635
description^-محمد:371242190:2.97394e-05
description^-محمد^رمضان.pdf:785084617:2.97394e-05
description^-وللأسف:460098449:0.000515884
description^-وللأسف^كما:859297663:0.000515884
description^-وما:650920911:-0.00113063
description^-وما^اكل:919133222:-0.00113063
description^-وماجد:315820849:-0.00142635
description^-وماجد^ابراهيم:1063819077:-0.00142635
description^.:768856304:0.00382069
description^..:4017443:0.0167384
description^...:529335145:0.00324262
description^....:237606702:0.000511882
description^.......$$-2دولة:985363616:0.00435222
description^.......$$-2دولة^الإسلام...:18034607:0.00435222
description^....^فإنه:86588475:0.000511882
description^....اناشيد:232148455:0.0103749
description^....اناشيد^جهادية:818510572:0.0103749
description^...^.COLON.:766807320:0.000511882
description^...^Al-Furqan:128846929:0.000339689
description^...^ثورة:818699184:0.000238286
description^...^سيستطيع:184524859:-0.000650778
description^...^فقد:211845476:0.00394539
description^...الإشتباكات:479599536:0.00435222
description^...الإشتباكات^ولكن:581100461:0.00435222
description^...كتاب:389394525:0.0119248
description^...كتاب^القيادة:924698030:0.0119248
description^..^أبادُوا:950213512:0.00330207
description^..^أحمد:166113623:0.00115231
description^..^أهمية:898527921:0.000424308
description^..^الإدارة:126874645:0.000424308
description^..^التاريخ:820122287:7.73236e-05
description^..^بزأْرِ:440210210:0.00330207
description^..^بَترنَا:315338446:0.00330207
description^..^بِنارِي:590408898:0.00330207
description^..^تعديته:954865168:0.000353501
description^..^تنادِي:380773290:0.00330207
description^..^تهدُّ:125770853:0.00330207
description^..^جزَزَنا:210796586:0.00330207
description^..^دراسة:972597811:0.000476385
description^..^دور:915305807:0.000424308
description^..^راسلنا:791322553:-0.000650778
description^..^رجالاً:612182737:0.00466946
description^..^رِجالاً:629292690:0.00330207
description^..^سلاحاً:297477254:0.00330207
description^..^شباباً:714575311:0.00330207
description^..^صريعاً:774444886:0.00330207
description^..^صُمُودا:892368221:0.00330207
description^..^طِعانِي:798513525:0.00330207
description^..^ماتَ:505188214:0.00330207
description^..^مَلأنا:144008677:0.00330207
description^..^مُحِب:299451490:0.00330207
description^..^نَرُومُ:1072712572:0.00330207
description^..^هَبٌّوا:243832001:0.00330207
description^..^وفَرُّوا:209093690:0.00330207
description^..^ونلنَا:196696893:0.00330207
description^..^وهبوا:17551491:0.00330207
description^..^وهذه:755911150:0.000511882
description^..^وهَبُّوا:12252906:0.00330207
description^..pdf:310188471:0.000267106
description^..pdf^747:1002071602:0.000267106
description^..سياحة:530923494:0.0156539
description^..سياحة^في:927338755:0.0156539
description^..مبادئ:39289565:0.000424308
description^..مبادئ^راسخة:838694078:0.000424308
description^..وثائق:616246087:0.000408509
description^..وثائق^الخلافة:452744180:0.000408509
description^.COLON.:627339859:0.000723909
description^.COLON.^أما:237536309:0.000511882
description^.COLON.^تمهيد:75292693:0.000511882
description^.^أما:461074782:0.00394539
description^.^الله:987991197:0.00394539
description^.^فهم:797669479:-0.0020447
description^.^في:302972901:0.000511882
description^.pdf:548006156:0.00171717
description^.pdf^1349:469228429:0.00115231
description^.pdf^13963:469241043:0.000116517
description^.pdf^14000:469241080:0.000116517
description^.pdf^14702:469241782:0.000541538
description^.pdf^1797:469228877:0.000238286
description^.pdf^59:469227139:7.73236e-05
description^.pdf^735:469227815:0.000267106
description^.pdf^الأقتصاد:135048716:0.000424308
description^.الصفحة:797810579:0.00260393
description^.الصفحة^الرسمية:332274862:0.00260393
description^/:862581637:0.0149301
description^//:84611343:0.0144902
description^//^صور:941941325:0.00854216
description^/^6:350202851:0.00703444
description^/^أبو:1057972973:0.00265732
description^/^أبومحمد:620459664:0.00381632
description^/^الزبير:502315544:0.000511882
description^/^الفوج:1030183105:0.00703444
description^/^سرية:226811556:0.00044419
description^/^ل3:192275814:0.00703444
description^/^مؤسسة:528580099:0.00044419
description^/الزبير:154706660:0.000511882
description^/الزبير^الغزي:508612578:0.000511882
description^0000):1001715076:-0.00113063
description^0000)^بخلاف:916653034:-0.00113063
description^00COLON00:172219724:0.000588423
description^00COLON00^00COLON00:324329832:0.000480358
description^00COLON00^22COLON101Al-Furqan:995104848:0.000339689
description^01897-1948:856221980:7.73236e-05
description^01897-1948^م).pdf:1072226463:7.73236e-05
description^02:911488366:-0.00368477
description^02^-:1028554020:-0.00259422
description^03:911488367:0.0012105
description^03^-:1056496161:0.000267106
description^03^رمضان:503664970:-0.00265366
description^04:911488368:0.00902496
description^04^رمضان:531607111:-0.00265366
description^05:911488369:0.0145041
description^05^-:38638619:0.000238286
description^05^رمضان:559549252:-0.00265366
description^06:911488370:0.00192853
description^06^رمضان:587491393:-0.00265366
description^07:911488371:-0.00344457
description^07^-:94522901:0.000130031
description^07^رمضان:615433534:-0.00265366
description^08:911488372:-0.00744476
description^08^رمضان:643375675:-0.00265366
description^09:911488373:-0.00112509
description^09^-:150407183:0.0014923
description^09^رمضان:671317816:-0.00265366
description^1:911488365:0.00835223
description^1-:951111601:-0.00620458
description^1-^البرنامج:225670896:-0.00450647
description^1-^التاريخ:1044455685:0.000408509
description^1-^حلقة:178231886:-0.0048907
description^1-^خرجت:766840340:0.000515884
description^1-^قراءة:12299885:4.9756e-05
description^1-عاشوراء2-الشريعة:671828841:0.00445732
description^1-عاشوراء2-الشريعة^3-مجاورة:730436984:0.00445732
description^1.44:688398521:0.00316339
description^1.44^المتوسطة:25786580:0.00316339
description^1.pdf:556462604:0.00100699
description^1.pdf^14730:884602066:0.000541538
description^1.pdf^14791:884602127:6.89702e-05
description^1.pdf^14801:884602137:6.89702e-05
description^1.pdf^14807:884602143:6.89702e-05
description^1.pdf^14841:884602177:6.89702e-05
description^1.pdf^5132:884592468:0.000635299
description^10:911488374:-0.00365673
description^10-:285979772:-0.00142635
description^10-^الشيخ:948287688:-0.00142635
description^10^11:555709205:-0.000920367
description^10^أخبار:573650337:7.73236e-05
description^10^ألبوم:1022011896:-0.000443585
description^10^العشرة:718013701:0.000108871
description^10^رمضان:699259957:-0.00265366
description^11:911488375:-0.000616823
description^11-:272675080:-0.00142635
description^11-^الشيخ:1000185636:-0.00142635
description^11-ردود:709212200:0.00445732
description^11-ردود^وتلميحات:500463877:0.00445732
description^113:911488477:-0.00252276
description^113^سورة:539289133:-2.64651e-05
description^113^ط§طµط¯ط§ط±:235879858:-0.00252153
description^114:911488478:-0.00059522
description^114^سورة:567231274:-0.00059522
description^115:911488479:-1.52823e-05
description^115--goza-3amma--المنشاوي:529960679:-1.52823e-05
description^115--goza-3amma--المنشاوي^المصحف:861263332:-1.52823e-05
description^11519:911499883:0.000167648
description^11519^اثر:643442924:0.000167648
description^11520:911499884:0.000167648
description^11520^احاديث:262657570:0.000167648
description^11521:911499885:0.000167648
description^11521^الاحتجاج:1072653350:0.000167648
description^11522:911499886:0.000167648
description^11522^الاختلاف:522175139:0.000167648
description^11523:911499887:0.000167648
description^11523^الامن:585266761:0.000167648
description^11524:911499888:0.000167648
description^11524^الانحرافات:195085550:0.000167648
description^11525:911499889:0.000167648
description^11525^البعد:132881930:0.000167648
description^11526:911499890:0.000167648
description^11526^البناء:955157165:0.000167648
description^11527:911499891:0.000167648
description^11527^التدين:276149209:0.000167648
description^11528:911499892:0.000167648
description^11528^التراكيب:952930226:0.000167648
description^11529:911499893:0.000167648
description^11529^التربية:671836388:0.000167648
description^11530:911499894:0.000167648
description^11530^التعايش:737783652:0.000167648
description^11531:911499895:0.000167648
description^11531^التوجيهات:547417014:0.000167648
description^11532:911499896:0.000167648
description^11532^الحجاج:1053523451:0.000167648
description^11533:911499897:0.000167648
description^11533^الخجل:857713632:0.000167648
description^11534:911499898:0.000167648
description^11534^الدور:139045196:0.000167648
description^11535:911499899:0.000167648
description^11535^السكينة:134849714:0.000167648
description^11536:911499900:0.000167648
description^11536^الفكر:232015714:0.000167648
description^11537:911499901:0.000167648
description^11537^الله:182718710:0.000167648
description^11538:911499902:0.000167648
description^11538^المتاجرة:1051606978:0.000167648
description^11539:911499903:0.000167648
description^11539^المحصول:137629811:0.000167648
description^11540:911499904:0.000167648
description^11540^المضامين:873976185:0.000167648
description^11541:911499905:0.000167648
description^11541^المقاصد:378569891:0.000167648
description^11542:911499906:0.000167648
description^11542^المقاييس:941047779:0.000167648
description^11543:911499907:0.000167648
description^11543^المنهج:659231347:0.000167648
description^11544:911499908:0.000167648
description^11544^إفشاء:887565363:0.000167648
description^11545:911499909:0.000167648
description^11545^أثر:648559891:0.000167648
description^11546:911499910:0.000167648
description^11546^أسلوب:305362732:0.000167648
description^11547:911499911:0.000167648
description^11547^ألقى:22261135:0.000167648
description^11548:911499912:0.000167648
description^11548^آراء:560604631:0.000167648
description^11549:911499913:0.000167648
description^11549^تحرير:252386385:0.000167648
description^11550:911499914:0.000167648
description^11550^تطور:465108997:0.000167648
description^11551:911499915:0.000167648
description^11551^تطوير:99239258:0.000167648
description^11552:911499916:0.000167648
description^11552^تلقي:1061379520:0.000167648
description^11553:911499917:0.000167648
description^11553^حقيقة:661719602:0.000167648
description^11554:911499918:0.000167648
description^11554^خلاف:838102866:0.000167648
description^11555:911499919:0.000167648
description^11555^دور:482963723:0.000167648
description^11556:911499920:0.000167648
description^11556^دور:510905864:0.000167648
description^11557:911499921:0.000167648
description^11557^دور:538848005:0.000167648
description^11558:911499922:0.000167648
description^11558^دور:566790146:0.000167648
description^11559:911499923:0.000167648
description^11559^رأي:136926911:0.000167648
description^11560:911499924:0.000167648
description^11560^رجال:671499670:0.000167648
description^115^في:317629464:-1.52823e-05
description^117.94:137241449:0.00316339
description^117.94^لإخوانكم:802728351:0.00316339
description^11^12:583651347:-0.000920367
description^11^]:11113582:0.000511882
description^11^اساليب:167496560:7.73236e-05
description^12:911488376:-0.00251859
description^12-:365936994:-0.00142635
description^12-^الشيخ:430252054:-0.00142635
description^12-شرح:207254101:0.00445732
description^12-شرح^الصدوربتحريم:693787614:0.00445732
description^120:911488484:-0.00730591
description^120^ميجا:663026531:-0.00730591
description^120km:622000903:0.000174887
description^120km^away:812471414:0.000174887
description^1250م:219336124:5.94416e-05
description^1250م^1517:1051794981:5.94416e-05
description^1267.pdf:175253157:0.000408509
description^1267.pdf^السجل:731476339:0.000408509
description^128:911488492:-0.0017587
description^1283.pdf:202453228:0.000408509
description^1283.pdf^تاريخ:816538618:0.000408509
description^128^ك:535840141:-0.000974364
description^128^لكل:287668950:-0.00113063
description^1299.pdf:1012110736:0.000408509
description^1299.pdf^الواسطة:205223776:0.000408509
description^12^-:234233606:0.000635299
description^12^13:611593489:-0.000920367
description^12^أفحسبتم:599768575:0.000108871
description^12^استراتيجية:904901790:7.73236e-05
description^12^رمضان:755144239:-0.00265366
description^13:911488377:-0.00345092
description^13-:237727239:0.00326825
description^13-^الشيخ:148638503:-0.00142635
description^13-^انما:35873239:0.00445732
description^13.3:1047066361:0.000339689
description^13.3^MB:87915841:0.000339689
description^132-:976253589:0.000116517
description^132-^334:223674363:0.000116517
description^1325:911489689:0.00115231
description^1325^آكام:77745393:0.00115231
description^1326:911489690:0.00115231
description^1326^ألا:349790933:0.00115231
description^1327:911489691:0.00115231
description^1327^الإخوان:836607229:0.00115231
description^1328:911489692:0.00115231
description^1328^الإخوان:864549370:0.00115231
description^1329:911489693:0.00115231
description^1329^الإسلام:782345058:0.00115231
description^132هـ622م:107391972:0.000167648
description^132هـ622م^-:578549698:0.000167648
description^133.9MB:564328721:0.00124267
description^133.9MB^الجودة:335290483:0.00124267
description^1330:911489694:0.00115231
