Version 8.1.1
Min label:-1.000000
Max label:1.000000
bits:18
lda:0
0 ngram: 
0 skip: 
options:
Checksum: 1109736376
:0
Constant:116060:0.124616
addeddate^2014-07-10:237839:0.002431
addeddate^2015-07-20:221330:0.002669
collection^newsandpublicaffairs:164064:0.053134
collection^opensource_movies:102092:0.130581
creator^-:87377:0.009650
description^"see":34122:-0.009467
description^(1),:186812:0.005670
description^(3),:102314:0.033865
description^(R-DE):33930:-0.012639
description^-:141166:-0.031282
description^--:225565:-0.008158
description^...:66409:0.000711
description^/>:25077:0.021274
description^/><br:183288:-0.011649
description^1:13677:-0.007605
description^10:13686:-0.002631
description^100%:80346:0.009006
description^10am:197856:0.003438
description^13:13689:-0.002598
description^15:13691:-0.002630
description^18:13694:-0.002631
description^1994,:51023:0.000342
description^2:13678:-0.002631
description^20:13696:-0.002631
description^2008:15684:0.008505
description^24:13700:-0.001113
description^3:13679:-0.000775
description^300:13976:0.003138
description^32:13708:0.004907
description^4:13680:0.010541
description^49:13725:0.022209
description^5:13681:-0.002497
description^50:13726:0.008956
description^51:13727:0.004907
description^7:13683:-0.002315
description^743:14419:0.000915
description^761:14437:0.000915
description^</div><div><br:148532:0.035838
description^<><><><><><><>:160429:0.013315
description^Agency:14674:-0.004925
description^Ali:98559:0.003138
description^And:64509:0.004438
description^Baer<br:19470:0.000981
description^But:8946:0.003138
description^Cathy:209483:0.000981
description^City,:212805:0.003138
description^Costa,:18158:-0.005788
description^DPW:99045:0.001151
description^DeSantis,:224490:-0.006008
description^Dr.:138464:0.002750
description^Endeavour:167572:0.001943
description^For:54359:0.016555
description^French:126370:-0.007892
description^Garamendi,:259841:0.000711
description^Gas:225896:0.003138
description^Great:40166:0.000595
description^Hollow:140124:-0.007915
description^IMPORTANCE<br:10220:0.002331
description^ImportanceCOLON:160753:0.001661
description^Islamic:247654:0.003202
description^It:126101:0.001627
description^Italian:217924:-0.007892
description^Knight,:168102:0.029159
description^March:192355:0.002565
description^Melinda:183150:0.005123
description^Monitors:105168:0.001559
description^New:122424:-0.006557
description^Obamacare<br:218937:0.000089
description^Patricia:258449:0.000981
description^Pilot:2519:0.017197
description^Please:203799:0.001627
description^Price,:46624:0.001943
description^Shuttle:243934:0.007931
description^Sound:48994:-0.007892
description^Southern:49714:0.003138
description^Steve:125809:0.000688
description^Substances:106389:-0.000163
description^The:189889:-0.014789
description^Three:102034:0.001151
description^Tom:46320:-0.005788
description^Veolia:188964:0.006947
description^Victoria:173973:0.001943
description^WV.:95779:-0.004460
description^Way:184292:-0.002735
description^a:7059:0.008301
description^able:232406:0.003138
description^after:104719:0.004438
description^ain't:137840:-0.000401
description^air:70007:0.015196
description^all:123310:-0.011999
description^all.:84655:0.004499
description^also:224656:0.003438
description^an:67799:0.003138
description^and:232761:-0.011156
description^any:250412:-0.011184
description^area:37237:0.005435
description^areas,:229368:-0.005411
description^as:5430:0.003138
description^at:138474:0.011366
description^atmosphere's:6483:0.011558
description^auditorium:155757:0.006200
description^be:44120:0.001627
description^being:4163:0.003138
description^book:130254:-0.010924
description^breakthrough:183269:0.007958
description^called:249742:-0.007892
description^can:144427:-0.007396
description^cargo:218216:-0.011194
description^carrying:220939:0.003138
description^cell:246596:0.004323
description^centers:108707:0.002431
description^computer:141971:-0.007892
description^conditions,:218838:0.023516
description^contracted:109663:0.007958
description^control:38597:0.004438
description^during:81027:0.003138
description^facility.:4753:0.029192
description^footage:152423:0.004499
description^for:40477:-0.012145
description^free:2061:-0.007892
description^from:234952:-0.009142
description^gas:239205:0.004438
description^go:138264:-0.007892
description^has:86399:0.003817
description^have:241641:0.002301
description^heavy:32261:0.003138
description^held:17350:0.008638
description^high-risk:253312:0.000893
description^huge:195922:0.003138
description^if:171913:-0.000163
description^important:119989:0.004438
description^in:123106:0.008840
description^into:79534:-0.011127
description^is:41781:-0.009845
description^it:104137:0.006640
description^its:61649:0.003138
description^mail-processing:171096:0.018192
description^many:94337:-0.006176
description^middle:61947:0.001055
description^more:198186:0.004941
description^most:193992:0.004438
description^not:213665:0.003817
description^of:37595:0.020355
description^on:170378:0.004438
description^on.:76490:0.001627
description^one:153629:0.003138
description^operation:32559:0.012273
description^others:14195:0.003138
description^our:201179:-0.000860
description^over:98559:0.003138
description^patriot:120335:0.003138
description^point:54503:0.016541
description^pose:170745:0.003138
description^possession:87737:0.001214
description^provided:69945:0.003138
description^rotating:52676:0.000800
description^see:161242:0.001627
description^sent:78685:0.003138
description^shown:201098:0.019405
description^similar:97305:0.003138
description^so:143786:0.003138
description^than:49637:0.003138
description^that:47772:0.007686
description^the:33226:0.003476
description^their:249258:0.004438
description^them:183513:0.005435
description^then:55776:0.001627
description^they:207500:0.003138
description^this:122774:-0.001333
description^to:218924:-0.025109
description^toCOLON:90825:0.007786
description^turned:147929:0.001627
description^was:96932:0.001151
description^we're:138409:-0.000163
description^were:21777:0.003138
description^will:19923:0.003107
description^with:24324:-0.012540
description^you:40116:-0.007396
description^your:96275:-0.006993
description^–:149120:0.001145
description^“It’s:251578:0.000893
identifier^ri_apple_group_crate_001_disks_005:245148:0.001214
language^eng:144814:0.074802
notes^",","Maine","ME",207.0,":149119:0.002750
notes^",","Oklahoma","OK",405.0,":258450:-0.007892
notes^-:234218:0.017363
notes^001:223407:0.003138
notes^1:223407:0.003138
notes^1,266:249931:0.010018
notes^1,611:163810:-0.005906
notes^5,686:241125:0.003772
notes^678:224084:0.002431
notes^7,417:133632:-0.019455
notes^758:224164:-0.002735
notes^Active:20917:0.000841
notes^STS.34.PART.4:258697:0.002357
notes^THE:45761:0.004907
notes^USE:9755:0.003032
notes^codes:210572:0.005426
notes^disk:26466:0.003107
notes^disk005.dsk/AREA.CODE.csvCOLON</b><br:117139:-0.005983
notes^found:66737:0.001055
notes^lawsuit:36641:0.002093
notes^my:13713:0.005070
notes^near:202364:0.007840
notes^other:154480:0.008872
notes^paul,:19354:0.004718
notes^pilot:25787:0.002565
notes^praradio.org:171435:0.003757
notes^purge:117120:0.008523
notes^rag':54157:-0.005892
notes^take:148747:0.018971
notes^to:196690:-0.019455
notes^top:237422:0.001795
notes^videoCOLON:170578:0.001131
notes^volunteers:261998:0.007958
notes^world:256480:0.002431
ocr^9.0:184979:-0.031184
ocr^ABBYY:161992:-0.031184
ocr^FineReader:111435:-0.031184
publicdate^17COLON00COLON55:224070:0.002431
publicdate^2008-05-26:172112:0.002431
publicdate^2014-07-10:243114:0.002431
publicdate^2015-07-20:59805:0.001873
publicdate^2016-01-22:48876:0.008523
runtime^minutes:109109:0.009232
runtime^seconds:56062:0.009232
scanner^0.3.8:2481:0.029663
scanner^1.6.3:27600:0.046830
scanner^Archive:202608:0.088549
scanner^HTML5:130839:0.088549
scanner^Internet:229369:0.088549
scanner^Uploader:37599:0.088549
subject^2008:220151:-0.000163
subject^Challenge;:9260:0.004907
subject^DPW;:143801:0.001943
subject^of:9309:0.022583
title^-:211191:-0.031795
title^001:72824:-0.009995
title^005:72828:0.019064
title^28,:70370:0.002740
title^Gas:249648:0.003000
title^Michigan:141787:0.022920
title^The:190789:0.008254
title^by:83889:0.002750
title^of:219601:0.007208
title^the:25662:0.003138
updatedate^2010-12-14:105652:-0.000163
uploader^yahoo.com:187692:0.009138
year^2009:139249:0.050586
