Version 8.1.1
Min label:-1.000000
Max label:1.000000
bits:18
lda:0
0 ngram: 
0 skip: 
options:
Checksum: 1109736376
:0
Constant:116060:0.284565
addeddate^00COLON04COLON00:205619:0.007355
addeddate^00COLON04COLON40:104534:-0.001541
addeddate^00COLON05COLON24:70629:0.024612
addeddate^00COLON10COLON35.9281:205543:0.009185
addeddate^00COLON12COLON40.864371:149955:0.002584
addeddate^00COLON12COLON57:70793:0.029158
addeddate^00COLON20COLON01:235612:0.002862
addeddate^00COLON20COLON05:228473:0.000219
addeddate^00COLON22COLON09:193503:0.004580
addeddate^00COLON24COLON20:53966:0.013663
addeddate^00COLON32COLON01:165466:0.018431
addeddate^00COLON32COLON04:68532:0.031294
addeddate^00COLON32COLON56:147913:0.024857
addeddate^00COLON46COLON42:104628:0.021187
addeddate^00COLON47COLON05:207011:0.034289
addeddate^00COLON59COLON43:92965:0.027199
addeddate^01COLON00COLON46:253052:0.023608
addeddate^01COLON02COLON24:104587:0.006894
addeddate^01COLON04COLON39:1653:0.003551
addeddate^01COLON09COLON36:225201:0.033022
addeddate^01COLON13COLON06:106191:0.002378
addeddate^01COLON16COLON13:138585:0.005636
addeddate^01COLON20COLON09:61248:0.004980
addeddate^01COLON23COLON56:199467:0.021305
addeddate^01COLON28COLON56:155149:0.025416
addeddate^01COLON29COLON46:164127:0.028549
addeddate^01COLON31COLON30:101309:0.001031
addeddate^01COLON31COLON43:198669:0.025927
addeddate^01COLON38COLON17:77458:0.013772
addeddate^01COLON44COLON17:6747:-0.004357
addeddate^02COLON02COLON33:248153:0.026406
addeddate^02COLON04COLON47:126765:0.024543
addeddate^02COLON04COLON51:216604:0.027844
addeddate^02COLON05COLON14:240611:0.006075
addeddate^02COLON13COLON43:164402:0.030121
addeddate^02COLON30COLON47:213648:0.009519
addeddate^02COLON42COLON28:35173:-0.023651
addeddate^03COLON14COLON34:103759:0.016058
addeddate^03COLON19COLON53:261721:0.014666
addeddate^03COLON22COLON26:190848:0.002559
addeddate^03COLON32COLON09:118239:0.029916
addeddate^03COLON39COLON08:255902:0.006507
addeddate^03COLON42COLON02:197643:0.023612
addeddate^03COLON43COLON57:173303:-0.011688
addeddate^03COLON49COLON59:97018:0.008709
addeddate^03COLON50COLON34:90252:-0.000389
addeddate^04COLON08COLON43:117769:0.020537
addeddate^04COLON15COLON49:132521:0.002906
addeddate^04COLON40COLON07:211635:0.012544
addeddate^04COLON51COLON28:110154:0.026016
addeddate^04COLON54COLON24:125982:0.019097
addeddate^04COLON57COLON06:68217:0.023425
addeddate^04COLON57COLON16:247785:0.028620
addeddate^05COLON17COLON32:58720:0.011186
addeddate^05COLON30COLON31:256615:0.028112
addeddate^05COLON37COLON03:163679:-0.004237
addeddate^05COLON40COLON07:97108:0.004124
addeddate^05COLON42COLON09:111435:-0.033355
addeddate^05COLON44COLON46:87892:0.000828
addeddate^05COLON48COLON27:192296:0.003814
addeddate^05COLON49COLON58:12505:0.002343
addeddate^05COLON51COLON07:219507:0.001720
addeddate^05COLON52COLON42:198913:0.010898
addeddate^05COLON59COLON14:67792:0.002096
addeddate^06COLON02COLON48:12192:0.000332
addeddate^06COLON13COLON21:259215:0.000635
addeddate^06COLON25COLON02:10796:0.002991
addeddate^06COLON36COLON47:181487:0.002505
addeddate^07COLON05COLON31:90303:0.025996
addeddate^07COLON27COLON07:215393:-0.001203
addeddate^07COLON27COLON52:4728:0.004095
addeddate^07COLON30COLON40:4808:0.016587
addeddate^07COLON51COLON43:151368:0.014907
addeddate^08COLON00COLON57:206025:0.021716
addeddate^08COLON06COLON53.885149:254956:0.000127
addeddate^08COLON09COLON26:101825:-0.004496
addeddate^08COLON12COLON19:139456:0.003953
addeddate^08COLON15COLON39:220786:-0.018858
addeddate^08COLON16COLON05.831097:20416:0.012849
addeddate^08COLON16COLON06:97905:0.001031
addeddate^08COLON33COLON19:250855:-0.001501
addeddate^08COLON37COLON19:219565:-0.000851
addeddate^08COLON40COLON15:112062:0.024857
addeddate^08COLON48COLON03:88671:-0.002726
addeddate^08COLON54COLON33:156318:0.012849
addeddate^08COLON58COLON56:250042:0.020118
addeddate^09COLON00COLON10:145578:0.000670
addeddate^09COLON08COLON34:103453:0.000867
addeddate^09COLON22COLON40:177135:0.002343
addeddate^09COLON25COLON10:104855:-0.004862
addeddate^09COLON33COLON16:150816:0.004373
addeddate^09COLON33COLON47:123056:0.002002
addeddate^09COLON38COLON32:88882:0.029310
addeddate^09COLON38COLON47:31573:0.030191
addeddate^09COLON50COLON57:85824:0.004373
addeddate^09COLON55COLON32:186999:-0.025597
addeddate^10COLON17COLON27:192785:0.026206
addeddate^10COLON17COLON40:49044:0.014675
addeddate^10COLON34COLON06:227084:0.000461
addeddate^10COLON42COLON45:127138:-0.004496
addeddate^10COLON43COLON53:157750:0.019051
addeddate^10COLON46COLON31:111876:0.021338
addeddate^10COLON50COLON48:225253:0.003872
addeddate^11COLON01COLON49:164282:-0.004862
addeddate^11COLON05COLON43:250838:0.003427
addeddate^11COLON08COLON46:116115:0.002489
addeddate^11COLON17COLON11:53538:0.017590
addeddate^11COLON19COLON08:202816:0.020535
addeddate^11COLON24COLON09:100554:0.000828
addeddate^11COLON25COLON50:253056:0.018280
addeddate^11COLON27COLON31:31139:0.002381
addeddate^11COLON30COLON03:140191:0.027110
addeddate^11COLON31COLON37:60777:-0.005672
addeddate^11COLON32COLON01:52537:0.010356
addeddate^11COLON34COLON28:172000:-0.005872
addeddate^11COLON34COLON43:59530:0.003664
addeddate^11COLON37COLON04:9700:0.028086
addeddate^11COLON37COLON29:249358:0.029920
addeddate^11COLON38COLON00:125320:-0.006202
addeddate^11COLON39COLON40:214203:0.005057
addeddate^11COLON40COLON50:6074:0.017498
addeddate^11COLON48COLON24:184152:0.016948
addeddate^11COLON54COLON13:25154:0.012638
addeddate^11COLON55COLON01:189710:0.018048
addeddate^11COLON59COLON32:160983:-0.005182
addeddate^12COLON06COLON12:155036:0.009200
addeddate^12COLON08COLON18:128078:0.024930
addeddate^12COLON18COLON49:112908:0.004696
addeddate^12COLON19COLON06:173326:-0.000900
addeddate^12COLON19COLON37:95472:-0.024918
addeddate^12COLON22COLON44:77375:0.015282
addeddate^12COLON27COLON06:246123:0.011001
addeddate^12COLON27COLON19:123707:0.023948
addeddate^12COLON30COLON25:214385:0.031191
addeddate^12COLON33COLON01:118900:0.002568
addeddate^12COLON33COLON25:56949:0.003456
addeddate^12COLON36COLON02:148632:0.000461
addeddate^12COLON42COLON40:97520:0.017594
addeddate^12COLON46COLON47:60190:0.026157
addeddate^12COLON53COLON01:212561:0.018628
addeddate^13COLON04COLON09:232025:0.007229
addeddate^13COLON18COLON07:62367:0.026936
addeddate^13COLON20COLON59:252621:0.010492
addeddate^13COLON24COLON49:247768:-0.000851
addeddate^13COLON27COLON39.99852:160429:0.010024
addeddate^13COLON31COLON35:44931:0.031012
addeddate^13COLON38COLON56:24197:0.025096
addeddate^13COLON42COLON21:107820:0.008260
addeddate^13COLON45COLON45:33960:0.006719
addeddate^13COLON48COLON45:14210:0.021238
addeddate^13COLON49COLON39:237666:0.026467
addeddate^13COLON49COLON52:28670:0.014697
addeddate^13COLON51COLON30:170306:0.004373
addeddate^13COLON54COLON21:169088:0.026442
addeddate^13COLON57COLON52:258636:0.027366
addeddate^14COLON04COLON58:135731:0.010585
addeddate^14COLON08COLON42:163281:0.019873
addeddate^14COLON10COLON16:102042:0.006507
addeddate^14COLON18COLON49:584:0.008787
addeddate^14COLON20COLON58:88146:0.028204
addeddate^14COLON22COLON29:28343:0.000830
addeddate^14COLON26COLON37:233475:0.000920
addeddate^14COLON30COLON28:158136:0.002096
addeddate^14COLON31COLON30:169749:0.003814
addeddate^14COLON37COLON39:235323:0.023465
addeddate^14COLON38COLON23:29:0.024960
addeddate^14COLON39COLON44:247352:-0.000540
addeddate^14COLON45COLON38:102215:0.001720
addeddate^14COLON48COLON58:117560:0.020301
addeddate^14COLON52COLON10.142957:115561:0.008843
addeddate^14COLON53COLON00:17746:-0.002781
addeddate^14COLON58COLON31:232408:0.026294
addeddate^15COLON05COLON32:9708:0.016205
addeddate^15COLON15COLON17.427071:184439:0.001760
addeddate^15COLON16COLON07:250871:0.016005
addeddate^15COLON16COLON11.606914:250167:0.012019
addeddate^15COLON19COLON38:206056:0.028494
addeddate^15COLON26COLON35:12619:0.002726
addeddate^15COLON32COLON08:105815:-0.037541
addeddate^15COLON32COLON14:156739:0.021390
addeddate^15COLON38COLON41:160293:0.023527
addeddate^15COLON38COLON55:206754:0.025849
addeddate^15COLON45COLON27.374902:1638:0.019485
addeddate^15COLON48COLON50:23887:0.030302
addeddate^15COLON50COLON44:154685:0.021970
addeddate^15COLON52COLON06:63361:0.002643
addeddate^15COLON54COLON48:187342:0.027091
addeddate^15COLON58COLON24:164252:0.008079
addeddate^16COLON00COLON39:185081:0.014493
addeddate^16COLON00COLON44:231877:-0.006359
addeddate^16COLON05COLON25:247187:0.002555
addeddate^16COLON07COLON12:20641:0.012739
addeddate^16COLON18COLON55:250279:0.001177
addeddate^16COLON34COLON05:99658:0.020133
addeddate^16COLON35COLON00:100856:0.024908
addeddate^16COLON36COLON14:55778:0.021173
addeddate^16COLON36COLON31.314561:5485:0.011982
addeddate^16COLON39COLON23:161286:-0.007028
addeddate^16COLON41COLON46:197847:0.008061
addeddate^16COLON42COLON21:208797:0.000670
addeddate^16COLON54COLON17:37098:0.018551
addeddate^16COLON55COLON41:62526:0.024932
addeddate^17COLON06COLON52:149209:0.015032
addeddate^17COLON08COLON08:163238:0.014865
addeddate^17COLON12COLON01:229542:0.002343
addeddate^17COLON15COLON07:106448:0.002559
addeddate^17COLON16COLON37:133947:0.027917
addeddate^17COLON17COLON44:22291:0.024027
addeddate^17COLON19COLON27:151586:0.027518
addeddate^17COLON21COLON08.329703:29306:0.002876
addeddate^17COLON26COLON16:36096:0.026698
addeddate^17COLON41COLON14:76793:0.033852
addeddate^17COLON43COLON06:84509:0.004670
addeddate^17COLON47COLON08:163587:0.011479
addeddate^18COLON02COLON15:64493:0.022251
addeddate^18COLON07COLON57:176336:0.035369
addeddate^18COLON08COLON12:181312:0.013985
addeddate^18COLON09COLON43:241125:0.009949
addeddate^18COLON14COLON13.991701:6217:-0.008399
addeddate^18COLON17COLON51:191797:-0.008265
addeddate^18COLON18COLON10:24897:0.028112
addeddate^18COLON19COLON32.57894:226866:0.015096
addeddate^18COLON21COLON55:121304:0.014430
addeddate^18COLON22COLON54:232102:0.018431
addeddate^18COLON27COLON15:60966:0.029370
addeddate^18COLON34COLON06:242710:0.025010
addeddate^18COLON40COLON34:90082:0.004242
addeddate^18COLON41COLON02:54390:0.023588
addeddate^18COLON45COLON44:69251:0.016462
addeddate^18COLON47COLON24:171485:0.015669
addeddate^18COLON48COLON37:108793:-0.039928
addeddate^18COLON53COLON16:195730:0.032116
addeddate^19COLON00COLON06:128949:0.019231
addeddate^19COLON01COLON43:12476:0.009598
addeddate^19COLON04COLON05:94940:0.021269
addeddate^19COLON07COLON48:47397:0.003913
addeddate^19COLON12COLON19:132972:0.004275
addeddate^19COLON12COLON34:48932:0.005186
addeddate^19COLON22COLON41:151088:0.000867
addeddate^19COLON29COLON01:54643:0.002763
addeddate^19COLON32COLON02:87785:0.000332
addeddate^19COLON37COLON26:168303:0.015113
addeddate^19COLON41COLON36:34399:0.002478
addeddate^19COLON45COLON58:262052:0.013906
addeddate^19COLON46COLON14:175545:0.022278
addeddate^19COLON51COLON52:184546:0.001373
addeddate^19COLON53COLON04.912243:38002:0.003650
addeddate^19COLON53COLON53:11238:0.008362
addeddate^19COLON56COLON19:160331:0.009178
addeddate^2007-06-11:184477:0.004373
addeddate^2007-07-25:207292:0.000867
addeddate^2008-09-06:198564:-0.024918
addeddate^2009-06-12:178057:0.002096
addeddate^2009-09-30:166183:0.019873
addeddate^2009-10-02:188352:0.026206
addeddate^2009-10-05:213462:0.002505
addeddate^2009-10-08:152984:0.011331
addeddate^2009-10-09:243699:0.000461
addeddate^2009-10-31:61493:0.011479
addeddate^2009-11-08:224723:0.015282
addeddate^2009-12-08:256200:0.001720
addeddate^2010-05-15:92097:0.029203
addeddate^2010-06-30:141595:0.011254
addeddate^2011-03-15:219119:0.010898
addeddate^2011-06-12:10350:0.000332
addeddate^2011-06-21:115740:0.002343
addeddate^2011-09-11:225779:0.001031
addeddate^2011-09-29:4131:0.001130
addeddate^2011-11-19:194521:0.000635
addeddate^2011-11-30:161644:0.000828
addeddate^2011-12-02:166338:0.000670
addeddate^2011-12-11:80711:0.028620
addeddate^2012-07-01:127043:-0.008526
addeddate^2012-07-11:106650:0.003456
addeddate^2012-07-29:130831:0.002568
addeddate^2012-08-24:143584:0.002559
addeddate^2012-09-09:144201:0.002906
addeddate^2013-01-04:52675:-0.025597
addeddate^2013-04-03:260834:-0.004496
addeddate^2013-05-15:139384:0.003551
addeddate^2013-07-17:6252:0.022623
addeddate^2013-08-05:187409:0.030472
addeddate^2013-10-04:197003:0.017695
addeddate^2013-10-24:176679:0.005636
addeddate^2013-11-14:245981:0.009213
addeddate^2013-11-17:231397:-0.015375
addeddate^2013-11-20:244112:-0.039928
addeddate^2013-12-14:7144:0.003650
addeddate^2013-12-17:188281:0.015669
addeddate^2013-12-20:194289:-0.008399
addeddate^2014-01-19:132606:0.008843
addeddate^2014-01-26:34875:0.023494
addeddate^2014-02-01:195343:0.009519
addeddate^2014-03-01:38185:0.019485
addeddate^2014-03-18:178703:0.029386
addeddate^2014-03-20:130359:0.010585
addeddate^2014-04-14:52488:0.027813
addeddate^2014-04-27:231715:0.012019
addeddate^2014-05-02:117457:0.002555
addeddate^2014-07-04:251421:0.013343
addeddate^2014-07-05:200211:0.014104
addeddate^2014-07-10:237839:0.002381
addeddate^2014-07-22:64758:0.001760
addeddate^2014-08-09:103693:0.004696
addeddate^2014-08-20:214478:0.002478
addeddate^2014-08-22:61536:0.021187
addeddate^2014-08-23:227369:0.026467
addeddate^2014-08-24:187751:0.012849
addeddate^2014-08-25:120732:0.000127
addeddate^2014-09-09:80711:0.028620
addeddate^2014-09-13:155113:0.020535
addeddate^2014-09-16:130165:0.020618
addeddate^2014-09-29:155395:0.018726
addeddate^2014-09-30:40013:0.005879
addeddate^2014-10-11:104265:0.005186
addeddate^2014-10-14:56516:-0.000851
addeddate^2014-10-26:70215:0.033852
addeddate^2014-10-28:247276:0.023287
addeddate^2014-10-29:199161:0.036322
addeddate^2014-11-04:48052:0.002876
addeddate^2014-11-06:212748:0.011982
addeddate^2014-11-11:144170:-0.038584
addeddate^2014-11-22:92333:0.033310
addeddate^2014-11-28:21997:0.027091
addeddate^2014-12-03:230156:0.031200
addeddate^2014-12-11:12524:-0.018858
addeddate^2014-12-17:167243:0.009185
addeddate^2014-12-29:97021:0.028204
addeddate^2015-01-05:11753:0.018247
addeddate^2015-01-07:3263:0.024308
addeddate^2015-01-25:260374:0.026936
addeddate^2015-02-02:76783:-0.008265
addeddate^2015-02-09:46797:0.031637
addeddate^2015-02-14:127669:0.023588
addeddate^2015-02-19:33073:0.014666
addeddate^2015-02-21:136010:0.028307
addeddate^2015-02-22:193638:0.010511
addeddate^2015-03-02:83818:0.037828
addeddate^2015-03-05:184705:0.035369
addeddate^2015-03-13:227564:0.023716
addeddate^2015-03-16:168265:0.006977
addeddate^2015-03-24:221288:0.018280
addeddate^2015-03-26:200438:0.054789
addeddate^2015-04-12:222970:0.024908
addeddate^2015-04-13:241158:0.067901
addeddate^2015-04-14:188534:0.020863
addeddate^2015-04-17:71555:0.032772
addeddate^2015-04-20:255867:0.025719
addeddate^2015-04-21:259364:0.021115
addeddate^2015-04-22:260611:0.021480
addeddate^2015-04-23:164748:0.051905
addeddate^2015-04-24:208439:0.028654
addeddate^2015-04-25:104227:0.024612
addeddate^2015-04-26:1238:0.054006
addeddate^2015-04-27:74037:0.006075
addeddate^2015-04-29:198795:0.015272
addeddate^2015-04-30:155061:0.035410
addeddate^2015-05-01:159973:0.031899
addeddate^2015-05-02:166454:0.050519
addeddate^2015-05-03:91056:0.046265
addeddate^2015-05-04:111161:0.023357
addeddate^2015-05-05:185672:0.053193
addeddate^2015-05-06:175816:0.040462
addeddate^2015-05-20:10203:0.026406
addeddate^2015-05-21:114942:0.012255
addeddate^2015-05-22:202854:0.008787
addeddate^2015-05-24:261998:0.012244
addeddate^2015-05-25:130585:0.036968
addeddate^2015-05-30:253333:0.028451
addeddate^2015-06-02:144480:0.029491
addeddate^2015-06-05:62594:-0.001501
addeddate^2015-06-06:50673:0.032116
addeddate^2015-06-19:211396:0.013178
addeddate^2015-06-20:244371:0.031366
addeddate^2015-06-21:168773:0.027844
addeddate^2015-06-23:146732:0.024543
addeddate^2015-06-25:145712:0.029760
addeddate^2015-06-26:126135:0.003814
addeddate^2015-07-01:160481:0.020118
addeddate^2015-07-09:172843:0.024025
addeddate^2015-07-10:179945:0.044629
addeddate^2015-07-14:117869:0.023608
addeddate^2015-07-15:190202:0.023138
addeddate^2015-07-16:179830:0.023612
addeddate^2015-07-18:58300:0.030191
addeddate^2015-07-20:221330:0.004252
addeddate^2015-07-25:26409:0.012327
addeddate^2015-07-26:35153:-0.004357
addeddate^2015-07-28:53740:0.020537
addeddate^2015-07-29:29632:0.016587
addeddate^2015-08-01:235169:0.029916
addeddate^2015-08-04:75291:0.001031
addeddate^2015-08-05:72292:0.019599
addeddate^2015-08-06:236889:0.026016
addeddate^2015-08-08:24897:0.028112
addeddate^2015-08-13:17877:0.018431
addeddate^2015-08-14:75407:0.022278
addeddate^2015-08-23:34547:-0.005872
addeddate^2015-08-24:239330:0.027322
addeddate^2015-09-02:84156:0.017498
addeddate^2015-09-03:56444:0.037581
addeddate^2015-09-05:126296:0.032034
addeddate^2015-09-08:77377:0.021716
addeddate^2015-09-16:15336:0.022536
addeddate^2015-09-23:105283:0.021390
addeddate^2015-09-28:35161:0.025927
addeddate^2015-10-04:179881:0.015113
addeddate^2015-10-07:46829:0.026729
addeddate^2015-10-11:112062:0.024857
addeddate^2015-10-20:103863:-0.005731
addeddate^2015-10-22:118861:0.011001
addeddate^2015-10-26:166680:-0.001389
addeddate^2015-11-01:256012:0.003427
addeddate^2015-11-03:160168:-0.000900
addeddate^2015-11-06:144363:0.038721
addeddate^2015-11-09:89272:-0.000389
addeddate^2015-11-11:19526:0.002584
addeddate^2015-11-14:92449:-0.002860
addeddate^2015-11-15:140759:0.008362
addeddate^2015-11-30:150878:0.020301
addeddate^2015-12-06:137012:0.027366
addeddate^2015-12-07:172655:-0.004862
addeddate^2015-12-12:28028:0.021269
addeddate^2015-12-31:2569:0.017590
addeddate^2016-01-09:108284:-0.013525
addeddate^2016-01-12:18600:0.041449
addeddate^2016-01-15:165406:0.008709
addeddate^2016-01-23:49847:0.029370
addeddate^2016-01-27:59533:-0.004237
addeddate^2016-02-01:257941:0.044779
addeddate^2016-02-03:33322:-0.009631
addeddate^2016-02-04:166018:-0.002781
addeddate^2016-02-07:11571:0.034289
addeddate^2016-02-09:144910:0.007314
addeddate^2016-02-11:173704:0.000656
addeddate^2016-02-13:30378:0.002337
addeddate^2016-02-15:43230:0.025544
addeddate^2016-02-16:168792:0.012638
addeddate^2016-02-17:14488:0.006894
addeddate^2016-02-18:66505:0.014025
addeddate^2016-02-20:185936:0.010492
addeddate^20COLON02COLON09:149225:0.008882
addeddate^20COLON02COLON12:2872:0.005636
addeddate^20COLON03COLON26.807818:203030:0.017695
addeddate^20COLON05COLON16:53838:0.025719
addeddate^20COLON08COLON16:12413:0.015368
addeddate^20COLON10COLON58:154188:0.003502
addeddate^20COLON13COLON26:36703:0.024025
addeddate^20COLON39COLON56:126667:0.020601
addeddate^20COLON44COLON22:37793:0.019599
addeddate^20COLON45COLON58:183265:0.000670
addeddate^20COLON48COLON56:148169:0.013178
addeddate^20COLON53COLON34:97144:0.026281
addeddate^21COLON02COLON32:119514:0.006093
addeddate^21COLON04COLON28:47392:0.015883
addeddate^21COLON05COLON34:227889:0.006977
addeddate^21COLON08COLON56:193597:-0.000851
addeddate^21COLON12COLON37:181723:0.014025
addeddate^21COLON17COLON20.062167:124273:0.002381
addeddate^21COLON18COLON10:138329:0.011398
addeddate^21COLON22COLON53:110997:-0.035245
addeddate^21COLON26COLON36:130624:0.024308
addeddate^21COLON34COLON43:31504:0.009483
addeddate^21COLON36COLON33:145661:0.000920
addeddate^21COLON37COLON46:14694:0.033811
addeddate^21COLON47COLON16:124902:0.028307
addeddate^21COLON47COLON29.41511:194994:-0.015375
addeddate^21COLON50COLON42:224239:0.001377
addeddate^21COLON52COLON02:59579:0.031949
addeddate^21COLON54COLON18:159436:0.013726
addeddate^21COLON54COLON46:27949:0.027813
addeddate^21COLON55COLON01:257152:0.017172
addeddate^22COLON01COLON31:143052:0.008362
addeddate^22COLON03COLON43:245276:0.022328
addeddate^22COLON05COLON26:219143:0.012255
addeddate^22COLON06COLON45:140323:0.019163
addeddate^22COLON07COLON48:24617:-0.038584
addeddate^22COLON09COLON24:254039:0.033310
addeddate^22COLON10COLON54:190772:0.029386
addeddate^22COLON16COLON38:106292:0.015121
addeddate^22COLON17COLON14:122869:0.022548
addeddate^22COLON19COLON44:31994:0.008046
addeddate^22COLON22COLON15:251636:0.017612
addeddate^22COLON24COLON15:199964:0.023494
addeddate^22COLON26COLON09:78278:0.032595
addeddate^22COLON26COLON38:159885:0.014208
addeddate^22COLON29COLON47:161518:0.022391
addeddate^22COLON30COLON22.418996:110911:0.005636
addeddate^22COLON32COLON17:26485:0.005365
addeddate^22COLON33COLON33:146732:0.024543
addeddate^22COLON37COLON25:176688:0.001130
addeddate^22COLON38COLON18:138916:0.018989
addeddate^22COLON39COLON46:74151:0.022050
addeddate^22COLON39COLON56:56504:0.002381
addeddate^22COLON40COLON06:69087:0.013044
addeddate^22COLON40COLON10:151581:0.011716
addeddate^22COLON41COLON03:8977:0.029203
addeddate^22COLON42COLON12:241085:0.016559
addeddate^22COLON43COLON29:173153:0.000670
addeddate^22COLON43COLON59:96704:0.018670
addeddate^22COLON50COLON13:169875:0.017569
addeddate^22COLON53COLON04:170404:0.028333
addeddate^22COLON53COLON13:96845:0.003766
addeddate^22COLON55COLON35:30229:0.005879
addeddate^22COLON56COLON58.649967:131275:0.018726
addeddate^22COLON58COLON33:211622:0.011254
addeddate^22COLON59COLON14:68065:0.029754
addeddate^23COLON08COLON22.096458:166947:0.001377
addeddate^23COLON08COLON44:151854:0.016502
addeddate^23COLON09COLON21:195230:-0.005969
addeddate^23COLON13COLON57:104058:0.013343
addeddate^23COLON14COLON00:158269:0.007286
addeddate^23COLON14COLON22:192492:0.023676
addeddate^23COLON17COLON17:111471:0.014808
addeddate^23COLON21COLON13:27579:0.012638
addeddate^23COLON21COLON37:216792:0.008568
addeddate^23COLON23COLON58:226777:0.022623
addeddate^23COLON27COLON34:38114:0.027110
addeddate^23COLON28COLON59:23694:0.020472
addeddate^23COLON33COLON38:78273:0.007314
addeddate^23COLON36COLON17:126317:0.007245
addeddate^23COLON37COLON27:37627:0.003739
addeddate^23COLON41COLON32:54960:0.023560
addeddate^23COLON45COLON32:252543:0.015695
addeddate^23COLON55COLON06:27638:0.033916
addeddate^23COLON56COLON18:38058:0.013615
addeddate^23COLON58COLON25:122000:0.029686
addeddate^23COLON59COLON19:203628:0.033213
boxid^OL100020604:87811:0.002096
boxid^OL100020605:219477:0.030672
closed_captioning^no:112564:0.020301
contact^((الإصدار:257222:0.001031
contact^)):251831:0.001031
contact^1:235469:-0.024918
contact^33:235501:-0.024918
contact^COLONCOLON:123669:0.001458
contact^_منتديات:233711:0.019873
contact^umar:106193:0.033916
contact^~°~:2042:0.002063
contact^أبطال:97235:0.001031
contact^أبي:243729:0.001458
contact^أرض:114535:0.001031
contact^أهل:95095:0.001031
contact^إلى:157675:-0.011034
contact^إليكم:145768:0.001031
contact^إهداء...:80846:0.001031
contact^الأسوار:3338:0.001031
contact^الأشاوس:60016:0.001031
contact^الأية:20554:-0.035245
contact^الإسلامية:228991:0.001458
contact^الإسْلام:175846:0.001458
contact^الإعلامي:230951:0.001458
contact^الارهابية:24448:0.019873
contact^الاستشهادية:100314:0.001031
contact^الاسلامية:191901:0.001031
contact^البغدادي:24005:0.001031
contact^البلسم:210363:0.001031
contact^التوبة:212727:-0.024918
contact^الثغر:64281:0.001031
contact^الجهاد:153598:0.001458
contact^الحبيبة:176540:0.001031
contact^الحرب:245463:-0.015375
contact^الحق:175539:0.001031
contact^الدار:113506:0.001031
contact^الدولة:85454:0.001609
contact^السنة:111088:0.001031
contact^الصابرين:212599:0.001031
contact^الصليبية:199054:0.001031
contact^الع:44433:0.001031
contact^العالية:117477:0.001031
contact^العراق:88207:0.001031
contact^العملية:57041:0.001031
contact^الفرقان:171765:0.001031
contact^الفلوجة:213750:0.015243
contact^القاعدة:142534:0.001031
contact^الكتائب:107277:0.001031
contact^الله:44455:0.001031
contact^المرئي:6087:0.001031
contact^المصدر:170716:0.001031
contact^المنايا:236768:0.001031
contact^المهاجر:51294:0.001031
contact^الهجرتين:42319:0.001031
contact^بـَاقـِيَة:10514:0.001458
contact^بنادر:70690:0.001031
contact^تـُقدّم:66746:0.001031
contact^تقبلهما:1139:0.001031
contact^تلاوة:19153:-0.024918
contact^ثأرا:51463:0.001031
contact^جميعا:195978:0.001031
contact^حربه:81952:0.001031
contact^حماة:75777:0.001031
contact^حمزة:58422:0.001031
contact^دولة:100148:0.001031
contact^دَولَة:253670:0.001458
contact^رابض:227065:0.001031
contact^ركائز:255935:0.001031
contact^صناديد:256030:0.001031
contact^طلاب:183456:0.001031
contact^عان:245853:0.001031
contact^علماء:16922:0.001031
contact^على:200992:0.001458
contact^عمر:203409:0.001031
contact^في:96216:0.001458
contact^قادة:93452:0.001031
contact^قناص:20733:0.019873
contact^كل:171528:0.001458
contact^لأمير:192565:0.001031
contact^لسورة:142745:-0.024918
contact^لكُم:109693:0.001031
contact^للإنتاج:64498:0.001031
contact^للشيخ:144771:-0.024918
contact^مؤسسة:171099:0.001031
contact^مباركة:125039:-0.024918
contact^مجاهد:57109:0.001031
contact^محمود:166677:-0.024918
contact^من:27404:-0.020615
contact^منتديات:78850:0.001031
contact^هذا:165342:0.001031
contact^و:194262:0.002063
contact^وراء:164592:0.001031
contact^وزير:238142:0.001031
contact^ولاية:55420:0.001031
contact^ية:120455:0.001031
coverage^(>:41910:0.004095
coverage^//:20230:0.004095
coverage^<):186102:0.004095
coverage^COLONCOLONCOLONقوية:192153:0.004095
coverage^_منتديات:79251:0.002563
coverage^أبو:39545:0.004095
coverage^الإعلامي:63175:0.001031
coverage^الــولاء:209641:0.004095
coverage^الفلوجة:110601:0.002563
coverage^الكتائب:86659:0.001031
coverage^المقدسي:17182:0.004095
coverage^النور:143088:0.004095
coverage^بعنوان:240810:0.004095
coverage^تويتر:108678:0.012638
coverage^حصرياً:143212:0.004095
coverage^خطبة:57010:0.004095
coverage^قناص:83672:0.002563
coverage^للإنتاج:150682:0.001031
coverage^للشيخ:83554:0.004095
coverage^مؤسسة:234366:0.001031
coverage^مرة:132152:0.004095
coverage^والــبــراء:120709:0.004095
coverage^ولأول:261289:0.004095
credits^((الإصدار:173179:0.001031
credits^)):70769:0.001031
credits^COLONCOLON:63800:0.001458
credits^operation:252272:0.000920
credits^~°~:99252:0.002063
credits^أبطال:227563:0.001031
credits^أبي:87006:0.001458
credits^أرض:206915:0.001031
credits^أهل:13088:0.001031
credits^إصدارات:72988:0.007245
credits^إلى:188244:0.002728
credits^إليكم:261041:0.001031
credits^إهداء...:31393:0.001031
credits^الأسوار:188655:0.001031
credits^الأشاوس:81750:0.001031
credits^الإسلامية:13108:0.001458
credits^الإسْلام:14310:0.001458
credits^الإعلامي:86158:0.001458
credits^الاستشهادية:99624:0.001031
credits^الاسلامية:29586:0.001031
credits^البغدادي:178478:-0.003871
credits^البلسم:260615:0.001031
credits^الثغر:101554:-0.001231
credits^الجهاد:167719:0.001458
credits^الحبيبة:50088:0.001031
credits^الحق:222125:0.001031
credits^الدار:44821:0.001031
credits^الدولة:94739:0.001458
credits^السنة:111878:0.001031
credits^الصابرين:133355:0.001031
credits^الصليبية:119910:0.001031
credits^الع:49699:0.001031
credits^العالية:142968:0.001031
credits^العراق:254852:0.001031
credits^العملية:64502:0.001031
credits^الفرقان:80321:0.001031
credits^الفلوجة:161998:0.001031
credits^القاعدة:238525:0.001031
credits^الكتائب:9500:0.001031
credits^الله:11906:0.001031
credits^المرئي:183089:0.001031
credits^المصدر:161405:0.001031
credits^المنايا:74700:0.001031
credits^المهاجر:202566:0.001031
credits^الهجرتين:131735:0.001031
credits^بـَاقـِيَة:210804:0.001458
credits^بنادر:68956:0.001031
credits^تـُقدّم:201106:0.001031
credits^تقبلهما:51884:0.001031
credits^ثأرا:109335:0.001031
credits^جميعا:26476:0.001031
credits^حربه:91304:0.001031
credits^حماة:163148:0.001031
credits^حمزة:164163:0.001031
credits^دولة:102654:0.001031
credits^دَولَة:99269:0.001458
credits^رابض:47043:0.001031
credits^ركائز:125136:0.001031
credits^صناديد:16717:0.001031
credits^طلاب:218619:0.001031
credits^عان:219519:0.001031
credits^علماء:19724:0.001031
credits^على:139628:0.001458
credits^عمر:236851:0.001031
credits^في:219184:0.001458
credits^قادة:125230:0.001031
credits^كل:61151:0.001458
credits^لأمير:164046:0.001031
credits^لكُم:40138:0.001031
credits^للإنتاج:63783:0.001031
credits^لهيب:230864:-0.005182
credits^مؤسسة:250466:0.001031
credits^مجاهد:215194:0.001031
credits^من:207753:-0.003013
credits^منتديات:87500:0.001031
credits^هذا:29225:0.001031
credits^و:13550:0.002063
credits^وراء:112058:0.001076
credits^وزير:125930:0.001031
credits^ولاية:48892:0.001031
credits^ية:77524:0.001031
date^02/12/2011:45952:0.000670
date^09/09/2012:27128:0.002906
date^1430-12-21:91235:0.001720
date^19/11/2011:89746:0.000635
date^2009:129780:0.054491
date^2013-11-16:138140:0.012849
date^2013-11-17:199153:-0.015375
date^2013-12-22:7352:0.000127
date^2014-02-28:132215:0.019485
date^2014-03-07:187692:0.021767
date^2014-04-16:62197:0.012019
date^2014-07-10:24743:0.002381
date^2014-07-20:84470:0.001760
date^2014-08-20:31087:0.002478
date^2014-10-27:21404:0.015096
date^2014-11-4:250082:0.002876
date^2014-11-5:160717:0.011982
date^2014-2-25:159473:0.001130
date^2015:129786:0.003427
date^2015-02-09:4677:0.025010
date^2015-04-18:83254:0.025719
date^2015-06-26:230229:0.003814
date^2015-07-08:33077:0.024025
date^2015-09-05:187475:0.010356
date^2015-10-22:140438:0.011001
date^2015-11-30:165597:0.020301
date^2015-12-31:162262:0.017590
date^2016-01-15:65121:0.008709
date^21/6/2011:210598:0.002343
date^24/08/2012:5111:0.002559
date^29/07/2012:83889:0.002568
date^30/11/2011:50431:0.000828
description^!:219574:-0.000851
description^!!:253497:0.001720
description^":231532:0.016186
description^"<br:42731:0.021644
description^"الدولة:37159:0.005879
description^"تحليل:257174:0.000867
description^#808080;">:239375:0.000127
description^#اذكروا_الله_ﷻ:121737:0.002584
description^#الإسلام:51:0.002584
description^#الله_جل_جلاله:23752:0.002584
description^#اللّٰه_ﷻ:108831:0.002584
description^#دولة*̡̡:112479:0.002584
description^#صل_الله_عليه_وسلم:132392:0.002584
description^#صل_على_المصطفى:88033:0.002584
description^#لا_اله_الا_انت_سبحانك_اني_كنت_من_الظالمين:235964:0.002584
description^#هل_صليت_على_النبى_اليوم:106473:0.002584
description^#ولاية_كركوك<div><br:108647:0.031012
description^'Lucida:210641:-0.018202
description^'Times:7126:-0.018858
description^'sans-serif';colorCOLON#000000;":88352:-0.026671
description^(:97462:0.019169
description^((الإصدار:223763:0.001031
description^((الخط:130501:0.011479
description^(1):226059:0.003456
description^(11):259757:0.002559
description^(1403هـ:136643:0.000670
description^(27)<br:159354:0.012849
description^(577هـ665م):2639:0.000635
description^(70):120821:0.002568
description^(96):195283:0.002906
description^(<font>الشيخ:191126:0.003650
description^(<font>حفظه:102883:0.008843
description^(armoured):95727:0.001760
description^(in:70372:0.001760
description^(when:204128:0.000127
description^(الأنفال39).:49055:0.000461
description^(الصليبي):19157:0.002559
description^(المهاجرين):100810:0.003613
description^(الهيروين:65823:0.030331
description^(ت:159456:0.001551
description^(ديوان:208060:0.020118
description^(ربيع:149662:0.014025
description^(ط.:106308:0.002559
description^(في:189227:0.000670
description^(لاسيما):137645:0.000828
description^(من:180393:0.000828
description^(ولد:29709:0.000635
description^):54382:0.015929
description^)):46266:0.001031
description^)1:227827:0.014025
description^)</h2><div:211697:0.005186
description^)الحفل:5638:0.000670
description^,:145577:0.006198
description^,دراسة:89267:0.000670
description^-:141166:-0.024930
description^--:225565:-0.009938
description^---------------------------<br:140285:0.001130
description^----------<br:155184:0.001130
description^--1--2016<br:35877:-0.007028
description^-1404هـ:75193:0.022111
description^-30px;"><span:231023:0.000920
description^-538هـ:4930:0.000828
description^-إذاعة:110692:0.023588
description^-الحشيش:216114:0.000670
description^-الكبتاجون):117379:0.000670
description^-النجار.pdf:93830:0.002559
description^-النَفط:123183:0.002343
description^..:85283:0.004058
description^....:104238:0.001720
description^...</div></div><span:104016:0.000915
description^...</font></b></font></font></div>:149489:-0.008399
description^..<a:24722:0.000920
description^..pdf:72119:0.000635
description^..الوسائل:8652:0.002559
description^..مبادئ:230109:0.002343
description^.15em;"><a:102749:0.005879
description^.<br:80358:0.003551
description^.COLON.<br:160069:0.001720
description^.pdf:125196:0.003044
description^/:127877:0.029034
description^//:200975:0.006977
description^/>:25077:0.032800
description^/>#الدولة_الاسلامية<br:87367:0.018431
description^/></a>:50885:-0.012172
description^/></a></b></b>:140721:0.001130
description^/></a><a:80643:-0.007028
description^/></b></div><div><b>:80702:0.001377
description^/></b></div><div><b><i>الشيخ:181346:0.001377
description^/></b></div><div><b>جمع:34016:0.009483
description^/></b></div><div><b>جميع:133023:0.001377
description^/></b></div><div><b>وقدم:2100:0.009483
description^/></b></span></div></div>:102051:0.002555
description^/></b><br:8026:0.005636
description^/></big></big><br:81644:0.033438
description^/></center>:210010:0.013833
description^/></center><center:6937:0.005186
description^/></div>:70771:0.063394
description^/></div></center></blockquote></div></div>:138571:0.005186
description^/></div></div></div><span:125276:0.000127
description^/></div><br:21679:0.008843
description^/></div><div:223855:0.013805
description^/></div><div>:5718:0.055741
description^/></div><div><br:94286:0.034304
description^/></div><div><img:43752:0.010514
description^/></div><div>السميعة:29503:-0.028770
description^/></div><span:99279:0.000920
description^/></font>:148455:-0.004237
description^/></font></b><b><font:112034:0.008843
description^/></font></font>:225691:-0.007565
description^/></font></font></b></font><font:31250:0.008843
description^/></font></font></center>:172872:0.008843
description^/></font></font></font></font><br:235340:-0.006202
description^/></font></font></font><br:69889:-0.006202
description^/></font></font><a:169728:0.008843
description^/></font></font><b><font:176408:0.003551
description^/></font></font><br:131983:-0.008481
description^/></font></font><font:238375:-0.005667
description^/></font></font>واليكم:176023:-0.004237
description^/></font></strong><br:57445:0.001760
description^/></font><br:141756:0.015060
description^/></font><div:175536:0.007435
description^/></font><font:52805:-0.016099
description^/></font><font><br:177942:0.008843
description^/></font><font>تقدم</font><br:224727:0.008843
description^/></font><strong><font:93081:0.001760
description^/></font>The:19883:-0.000389
description^/></font>قبل:152211:-0.005672
description^/></p>:183049:0.001760
description^/></p></center>:222653:0.015059
description^/></span>:139675:0.014315
description^/></span></b></p>:149242:0.001720
description^/></span></b><b><span:161334:0.004552
description^/></span></div>:100733:0.008195
description^/></span></font><div><br:210292:0.012849
description^/></span></u></b></p><center><img:144250:0.001720
description^/></span></u></b><b><span:134493:0.001720
description^/></strong></font></div>:99165:0.001760
description^/></strong></font></strong><br:79235:0.001760
description^/></strong><span:106065:0.002726
description^/><a:127728:0.021171
description^/><b:245753:0.002697
description^/><b>:22835:0.012506
description^/><b>-نبشركم:154480:0.005636
description^/><b>1.96:51379:0.003650
description^/><b>114.92:237383:0.003650
description^/><b>15.23:15180:0.003650
description^/><b>57.61:40763:0.003650
description^/><b><b>:195489:0.004378
description^/><b><font>{وَلِلَّهِ:206157:0.012849
description^/><b>COLONCOLONCOLONالله:18731:0.005636
description^/><b>COLONCOLONCOLONرثاء:157136:0.005636
description^/><b>أبو:62683:0.005636
description^/><b>الأخ:220254:0.005636
description^/><b>الدّولة:23912:0.012849
description^/><b>الله:117404:0.005636
description^/><b>بــــــشــــــرى</b><br:55728:0.005636
description^/><b>نزف:40616:0.005636
description^/><big><big>KaPo</big></big><br:12657:0.030191
description^/><br:183288:-0.004104
description^/><div:106494:0.007334
description^/><div><font:148517:0.009475
description^/><font:94860:-0.002814
description^/><font>:159716:0.003650
description^/><font>.</font></div>:33374:0.012849
description^/><font><b><font:32183:0.012849
description^/><font><b>سلسلة:151727:0.003650
description^/><font><br:59013:0.003650
description^/><font><img:222278:0.008843
description^/><font>أنشاد:229413:0.003551
description^/><font>الدروس</font><br:243201:0.001130
description^/><font>الصفحة:1571:0.006149
description^/><font>النشيد:104185:0.003850
description^/><font>اهداء:18244:0.003551
description^/><font>بدون:108111:0.012849
description^/><font>تقدم<br:134479:0.003650
description^/><font>تقـــدم:24640:0.012849
description^/><font>صفحة:260474:0.001130
description^/><font>كلمة:172912:0.000670
description^/><font>مؤسسة:145554:0.003650
description^/><font>مُؤسَّسةُ:227657:0.012849
description^/><font>هندسة:95828:0.003551
description^/><img:94263:0.031162
description^/><span:56134:0.031665
description^/><span>الجودة:193248:0.002726
description^/><strong><font:91270:0.004979
description^/><strong>{وَلِلَّهِ:182208:0.002726
description^/><strong>الدّولة:54814:0.002777
description^/><strong>شاعر:22172:0.001760
description^/>Al-'Itisam:102584:0.011982
description^/>Twitter.om/Abu_Sajda<br:56432:0.002505
description^/>httpCOLON//isdarat-tube.ml/ar/:6087:0.001031
description^/>httpsCOLON//issdarat.wordpress.com/<br:213068:0.008709
description^/>httpsCOLON//www.facebook.com/KaPois2<br:164056:0.030191
description^/>or:213292:-0.000389
description^/>twitterCOLON:256948:0.029965
description^/>أو:45869:0.006894
description^/>اسطوانات:69905:0.008293
description^/>اصدارات:181331:0.018431
description^/>اعداد:186155:0.024908
description^/>اقرأ:79002:0.001031
description^/>الاسطوانة:90502:0.002002
description^/>الاصدار:218244:0.013343
description^/>الجودة:79799:0.024774
description^/>الرد:30245:0.011001
description^/>الزويهد<br:154401:0.023494
description^/>الفرقان:74084:0.002002
description^/>تحميل:106087:0.009750
description^/>تقـدم<br:200583:0.013343
description^/>تقـــدم<br:13477:0.014104
description^/>جوال</span></span></span></span><br:204200:0.002726
description^/>حول:217044:0.010356
description^/>خطبة:116414:0.014104
description^/>رفع:164822:0.030191
description^/>صفحة:245550:0.002726
description^/>في:84575:0.006894
description^/>قائمة:225656:0.008293
description^/>كل:10463:0.008293
description^/>كلمة:185768:0.033310
description^/>للتواصل:29817:0.012638
description^/>للشيخ:97212:0.018989
description^/>لمزيد:243213:0.008709
description^/>مؤسسة:260066:0.021644
description^/>مجموعة:12042:0.008293
description^/>مع:143625:0.011001
description^/>من:57318:0.010356
description^/>موقع:181705:0.029964
description^/>نسأل:11035:0.010356
description^/>نشيد:206644:0.025849
description^/>والان:140060:0.008293
description^/>وعد:6483:0.020301
description^/>ولاية:164626:0.002726
description^/>يتناول:112144:-0.000851
description^/>يقدم:208000:0.005186
description^/الزبير:41700:0.001720
description^0:13676:0.004380
description^0%:158395:0.000179
description^0%;":116542:0.004953
description^0%;"><a:115236:0.003502
description^0);:210553:0.000127
description^0,:175644:0.000127
description^001:13677:-0.007202
description^002:13678:-0.005696
description^003:13679:-0.003726
description^004:13680:0.021861
description^005:13681:-0.005573
description^006:13682:-0.002844
description^007:13683:-0.005595
description^008:13684:-0.005696
description^009:13685:-0.005696
description^010:13686:-0.005696
description^011:13687:0.004056
description^012:13688:-0.005696
description^013:13689:-0.005696
description^014:13690:-0.004675
description^015:13691:-0.005696
description^016:13692:-0.005239
description^017:13693:-0.005696
description^018:13694:-0.005696
description^019:13695:-0.005696
description^020:13696:-0.005696
description^021:13697:-0.003922
description^022:13698:-0.005128
description^023:13699:-0.005696
description^024:13700:0.006261
description^025:13701:-0.005696
description^026:13702:-0.005696
description^027:13703:-0.014548
description^028:13704:-0.002844
description^029:13705:0.001130
description^03:13679:-0.003726
description^030:13706:0.001130
description^031:13707:0.001130
description^032:13708:0.001130
description^033:13709:-0.031325
description^034:13710:0.001620
description^035:13711:0.001130
description^036:13712:0.001130
description^037:13713:0.001796
description^038:13714:0.001130
description^039:13715:0.001130
description^04:13680:0.021861
description^040:13716:0.003438
description^041:13717:0.001130
description^042:13718:0.003438
description^043:13719:0.001130
description^044:13720:-0.025267
description^045:13721:0.001130
description^046:13722:0.001130
description^047:13723:0.001130
description^048:13724:-0.006922
description^049:13725:0.020017
description^05:13681:-0.005573
description^050:13726:0.027124
description^051:13727:0.001130
description^052:13728:0.001130
description^053:13729:0.001130
description^054:13730:0.001130
description^055:13731:0.001130
description^056:13732:0.001130
description^057:13733:0.001130
description^058:13734:0.001130
description^059:13735:0.001130
description^06:13682:-0.002844
description^060:13736:0.001130
description^061:13737:0.015610
description^062:13738:0.001130
description^063:13739:0.003549
description^064:13740:0.001130
description^07:13683:-0.005595
description^08:13684:-0.005696
description^09:13685:-0.005696
description^0px:62736:-0.033701
description^0px;:166730:0.000179
description^0px;"><a:80774:0.005879
description^0px;border-widthCOLON0px:144229:0.020642
description^0px;paddingCOLON5px:104658:0.014865
description^1:13677:-0.007202
description^1.pdf:193036:0.005245
description^10:13686:-0.005696
description^10211:23887:0.030302
description^10222:23898:0.004696
description^10229:23905:0.000867
description^10236:23912:0.012849
description^1033:14709:0.021588
description^1063:14739:0.000670
description^1068:14744:0.004446
description^1069:14745:0.000828
description^1089:14765:0.000670
description^10px:137253:0.005186
description^10px;widthCOLON30px;heightCOLON30px;"><img:175148:0.000219
description^11:13687:0.004056
description^11</span></b><span:90297:0.001720
description^11px:95464:0.000127
description^12:13688:-0.005696
description^120:13796:-0.008204
description^1200م:181263:0.000670
description^120km:195335:0.001760
description^1259:14935:0.000670
description^1282:14958:0.000670
description^13:13689:-0.005696
description^1319:14995:0.000670
description^1332:15008:0.000670
description^14:13690:-0.004675
description^1416:15092:0.002876
description^1433:15109:0.021187
description^1434:15110:0.002555
description^1434هـ:7433:0.002555
description^1435-ولاية:65885:0.010585
description^1435H<br:134176:0.001760
description^1436">:106579:0.018280
description^1436</h1><h1:176674:0.010511
description^1436</span></h1>:38221:0.018280
description^1436<div><br:6451:0.009598
description^1436هـ:208207:0.023588
description^1436هــ</div>:232992:-0.005872
description^1436هــ</div><div><br:141514:-0.028770
description^147:13823:0.002584
description^14785:28461:0.002568
description^14786:28462:0.002568
description^14787:28463:0.002568
description^14788:28464:0.002568
description^14789:28465:0.002568
description^14790:28466:0.002568
description^14791:28467:0.002568
description^14792:28468:0.002568
description^14793:28469:0.002568
description^14794:28470:0.002568
description^14795:28471:0.002568
description^14796:28472:0.002568
description^14797:28473:0.002568
description^14798:28474:0.002568
description^14799:28475:0.002568
description^14800:28476:0.002568
description^14801:28477:0.002568
description^14802:28478:0.002568
description^14803:28479:0.002568
description^14804:28480:0.002568
description^14805:28481:0.002568
description^14806:28482:0.002568
description^14807:28483:0.002568
description^14808:28484:0.002568
description^14809:28485:0.003498
description^14810:28486:0.002568
description^14811:28487:0.002568
description^14812:28488:0.002568
description^14813:28489:0.002568
description^14814:28490:0.002568
description^14815:28491:0.002568
description^14816:28492:0.002568
description^14817:28493:0.005641
description^14818:28494:0.002568
description^14819:28495:0.002568
description^14820:28496:0.002568
description^14821:28497:0.002568
description^14822:28498:0.002568
description^14823:28499:0.002568
description^14824:28500:0.002568
description^14825:28501:0.002568
description^14826:28502:0.002568
description^14827:28503:0.002568
description^14828:28504:0.002568
description^14829:28505:0.002568
description^14830:28506:0.002568
description^14831:28507:0.002855
description^14832:28508:0.002568
description^14833:28509:0.002568
description^14834:28510:0.002568
description^14835:28511:0.002568
description^14836:28512:0.002568
description^14837:28513:0.002568
description^14838:28514:0.002568
description^14839:28515:0.002568
description^14840:28516:0.002568
description^14841:28517:0.002568
description^14842:28518:0.002568
description^15:13691:-0.005696
description^15م:157402:0.000670
description^15م):106140:0.000670
description^16:13692:-0.005239
description^161:13837:0.000670
description^17:13693:-0.005696
description^17.3gp<br:225421:0.009519
description^18:13694:-0.005696
description^18-19:191956:0.027366
description^1843-:125809:0.000670
description^1865م:173153:0.000670
description^19:13695:-0.005696
description^1902:15578:0.000670
description^1914م:215957:0.000670
description^1<br:22381:0.002002
description^2:13678:-0.005696
description^2.14:16733:0.003456
description^2.pdf:223814:0.005285
description^20:13696:-0.005696
description^2005م:183150:0.004373
description^2008.pdf:143027:0.000332
description^2010:15686:0.011254
description^2014-02-28</center>:35745:0.019485
description^2015:15691:-0.009305
description^2015<br:36224:-0.006581
description^2016<br:3735:-0.005672
description^21:13697:-0.003922
description^22:13698:-0.005128
description^22.4:128615:0.011782
description^2260:15936:0.002584
description^23:13699:-0.005696
description^234:13910:0.000670
description^24:13700:0.006261
description^24.22:183146:0.003456
description^241.45:115512:0.012849
description^25:13701:-0.005696
description^255);:173688:0.000127
description^255,:112875:0.000127
description^26:13702:-0.005696
description^26.36:238444:0.003456
description^27:13703:-0.014548
description^270:13946:0.001760
description^28:13704:-0.002844
description^28px;:177895:0.000127
description^2</a></h1><p:116937:0.005879
description^2</div></div></div>:196915:0.005879
description^2</span></b><b><span:140051:0.001720
description^2<br:7859:0.002002
description^3:13679:-0.003726
description^3.pdf:237850:0.002568
description^30:13706:0.001130
description^30-10-1989---2<br:48624:0.001130
description^30-10-1989<br:240254:0.001130
description^300:13976:0.001760
description^33:13709:-0.031325
description^34:13710:0.001620
description^382:14058:0.000670
description^3847:17523:-0.005182
description^3848:17524:-0.005182
description^3849:17525:-0.005182
description^3850:17526:-0.005182
description^3851:17527:-0.005182
description^3852:17528:-0.005182
description^3853:17529:-0.005182
description^3854:17530:-0.005182
description^3855:17531:-0.005182
description^3856:17532:-0.005182
description^3857:17533:-0.005182
description^3858:17534:-0.005182
description^3859:17535:-0.005182
description^3860:17536:-0.005182
description^3<br:89047:0.002002
description^3COLON19:237636:0.017498
description^4:13680:0.021861
description^40:13716:0.003438
description^400px;:92126:0.000127
description^4078:17754:0.000867
description^4095:17771:0.002584
description^4103:17779:0.002381
description^4129:17805:-0.005872
description^41</b></div><div><b><br:73348:0.001377
description^42:13718:0.003438
description^43:13719:0.001130
description^45:13721:0.001130
description^455هـ=1063م_:18293:0.000635
description^456-597هـ:104851:0.000670
description^461.pdf:112859:0.002343
description^467:14143:0.000828
description^47:13723:0.001130
description^48:13724:-0.006922
description^482:14158:0.000670
description^49:13725:0.020017
description^490-552هـ:140051:0.001720
description^4</div>:87265:0.028620
description^4<br:240434:0.002002
description^4px:63465:0.000127
description^5:13681:-0.005573
description^50:13726:0.027124
description^5123:18799:0.026936
description^52يناير:87543:0.002559
description^5560:19236:0.000828
description^5678:19354:0.005234
description^5686:19362:-0.004862
description^5785:19461:-0.005182
description^5793:19469:-0.000385
description^5805:19481:0.010492
description^5806:19482:0.003456
description^5<br:139188:0.002002
description^5px;:169695:0.000127
description^5px;":161325:0.000127
description^5px;font-sizeCOLON14px;font-familyCOLONTahoma,:94970:0.005186
description^5px;margin-leftCOLON-22px;":134153:0.000127
description^5px;margin-leftCOLON-47px;":12041:0.000127
description^5px;paddingCOLON10px:204354:0.005186
description^5px;paddingCOLON5px:14250:-0.035066
description^6:13682:-0.002844
description^609:14285:0.000828
description^61:13737:0.015610
description^648:14324:0.000670
description^653:14329:0.000828
description^6<br:62985:0.002002
description^7:13683:-0.005595
description^70:13746:0.002568
description^716:14392:0.000828
description^72:13748:0.003469
description^720:14396:0.000828
description^728:14404:0.000635
description^729:14405:0.000635
description^730:14406:0.000635
description^731:14407:0.000635
description^732:14408:0.000635
description^733:14409:0.000635
description^734:14410:0.000635
description^735:14411:0.000635
description^736:14412:0.000635
description^737:14413:0.000635
description^738:14414:0.000635
description^739:14415:0.000635
description^740:14416:0.030734
description^741:14417:0.000635
description^742:14418:0.000635
description^743:14419:0.000635
description^744:14420:0.000635
description^745:14421:0.000635
description^746:14422:0.000635
description^747:14423:0.000635
description^748:14424:0.000635
description^749:14425:0.000635
description^750:14426:0.000635
description^751:14427:0.000635
description^752:14428:0.000635
description^753:14429:0.000635
description^754:14430:0.000635
description^755:14431:0.000635
description^756:14432:0.000635
description^757:14433:0.000635
description^758:14434:0.000635
description^759:14435:0.000635
description^760:14436:0.000635
description^761:14437:0.000635
description^762:14438:0.000446
description^763:14439:0.000635
description^764:14440:0.000635
description^765:14441:0.000635
description^766:14442:0.000635
description^767:14443:0.000635
description^768:14444:0.000635
description^769:14445:0.000635
description^770:14446:0.000635
description^771:14447:0.012923
description^772:14448:0.000635
description^773:14449:0.000635
description^774:14450:0.000635
description^775:14451:0.000635
description^776:14452:0.000635
description^777:14453:0.000635
description^778:14454:0.000635
description^779:14455:0.000635
description^7790:21466:0.043460
description^780:14456:0.000635
description^781:14457:0.000635
description^782:14458:0.000757
description^783:14459:0.000635
description^7<br:243427:0.002002
description^7px:203025:0.000335
description^8:13684:-0.005696
description^8-p:243823:0.000127
description^80px;:80053:0.000127
description^815:14491:0.000828
description^8335:22011:0.000828
description^8336:22012:0.000828
description^8337:22013:0.000828
description^8338:22014:0.000828
description^8339:22015:0.000828
description^8340:22016:0.000828
description^8341:22017:0.000828
description^8342:22018:0.000828
description^8343:22019:0.000828
description^8344:22020:0.000828
description^8345:22021:0.000828
description^8346:22022:0.000828
description^8347:22023:0.000828
description^8348:22024:0.000828
description^8349:22025:0.000828
description^8350:22026:0.000828
description^8351:22027:0.000828
description^8352:22028:0.000828
description^8353:22029:0.000828
description^8354:22030:0.000828
description^8355:22031:0.000828
description^8356:22032:0.000828
description^8357:22033:0.000828
description^8358:22034:0.000828
description^8359:22035:0.000828
description^8360:22036:0.000828
description^8361:22037:0.000828
description^8362:22038:0.000828
description^8363:22039:0.000828
description^8364:22040:0.000828
description^8365:22041:0.000828
description^8366:22042:0.000828
description^84:13760:0.009202
description^8454:22130:0.000670
description^8455:22131:0.000670
description^8456:22132:0.000670
description^8457:22133:0.000670
description^8458:22134:0.000670
description^8459:22135:0.000670
description^8460:22136:0.000670
description^8461:22137:0.000670
description^8462:22138:0.000670
description^8463:22139:0.000670
description^8464:22140:0.000670
description^8465:22141:0.000670
description^8466:22142:0.000670
description^8467:22143:0.000670
description^8468:22144:0.000670
description^8469:22145:0.000670
description^8470:22146:-0.001044
description^8471:22147:0.000670
description^8472:22148:0.000670
description^8473:22149:0.000670
description^8474:22150:0.000670
description^8475:22151:0.000670
description^8476:22152:0.000670
description^8477:22153:0.000670
description^8478:22154:0.000670
description^8479:22155:0.000670
description^8480:22156:0.000670
description^8481:22157:0.000670
description^8482:22158:0.000670
description^8483:22159:0.000670
description^8484:22160:-0.000631
description^883هـ:113072:0.000828
description^8<br:4034:0.002002
description^8px;":224500:0.000253
description^90:13766:-0.000363
description^923:14599:0.000670
description^9279:22955:-0.006202
description^9304:22980:-0.008399
description^9309:22985:0.018171
description^96:13772:0.002906
description^9679:23355:-0.001541
description^977:14653:0.000828
description^983:14659:-0.004862
description^984:14660:-0.004862
description^985:14661:-0.004862
description^986:14662:-0.004862
description^987:14663:-0.004862
description^988:14664:-0.004862
description^989:14665:-0.004862
description^990:14666:-0.004862
description^991:14667:-0.004862
description^992:14668:-0.004169
description^993:14669:-0.004862
description^994:14670:-0.004862
description^995:14671:-0.004862
description^996:14672:-0.004862
description^997:14673:-0.004862
description^998:14674:-0.004862
description^9هـ:255232:0.000947
description^</a>:222351:0.036397
description^</a><a:533:0.003502
description^</b><br:78545:0.007971
description^</b><div><p:219312:0.002555
description^</div>:204629:0.063397
description^</div></div><div:132434:0.000127
description^</div><div:93580:0.000179
description^</div><div>:3763:0.041980
description^</div><div>11-ردود:197054:0.005057
description^</div><div>12-شرح:206104:0.005057
description^</div><div>13-:136313:0.005057
description^</div><div>15:43222:0.005057
description^</div><div>16-:186441:0.005057
description^</div><div>17-مدوا:154336:0.005057
description^</div><div>21-الادلة:244605:0.005057
description^</div><div>3-مجاورة:40653:0.005057
description^</div><div>4-همسات:206639:0.005057
description^</div><div>7-كشف:41847:0.005057
description^</div><div><br:148532:0.071775
description^</div><div>اصدار:98823:0.028620
description^</div><div>الحجم:105171:0.017498
description^</div><div>المدة:110069:0.017498
description^</font>:254519:0.002260
description^</font></b><b><font:33728:-0.008399
description^</font></font><font:88012:0.001130
description^</font></font><span:26652:0.002478
description^</font><br:82299:0.012057
description^</font><font:21350:-0.010524
description^</h1>:133160:0.021437
description^</h1><div><br:169249:0.006719
description^</h1><h1:126265:-0.005182
description^</i></b></div><div><b><i>وهي:25734:0.004696
description^</i></b></div><div><b>أبو:189942:0.001377
description^</p>:225136:0.011982
description^</span>:186539:0.021238
description^</span></b><b><span:170301:0.004214
description^</span></p>:60782:-0.008399
description^</span></span></a>:9202:0.010752
description^</span></span></a></b></p><ul:115679:0.002555
description^</span></span></div></div><span:57337:0.000127
description^</span></span></span></span></span><div:173936:0.000127
description^</span></span></span></span><span:193090:0.000127
description^</span></span></span><div:66526:0.000127
description^</span></span></span><span:58848:-0.018851
description^</span></span><div:259280:0.000179
description^</span></span><span:163749:0.000310
description^</span></strong></h1>:104493:0.011982
description^</span><a:70007:0.028712
description^</span><br:173534:0.002726
description^</span><span:6270:0.001483
description^<a:31341:0.005794
description^<b>:207063:0.002555
description^<b><big><big><big>أم:80790:-0.038584
description^<b><font:250594:0.008843
description^<b><u><span:120238:0.001720
description^<b><u>الأرشيف:41268:0.001377
description^<b>كتاب:56592:0.009483
description^<big></big>:185618:0.017612
description^<big><big><big></big></big></big><br:187031:0.011001
description^<big><big><br:68930:0.011001
description^<big><big>جـميـع:161070:0.030191
description^<br:206467:0.058886
description^<center>:25561:0.027846
description^<div:131841:-0.007304
description^<div>:126102:0.000219
description^<div>(شروق:249169:0.017498
description^<div>1-عاشوراء</div><div>2-الشريعة:175376:0.005057
description^<div><b><i>جولة:78653:0.004696
description^<div><br:152680:0.003427
description^<div>السميعة:65517:-0.005872
description^<div>تقدم:68887:0.028620
description^<div>مؤسسة:12077:0.029760
description^<div>ولاية:113769:0.064586
description^<font:191869:0.001681
description^<font>ابو:10055:0.003551
description^<font>بسم:156424:0.003650
description^<font>سلامي:234090:0.003551
description^<font>عمر:4558:0.003551
description^<h1:260009:0.037551
description^<h1>التعددية:41002:0.015368
description^<h2:152205:0.015316
description^<h3:242000:0.001512
description^<img:168531:0.001130
description^<p:7228:-0.012304
description^<p>:244580:0.011982
description^<p><img:68276:0.011982
description^<span:36207:0.077745
description^<span>:52085:-0.008399
description^<strong>الموحدين</strong>:98378:0.002726
description^<strong>لحملة</strong>:55399:0.002726
description^=====================:131965:0.000332
description^========================:39654:0.002906
description^=============================:89696:0.002559
description^==============================:193853:0.002568
description^ABU:29028:0.007245
description^AL-GHURABA:56821:0.007245
description^ALL:200356:-0.005969
description^A_Catalogue_of_the_Arabic__Persian_and_H.pdf:136040:0.000332
description^Abbad,:184392:-0.004496
description^Abdul:53525:-0.011897
description^Ahmed:92677:-0.004496
description^Al:163151:-0.004496
description^Al-Ajmi.:44889:-0.004496
description^Al-Ghamdi:22438:-0.004496
description^Al-Otaibi:98707:0.000867
description^Al-Rabetah:156717:-0.018684
description^Alandorad<br:215154:-0.006837
description^Albanian:246176:-0.006837
description^Alborngalah:258450:-0.006837
description^Album:40299:0.002991
description^Allah:20735:0.001760
description^And:64509:0.002489
description^Arabic:91943:-0.006837
description^Arabic"><br:16552:0.012506
description^Arabic"><font:151888:0.007080
description^Arabic"><font>(</font><font>وَاللهُ:132637:0.008843
description^Arabic">للتحميل</font></b></font></font><br:163915:0.008843
description^Arabic';colorCOLON#000000;":255974:0.005160
description^Arabic';colorCOLON#0000FF;":173386:0.003441
description^Arabic';colorCOLON#FF0000;":254621:0.001720
description^Archive:74131:0.000127
description^Archive's:79494:0.000127
description^Arial,:83869:0.009900
description^Arial;:216268:0.000127
description^Assalaamu:206014:0.002991
description^Ayat--1__2016</font></font></font></font><br:247778:-0.006202
description^Ayat--1__2016<br:237759:-0.006202
description^Ayub:159687:-0.004496
description^BETA:146952:-0.001203
description^BETA<br:251727:-0.008191
description^Batt</font><font:178998:0.001760
description^Bengali:222653:0.015059
description^Bibliotheca_Marsdeniana_philologica_et_o.pdf:37936:0.000332
description^Black"><font:69661:-0.008256
description^Bosnian:47311:-0.006837
description^Buffer"><span:116359:0.000127
description^But:8946:0.001760
description^CANADA</h2><div><br:72988:0.007245
description^CGG:28458:0.019599
description^CHOSEN:73716:0.007245
description^CNN:232025:0.007229
description^COLON:33420:0.032825
description^COLON</font>:88882:0.029310
description^COLON</font><br:101608:0.012849
description^COLON</font><span:100231:0.002478
description^COLON</strong></font></strong><br:147968:0.001760
description^COLON</strong><br:102299:0.001760
description^COLON<br:141716:0.008886
description^COLONCOLON:164369:0.015437
description^COLONCOLON<br:190898:0.013343
description^COLONCOLONCOLONCOLONCOLONCOLONCOLONCOLONCOLON:98034:0.012849
description^COLONCOLONCOLONCOLONCOLONCOLONCOLONCOLONCOLON<br:180228:0.012849
description^COLONCOLONCOLONCOLONرايته:200641:0.009200
description^COLONCOLONرزيز:215278:0.011479
description^Calibri,:215759:0.007334
description^Cantlie:251156:0.007355
description^Cheikh:232318:-0.004496
description^Chinese<br:261428:-0.006837
description^City,:212805:0.001760
description^Click:261345:-0.018092
description^Coran:88883:-0.004496
description^Coran.:163167:-0.004496
description^Corán.:237369:-0.004496
description^Corão.:122237:-0.004496
description^DIFFERENT:142450:0.007245
description^DNSال:232214:0.006894
description^DOWNLOAD:105764:-0.000851
description^DOWNLOAD<br:103706:-0.005791
description^De:38379:-0.004496
description^Defiant":74674:0.011982
description^Defiant</h1>:9890:0.011982
description^Der:139088:-0.004496
description^Des:9504:-0.004496
description^Desert:210198:0.001760
description^Dios:64798:-0.004496
description^Do:92145:-0.004496
description^Dollars:207313:0.027366
description^Dr.:138464:0.002568
description^Dutch:237086:-0.006837
description^EXIT:104422:-0.005969
description^Ears:23754:0.005879
description^Eastern:211137:0.001760
description^El:74382:-0.004496
description^English:202837:-0.006837
description^Episode:127182:0.005879
description^Examples:121797:0.000127
description^FEW:101455:0.007245
description^FILES:28122:-0.000851
description^FILES<br:54157:-0.005791
description^FROM:166151:0.007245
description^Faris:44656:-0.004496
description^Favoured:169855:0.001760
description^Field</font></strong><br:245360:0.001760
description^Firqat:179296:0.002991
description^For:54359:0.027366
description^French:126370:-0.006837
description^Furqlus,:26548:0.001760
description^Gas:225896:0.001760
description^Geneva,:87308:0.007334
description^Gesandte:135431:-0.004496
description^Ghiman:253562:0.000867
description^Gothic';colorCOLON#0000FF;">:242523:0.001720
description^Gothic';colorCOLON#0000FF;"><br:257667:0.001720
description^Gothic';colorCOLON#0000FF;"><span:225736:0.001720
description^Grande',:68639:-0.023213
description^HTTPS:65114:-0.001203
description^HTTPS<br:79656:-0.006498
description^Hausa<br:131434:-0.006837
description^Hayyan:192968:0.001760
description^Heilige:122861:-0.004496
description^Heiligen:96278:-0.004496
description^Help</div></div></div><div:42980:0.000127
description^Helvetica,:108217:0.038730
description^Here<br:157132:-0.006837
description^Homs:8278:0.003049
description^IS:68777:0.019163
description^ISI:63997:0.004373
description^ISIS:54128:0.007355
description^Icon--dots":156140:0.000920
description^Icon--favorite":238914:0.002838
description^Icon--mediaplay":242339:0.000920
description^Icon--reply":208880:0.002838
description^Icon--retweet":69641:0.002838
description^Indian:113769:0.064586
description^Indonesian:98401:-0.006837
description^Internet:245723:0.000179
description^Interpretation:244008:-0.006837
description^Iraq.:40124:0.007355
description^Islam,:213830:-0.004496
description^Islam.:32216:-0.010054
description^Islamic:247654:0.002041
description^Islã.:201831:-0.004496
description^It:126101:0.000127
description^Italian:217924:-0.006837
description^JIHAD</a></h2>:74965:0.019163
description^JavaScript:134630:0.000127
description^Jibril,:164472:-0.004496
description^Jihadi:204017:0.009334
description^John:227250:0.007355
description^KKK:215596:0.009185
description^Kalim:155050:-0.005182
description^Kerim.:27205:-0.004496
description^Khalifa:208804:-0.004496
description^Koran:187460:-0.012276
description^Koran.:129446:-0.004496
description^Kur'an-ı:159850:-0.004496
description^Kurdish:15348:-0.006837
description^Kutsal:160180:-0.006359
description^LANDS:22635:0.007245
description^LIFE:238688:0.019163
description^Le:237599:-0.004496
description^Linux<br:166460:-0.006837
description^Lucida:226909:-0.006837
description^MB:126252:0.019828
description^MB</b></font></font></font><font:66080:0.008843
description^MB</b><br:95052:0.007301
description^MB</span><br:188964:0.002726
description^MB<br:87680:0.013186
description^MD5COLON:91560:0.012849
description^MP3:100605:0.017590
description^MUSLIM:207418:0.007245
description^Mac<br:192322:-0.006837
description^Makki:186090:-0.004496
description^Malayalam:77296:-0.006837
description^Mashary,:218191:-0.004496
description^Mb</font></b><br:137548:0.000635
description^Me:185131:0.005879
description^Media:257053:0.013184
description^Mensageiro:28173:-0.004496
description^Mensajero:148905:-0.004496
description^Messager:256774:-0.004496
description^Methodology</span>:94410:0.002478
description^Mohammed:24739:-0.006197
description^Mosul,:249348:0.007355
description^Muhammad:176487:-0.010054
description^Muhammed:30549:-0.004496
description^NO:185982:0.019163
description^Nasheed:104766:0.002991
description^Neue"><br:78367:-0.006176
description^Neue"><font:64976:-0.008771
description^Neue',:111172:0.038468
description^New:122424:0.022616
description^New"><font><b><b>:169634:0.001130
description^Nusayri:17256:0.052127
description^Nusayris;:173765:0.001760
description^O:28112:-0.004496
description^OF:25636:0.007245
description^OZOOO:118873:0.004373
description^Office<br:7070:0.001760
description^Omar:5156:-0.004496
description^One',:196445:0.020642
description^Or<br:149890:-0.001211
description^PIPE:26465:-0.017901
description^PIPE</font>~</font></font><br:162479:0.008843
description^PIPEPIPE:97899:0.004888
description^PIPE̲̲̲͡͡͡:117623:0.003654
description^PIPE﻿:32925:0.004757
description^PaltalkCOLON:104261:0.004373
description^Planning,:68579:-0.005969
description^Please:203799:0.000127
description^ProfileTweet-action--favorite:247292:0.002838
description^ProfileTweet-action--more:201842:0.000920
description^ProfileTweet-action--reply":221209:0.002838
description^ProfileTweet-action--retweet:214886:0.002838
description^ProfileTweet-actionCount--isZero":27117:0.002838
description^Program:175027:-0.006837
description^Progress"><span:140803:0.000219
description^Propaganda:32737:0.007355
description^Prophetic:88772:0.002478
description^Quran:28906:-0.004496
description^Quran.:157997:-0.004496
description^Rahman:156929:-0.011897
description^Raid:44615:0.001760
description^Rail"><span:228473:0.000219
description^Ramadhan:18882:0.001760
description^Rasul:93799:-0.004496
description^Report:172298:0.002489
description^Resolve:81770:0.016944
description^Roman';">:29581:-0.018858
description^Russian:90376:-0.006837
description^SEE:13846:-0.005969
description^SIF<br:112144:-0.000851
description^Saad:8198:-0.004496
description^Sacré:161896:-0.006359
description^Sagrado:93288:-0.006359
description^Saif:133545:0.000867
description^Sans:157321:-0.001172
description^Saud:255368:-0.004496
description^Sayegh.:179649:-0.004496
description^Scholars:191956:0.027366
description^Sha'er:80275:0.001760
description^Sha'er</font></font></font></strong><br:149293:0.001760
description^Sheikh:234278:-0.008992
description^Somali:221627:-0.006837
description^Sound:48994:-0.006837
description^Southern:49714:0.001760
description^Spanish:202574:-0.006837
description^State:1789:0.002478
description^State,:187870:0.001760
description^Suci:50502:-0.006359
description^Sudais:221518:-0.004496
description^Swahili:149497:-0.006837
description^Swedish:227370:-0.006837
description^THE:201463:0.007245
description^THERE:155056:0.019163
description^TMAC:113152:0.006894
description^Tahoma,:13228:0.022752
description^Tamil:193708:-0.006837
description^Tawfiq:257038:-0.004496
description^Thai:216680:-0.006837
description^The:189889:-0.013208
description^TmUSLEm</a></font></b></font></font><br:247436:-0.008399
description^Tunaiji:39039:-0.004496
description^Turkish:36529:-0.006837
description^Unicode',:230518:-0.035066
description^Urdu-Persian:197216:-0.006837
description^Uzbek:144508:-0.006837
description^VBR:41202:-0.009962
description^Verdana,:256407:0.027900
description^Video</div></div></div><div:133845:0.000127
description^Video</div><div:256291:0.000127
description^Videos</div></div></div></div><span:71194:0.000127
description^Videos</div><div></div></div><div><div:236732:0.000127
description^WITHOUT:160870:0.019163
description^Wilaayat:114305:0.001760
description^Windows<br:116903:-0.009668
description^Written:114708:-0.006837
description^Your:225413:0.005879
description^ZIP:114564:-0.001203
description^ZIP<br:90760:-0.007775
description^Zionist:242547:0.002555
description^Zionists:16656:0.001031
description^[:156717:-0.018684
description^[الحج:76245:0.001720
description^\:222665:0.026066
description^_:26195:0.002343
description^_____:79947:-0.011986
description^_________________:251040:0.009200
description^_السلام:256234:0.009200
description^a:7059:0.004658
description^a3maque:130987:0.003872
description^aaljabha</a>:152853:0.021187
description^aaljabhaa_en</a>:86546:0.021187
description^able:232406:0.001760
description^aboaishahbagdad<br:44512:0.005636
description^absolute;:224996:0.000127
description^adalah:221767:-0.004496
description^addition:53446:0.001760
description^admitted:224401:0.001760
description^after:104719:0.002489
description^al:210879:-0.004496
description^al-Faniyah:40359:0.002991
description^al-Makki:4410:-0.008992
description^al-Rawabi:252838:0.002991
description^al-Sha'bi:218362:0.002991
description^al-Shuraim,:207978:-0.004496
description^alaykum:252173:0.002991
description^align="center":85848:0.002980
description^align="center">:201200:-0.008399
description^align="center"><b>شاعر:32054:0.005636
description^align="center"><font:108846:0.001323
description^all:123310:-0.008554
description^also:224656:0.003368
description^alt="":137145:0.034385
description^alt="/":70836:0.001720
description^alt="B1DfBtVCAAAvABf.jpgCOLONlarge":112828:0.003502
description^alt="BzsAEBeCYAANcw8.png":148831:0.005186
description^alt="BzsAENjCQAAsQV-.png":169279:0.005186
description^alt="BzsAR09CIAAayKG.png":134943:0.005186
description^alt="BzsAR_eCEAADeks.png":202713:0.005186
description^alt="Mzs+bxYYFAAAAABJRU5ErkJggg==":67005:0.000127
description^alt="Permalien:64405:0.009871
description^alt="The:247975:0.011982
description^alt="image":171958:0.003855
description^an:67799:0.001760
description^and:232761:-0.012727
description^any:250412:-0.009743
description^appears:25759:0.000127
description^arabic';"><font:172432:0.001773
description^arabic';"><span:4613:0.014163
description^area:37237:0.003049
description^area,:86565:0.001760
description^areas,:229368:0.001760
description^areas.:205530:0.001760
description^arial,:111266:0.020301
description^as:5430:0.001760
description^at:138474:0.008850
description^aux:190161:0.002838
description^away:178827:0.001760
description^ayat:73260:-0.005672
description^ayat<br:35328:-0.005672
description^backgroundCOLON:28891:0.000127
description^barracks.:138558:0.001760
description^barriers:218124:0.001760
description^battle,:243899:0.001760
description^battles:33169:0.001760
description^be:44120:0.000127
description^being:4163:0.001760
description^biggest:42381:0.001760
description^bin:111692:0.001226
description^book:130254:-0.009403
description^border="0":12153:0.036862
description^borderCOLON:126245:0.000127
description^both:44477:0.001760
description^box-shadowCOLON:161245:0.000127
description^brothers:9992:0.001760
description^brothers,:14475:0.001760
description^browser:218144:0.025113
description^by_qadimoun:133816:0.019051
description^called:249742:-0.006837
description^can:144427:-0.005672
description^carrying:220939:0.001760
description^centre:244612:0.001760
description^civile:68689:-0.004496
description^civis:198768:-0.004496
description^claimed:242757:0.001760
description^class="CardContent":82090:0.005879
description^class="ContextualLink:15932:0.000920
description^class="Description":135269:0.005879
description^class="Icon:134652:0.005219
description^class="MsoListParagraph":93357:-0.018858
description^class="MsoNormal":194638:0.004147
description^class="PlayerCard"><h1:145776:0.005879
description^class="ProfileTweet-action:252622:0.005070
description^class="ProfileTweet-actionCount:130005:0.002838
description^class="ProfileTweet-actionCountForAria:256556:0.004917
description^class="ProfileTweet-actionList:110295:0.002838
description^class="ProfileTweet-contextualLink:248197:0.000920
description^class="ProfileTweet-text:250087:0.002838
description^class="Section1":185306:0.001720
description^class="Title":137467:0.005879
description^class="capLeft"></div><div:90223:0.000127
description^class="capRight"></div><div:30167:0.000127
description^class="card2:240204:0.000920
description^class="card2-attribution:13858:0.000920
description^class="card2-profile-link:233475:0.000920
description^class="content":49098:0.005186
description^class="content"><font:201885:-0.004237
description^class="current">“رد:190310:0.020355
description^class="divider"></div><div>:25587:0.000219
description^class="dropdown"><span:22254:0.000920
description^class="file">ابن:217284:0.021238
description^class="file">جديد:164760:0.009519
description^class="invisible":79652:0.020620
description^class="is-preview:224195:0.000920
description^class="js-tweet-details-fixer:135392:0.000920
description^class="jwarrow"></div><div:98822:0.000335
description^class="jwaspect"></span><span:5031:0.000127
description^class="jwback"></div><div:220913:0.000335
description^class="jwbackground">:3553:0.000127
description^class="jwblankDivider"></span></span><span:111973:0.000219
description^class="jwblankDivider"></span><span>:73668:0.000253
description^class="jwborder:61969:0.000948
description^class="jwcapLeft">:4399:0.000127
description^class="jwcapRight">:117793:0.000127
description^class="jwcaptions"><div:126714:0.000127
description^class="jwcc:258875:0.000127
description^class="jwclick"><div:180334:0.000127
description^class="jwclick_item">this:240151:0.000127
description^class="jwcontents"><div:126682:0.000179
description^class="jwcontents"><div><div></div><div:56429:0.000127
description^class="jwcontents"><div>Embedding:170405:0.000127
description^class="jwcontents"><div>Related:138305:0.000127
description^class="jwcontents"><div>Share:187529:0.000127
description^class="jwcontents"><span:19545:0.000127
description^class="jwcontrolbar"><span:210737:0.000127
description^class="jwcontrols"></span></span><div:54185:0.000127
description^class="jwdisplay"><div:88224:0.000127
description^class="jwdisplayIcon"><div:138214:0.000127
description^class="jwdock"><div:85069:0.000127
description^class="jwdockbuttons"><div:219142:0.000127
description^class="jwfullscreen:4521:0.000127
description^class="jwgroup:130697:0.000219
description^class="jwhd:165928:0.000127
description^class="jwicon"></div></div></div><div:11082:0.000127
description^class="jwinstream"></span><div></div><div><div:93995:0.000127
description^class="jwlist":214628:0.000127
description^class="jwmain"><span:198572:0.000127
description^class="jwmenu"></div></div></div><span:221444:0.000179
description^class="jwmute"><span:220777:0.000127
description^class="jwnext:240952:0.000127
description^class="jwoverlay"><div:170433:0.000335
description^class="jwplay:108513:0.000127
description^class="jwplayer:159885:0.014208
description^class="jwplaylistcontainer"></span></div><div:79357:0.000127
description^class="jwprev:78506:0.000127
description^class="jwpreview:111000:0.000127
description^class="jwprogressOverflow"><span:103246:0.000179
description^class="jwrail:219494:0.000219
description^class="jwrailgroup:155745:0.000335
description^class="jwrow:50140:0.000127
description^class="jwslider:159096:0.000219
description^class="jwtext:203497:0.000219
description^class="jwtext">N38-1</div><div:205844:0.000127
description^class="jwtimeSliderBuffer">:175315:0.000127
description^class="jwtimeSliderBufferCapLeft">:86279:0.000127
description^class="jwtimeSliderBufferCapRight:243715:0.000127
description^class="jwtimeSliderCapLeft">:39987:0.000127
description^class="jwtimeSliderCapRight">:175953:0.000127
description^class="jwtimeSliderProgress">:204821:0.000127
description^class="jwtimeSliderProgressCapLeft">:162972:0.000127
description^class="jwtimeSliderProgressCapRight:52824:0.000127
description^class="jwtimeSliderRail">:92515:0.000127
description^class="jwtimeSliderRailCapLeft">:209034:-0.004735
description^class="jwtimeSliderRailCapRight:122075:0.000127
description^class="jwtimeSliderThumb:130570:0.000127
description^class="jwvideo"></span><span:44881:0.000127
description^class="jwvolumeCapBottom:65618:0.000127
description^class="jwvolumeCapTop">:29758:0.000127
description^class="jwvolumeHCapLeft">:121572:0.000127
description^class="jwvolumeHCapRight">:205529:0.000127
description^class="jwvolumeHProgress">:172141:0.008295
description^class="jwvolumeHProgressCapLeft">:65122:0.000127
description^class="jwvolumeHProgressCapRight:146013:0.000127
description^class="jwvolumeHRail">:198305:0.000127
description^class="jwvolumeHRailCapLeft">:112806:0.000127
description^class="jwvolumeHRailCapRight:28612:0.000127
description^class="jwvolumeProgress">:156231:0.000127
description^class="jwvolumeProgressCapBottom:212616:0.000127
description^class="jwvolumeProgressCapTop">:176976:0.000127
description^class="jwvolumeRail">:107744:0.000127
description^class="jwvolumeRailCapBottom:8016:0.000127
description^class="jwvolumeRailCapTop">:127163:0.000127
description^class="jwvolumeThumb:222462:0.000127
description^class="media-preview-container"><div:222638:0.000920
description^class="movies">:41595:0.000127
description^class="n">1</div><div:100713:0.000127
description^class="post-title":97066:-0.003044
description^class="postcontent:227490:0.005186
description^class="posttitle:35214:0.005186
description^class="roundbox5">:12372:0.001768
description^class="st"><span:13664:0.037828
description^class="tco-ellipsis"></span><span:227748:0.011904
description^class="tco-ellipsis"><span:253431:0.011904
description^class="threadtitle":223900:0.003502
description^class="title":76251:0.016145
description^class="tm">09COLON53</div><div:109146:0.000127
description^class="tm">14COLON43</div><div:223855:0.013805
description^class="ttl">N38-1</div></div></div>:99187:0.000127
description^class="twitter-hashtag:210331:0.010913
description^class="twitter-timeline-link":169285:0.011904
description^class="u-hiddenVisually":170051:0.001593
description^class="u-isHiddenVisually":132817:0.008180
description^class="u-textInherit:110321:0.005879
description^class="u-textInheritAll:227057:0.005879
description^class="util-align-middle:163857:0.000920
description^class="util-link-complex-target:158138:0.000920
description^class="visuallyhidden":84890:0.000920
description^class="watch-title:125316:0.018280
description^class="watch-title":209726:0.020118
description^class="x-archive-meta-description"><font:192604:-0.004237
description^class="yt:5226:0.030521
description^cleansing:225691:-0.007565
description^code":10944:0.000127
description^color="#000000"><font>:17955:0.008843
description^color="#000080">:167446:-0.008399
description^color="#000080"><a:71073:-0.016798
description^color="#000080"><font:39940:-0.008399
description^color="#0000CD"><font:129134:-0.016411
description^color="#0000FF">:99067:-0.008399
description^color="#0000FF">Pictorial:39074:0.001760
description^color="#0000FF">le:165387:0.001760
description^color="#0000FF">لا:40563:-0.008399
description^color="#0000ff"><strong>تقرير:161794:0.001760
description^color="#008000"><font>الجودة:252076:0.000828
description^color="#FF0000"><a:114133:-0.008399
description^color="#FF0000">E-mailCOLON:201731:-0.008399
description^color="#FF0000">FacebookCOLON</font><font:111538:-0.008399
description^color="#FF0000">TwitterCOLON:180640:-0.008399
description^color="#FF0000">YoutubeCOLON:235071:-0.008399
description^color="#FF0000">skypeCOLON:81081:-0.008399
description^color="#FF0000">من:165668:-0.008399
description^color="#FF00FF">:189960:-0.011878
description^color="#FF00FF">أخاكم</font></b><b><font:177884:-0.008399
description^color="#a52a2a"><font:207144:-0.010743
description^column:168916:0.002489
description^completing:207419:0.001760
description^computer:141971:-0.006837
description^containing:56440:0.003240
description^control:38597:0.002489
description^copy:102802:-0.006837
description^corpses:256921:0.001760
description^countryside,:148958:0.001760
description^dashed:107733:0.000127
description^de:55269:-0.004961
description^dead.</strong><br:96583:0.001760
description^delighted:47536:0.020642
description^dem:112129:-0.004496
description^depan:116810:-0.004496
description^der:46800:-0.004496
description^des:103948:-0.004496
description^destroyed:239831:0.001760
description^detainee</a></p><div>اعيروني:174840:0.005879
description^di:215832:-0.004496
description^did:82371:0.001760
description^dir="ltr":179716:-0.005944
description^dir="ltr"></span>:236677:0.003441
description^dir="ltr"></span>-":200403:0.001720
description^dir="ltr"></span>...</span></b>:143801:0.001720
description^dir="ltr"></span>.</span></b><b><span:173973:0.001720
description^dir="ltr"></span><b><span:95635:0.004866
description^dir="ltr"></span><span:63351:0.006881
description^dir="ltr"></span>]</span></b><b><span:150692:0.001720
description^dir="rtl":250030:0.001809
description^dir="rtl">:80875:0.001720
description^dir="rtl"></span><span:146935:-0.018858
description^dir="rtl">ولاية:61299:0.037828
description^directory:122143:-0.000851
description^directory<br:17045:-0.005791
description^diverse:125023:-0.006837
description^do:259500:-0.006359
description^does:211978:0.000127
description^download:70176:-0.017868
description^du:5821:-0.004496
description^during:81027:0.001760
description^e18bd7d784d7a63cb2509ed478bafc42:224143:0.012849
description^efforts),:42906:0.001760
description^el:104411:-0.004496
description^el-Mekkî:77214:-0.004496
description^elçisidir.:4650:-0.004496
description^en:82695:-0.004496
description^enabled.:179512:0.000127
description^es:160359:-0.004496
description^escaped:255713:0.061939
description^est:239576:-0.004496
description^et:149000:0.001912
description^face:236502:-0.004496
description^face="Arial:22071:-0.008256
description^face="Arial"><br:67522:0.008843
description^face="Arial"><font:90528:-0.007339
description^face="Arial">show:234162:-0.006202
description^face="Arial">zip</font></font><br:22955:-0.006202
description^face="Arial">بالضغط:243726:-0.006202
description^face="Arial">بسم:175324:0.008843
description^face="Arial">ستجدها:26688:-0.006202
description^face="Arial">من:13348:-0.006202
description^face="Arial">وعندما:36180:-0.006202
description^face="Arial">يمكنك:210513:-0.006202
description^face="Courier:249767:0.001130
description^face="Helvetica:64438:-0.010743
description^face="Simplified:98627:0.019772
description^face="Tahoma">:79515:-0.004237
description^face="Tahoma"><a:192342:-0.004237
description^face="Tahoma"><br:128113:-0.005011
description^face="Tahoma"><font:244544:-0.006079
description^face="Tahoma">اليكم:38400:-0.004237
description^face="Tahoma">تم:155686:0.001130
description^face="Tahoma">عبد:3654:0.009292
description^face="Tahoma">لكل:194948:0.001130
description^face="Tahoma">للتيسيير<br:44420:0.001130
description^face="Tahoma">للشهيد</font></b></b>:189590:0.001130
description^face="Tahoma">للعلم</font></b></b>:229235:0.001130
description^face="Tahoma">معظم:246775:0.001130
description^face="Tahoma">والحمد:222310:0.001130
description^face="Tahoma">واليكم:98886:-0.002860
description^face="Tahoma">وتم:150360:0.001130
description^face="Tahoma">وغير:247322:0.001130
description^face="Tahoma">ولاول:56362:0.001130
description^face="Tahoma">ومن:87534:-0.004237
description^face="Tahoma">وهذا:98937:0.001130
description^face="Traditional:139303:0.005304
description^fate:113198:0.001760
description^favoris</span><div><br:100113:0.000920
description^favoris</span><span:84732:0.002555
description^feature.:215986:0.054011
description^feeds:44906:0.001760
description^field:253219:0.002489
description^fields:205886:0.001760
description^file</font></font><br:3675:-0.006202
description^flash,:103731:0.000127
description^flash?</a>:21603:0.000127
description^fois:212201:0.002838
description^fois":163450:0.002838
description^fois</span><span:37432:0.004015
description^fontCOLON:193893:0.000127
description^for:40477:-0.004905
description^forces,:171819:0.001760
description^formats,:25104:0.000127
description^free:2061:-0.006837
description^frente:175889:-0.004496
description^from:234952:0.000010
description^futile:253306:0.001760
description^gas:239205:0.002489
description^go:138264:-0.006837
description^gone:110051:0.000127
description^greatest:117196:0.001760
description^hacked_isis<br:50720:0.025719
description^half:183241:0.000867
description^has:86399:0.001768
description^have:241641:0.000179
description^heavy:32261:0.001760
description^height="100":105414:0.001720
description^height="18":199988:0.000920
description^heightCOLON:50032:0.000127
description^here:41689:-0.018092
description^hindrance:72762:0.001760
description^horribly:49272:0.000127
description^hostage:113216:0.007355
description^hotmail.com:14119:0.004373
description^hours,:151797:0.001760
description^href="/details/nwfdh38":57354:0.000127
description^href="httpCOLON//5o9j3g.1fichier.com/":62176:0.012849
description^href="httpCOLON//filerio.in/48iv6w0x33n9":86292:0.017886
description^href="httpCOLON//hipfile.com/11xqc0py8j5r":178877:0.012849
description^href="httpCOLON//quran.ksu.edu.sa/ayat/?l=ar":233758:-0.007293
description^href="httpCOLON//quran.ksu.edu.sa/ayat/android/":179116:-0.000707
description^href="httpCOLON//quran.ksu.edu.sa/ayat/ios/":177780:-0.007293
description^href="httpCOLON//rabie3-alfirdws-ala3la.net/vb/":148628:-0.005851
description^href="httpCOLON//rawdatelquran.net/vb/index.php":33131:-0.005851
description^href="httpCOLON//sendvid.com/h848guam":243565:0.002726
description^href="httpCOLON//sendvid.com/j02pc4t0":197862:0.002726
description^href="httpCOLON//t.co/8RqnotaE1p":59503:0.000920
description^href="httpCOLON//t.co/8qNkyeXmt9":62456:0.005636
description^href="httpCOLON//t.co/MkMM7dpQDi":17293:0.002555
description^href="httpCOLON//t.co/e0eYQC7a1n":234382:0.005636
description^href="httpCOLON//t.co/yBRjaWfvBR":176037:0.010585
description^href="httpCOLON//turbobit.net/0j9kxq17fh7t.html":9918:0.012849
description^href="httpCOLON//turbobit.net/s75f7g7bc6j3.html":245842:0.012849
description^href="httpCOLON//uptobox.com/ir17il6uq63f":156318:0.012849
description^href="httpCOLON//www.almaqreze.net/ar/index.php":49525:0.001458
description^href="httpCOLON//www.fileflyer.com/view/CGlXPCo":170014:0.001458
description^href="httpCOLON//www.gulfup.com/?0uYrv7":220695:0.008843
description^href="httpCOLON//www.gulfup.com/?H9cqzM":225931:0.002726
description^href="httpCOLON//www.gulfup.com/?TUQHUF":238683:0.002726
description^href="httpCOLON//www.gulfup.com/?U7ujS7":3693:0.002559
description^href="httpCOLON//www.gulfup.com/?XB9N5F":10790:0.002726
description^href="httpCOLON//www.gulfup.com/?oaoOn1":110750:0.002726
description^href="httpCOLON//www.paltalk.com/unidownload/":243736:0.001760
description^href="httpCOLON//www.safeshare.tv/w/dzOTmMRave":160671:0.003650
description^href="httpCOLON//www.youtube.com/user/muslem28":207120:-0.008399
description^href="httpCOLON//youtu.be/N5gLP0BWh-c":109241:0.005636
description^href="httpCOLON//youtu.be/xnRBRTkLrds":70739:0.008843
description^href="httpsCOLON//isdarat.org/1533":91749:0.019163
description^href="httpsCOLON//t.co/f1qACbuf08":25114:0.008313
description^href="httpsCOLON//twitter.com/TmUSLEm":102793:-0.008399
description^href="httpsCOLON//twitter.com/YouTube":53429:0.000920
description^href="httpsCOLON//twitter.com/aaljabha":236139:0.021187
description^href="httpsCOLON//twitter.com/aaljabhaa_en":15843:0.021187
description^href="httpsCOLON//twitter.com/ajnad_":231516:0.008843
description^href="httpsCOLON//twitter.com/alsaqeel":124190:0.003551
description^href="httpsCOLON//twitter.com/e3tasimo":60544:0.003650
description^href="httpsCOLON//twitter.com/iaha2014/media":56563:0.000920
description^href="httpsCOLON//www.facebook.com/Alsaqeel":93667:0.003551
description^href="httpsCOLON//www.facebook.com/Islamictape":99885:-0.008399
description^href="httpsCOLON//www.youtube.com/user/alsaqeel":103207:0.003551
description^href="mailtoCOLONalfirdwsiy1433:225045:-0.005791
description^html5:171824:0.000127
description^httpCOLON//124.217.249.19/~asansar/vb:256993:0.010898
description^httpCOLON//202.149.72.131/~shamikh/vb:74724:0.010898
description^httpCOLON//J.mp/Klmt-Haq:185645:0.002584
description^httpCOLON//J.mp/Klmt_Haq:71211:0.002584
description^httpCOLON//J.mp/Thmel:81166:0.002584
description^httpCOLON//alhezabr.110mb.com/openfaloja.htm:14039:0.002096
description^httpCOLON//hezabr.blogspot.com/:125876:0.002096
description^httpCOLON//www.1proxy.de/<br:96966:0.012638
description^httpCOLON//www.atahadi.com/vb/index.php:118004:0.010898
description^httpCOLON//www.badongo.com/vid/2098847:146107:0.003456
description^httpCOLON//www.kt-b.com/index.htm:128581:0.002906
description^httpCOLON//www.mail2tor2zyjdctd.onion/<br:5254:0.012638
description^httpCOLON//www.rxproxy.com/<br:87279:0.012638
description^httpCOLON//www.youtube.com/aldarayn:18449:-0.025597
description^httpCOLON//www.youtube.com/watch?v=fmxMIOqyRT4:247836:-0.010314
description^httpsCOLON//archive.org/details/Rasail-21:207696:0.009185
description^httpsCOLON//justpaste.it/q6d7:128675:0.021338
description^httpsCOLON//twitter.com/Media_Wolf6<br:32301:0.012638
description^httpsCOLON//www.dnsleaktest.com<br:230926:0.006894
description^httpsCOLON//www.shamikh1.net/vb:48876:0.010898
description^httpsCOLON//www.torproject.org/<br:102087:0.012638
description^httpsCOLON//www.yandex.com/<br:27120:0.012638
description^huge:195922:0.001760
description^iPad<br:238203:-0.006837
description^iPhone:146289:-0.006837
description^icon":216492:0.005186
description^image:226909:-0.006837
description^importance:91588:0.001760
description^important:119989:0.002489
description^in:123106:0.003936
description^in-browser:21180:0.000127
description^inflicted:165155:0.001760
description^interpretations<br:109657:-0.006837
description^into:79534:-0.009565
description^intégrée":156972:0.009871
description^is:41781:-0.009116
description^ist:36952:-0.004496
description^it:104137:0.003525
description^item,:40847:0.000127
description^its:61649:0.001760
description^josef_1986:53043:0.019535
description^js-action-profile:14915:0.000920
description^js-actionCount:216704:0.002838
description^js-actions":100160:0.002838
description^js-media-container":235798:0.000920
description^js-more-tweet-actions":117290:0.000920
description^js-nav:51620:0.003097
description^js-nav":23950:0.010913
description^js-openLink":186013:0.008313
description^js-toggle-rt":90249:0.002838
description^js-toggle-state:73085:0.002838
description^js-toggle-state":239944:0.002838
description^js-tooltip:244151:0.002838
description^js-tooltip":94236:0.000920
description^js-tweet-text:99686:0.002838
description^js-user-profile-link":17130:0.000920
description^jwalt"></span><span:260734:0.000127
description^jwbottom"></div><div:57663:0.000335
description^jwbottomleft"></div><div:213219:0.000335
description^jwbottomright"></div><div:78367:-0.006176
description^jwbuttoncontainer"><span:56352:0.000219
description^jwbuttoncontainer"><span>:127910:0.000219
description^jwcapBottom">:73115:0.000219
description^jwcapRight">:20628:0.000283
description^jwcenter"><span:222564:0.000127
description^jwduration:76606:0.000127
description^jwelapsed:208223:0.000127
description^jwhidden">00COLON00</span></span><span:249304:0.000127
description^jwhidden">00COLON00</span><span:80839:0.002528
description^jwhorizontal"><span:167185:0.000127
description^jwleft"></div><div:99068:0.000335
description^jwleft"><span:41877:0.000127
description^jwright"></div><div:94374:0.000335
description^jwright"><span:219397:0.000127
description^jwsmooth"><span:197399:0.000219
description^jwthumb">:96241:0.000179
description^jwtime"><span:146350:0.000127
description^jwtop"></div><div:46601:0.000335
description^jwtopleft"></div><div:83600:0.000335
description^jwtopright"></div><div:90747:0.000335
description^jwuniform"></div><div:216243:0.000127
description^jwvertical"><span:121362:0.000127
description^jwvolume:258890:0.000127
description^jwvolumeH:30343:0.000127
description^killing:30605:0.002489
description^l'Islam.:24156:-0.004496
description^l'image:209658:0.009871
description^l'islam.:189760:-0.004496
description^lang="ar-sa":162834:-0.008630
description^language:246466:-0.006837
description^languages<br:27341:-0.009565
description^le:195665:-0.004496
description^leftCOLON:212600:0.014115
description^lies:187574:0.001760
description^link<br:69993:-0.005672
description^linkSelect</div><div:28097:0.000127
description^long-title":106309:0.018280
description^losses,:256346:0.001760
description^made:188301:0.001760
description^making:118579:0.001760
description^many:94337:-0.006092
description^marginCOLON:196523:0.000127
description^medium:207898:0.000127
description^military:226353:0.001760
description^mixed:174589:-0.006837
description^more:198186:0.002495
description^most:193992:0.002489
description^mp3:191347:0.022633
description^mp3<br:82627:-0.005791
description^mujahideen:184870:0.001760
description^munitions,:161919:0.001760
description^na:75262:-0.004496
description^nawafiz27.mp4<br:158084:0.012849
description^new:207560:0.007355
description^nine:158288:0.001760
description^none:228934:0.000127
description^none;":194572:0.000127
description^none;colorCOLONrgb(255,255,255);fontCOLON15px:261260:0.000179
description^none;widthCOLON320px;"><div:186525:0.000127
description^not:213665:0.001768
description^number:157542:0.002489
description^o:469:-0.004496
description^of:37595:0.017572
description^offense:232853:0.000670
description^oil:257402:0.001760
description^on:170378:0.002489
description^on.:76490:0.000127
description^one:153629:0.001760
description^operation:32559:0.010511
description^or<br:233704:-0.011344
description^others:14195:0.001760
description^over:98559:0.001760
description^overlooks:239521:0.001760
description^ozooo3:40599:0.004373
description^paddingCOLON:119802:0.000127
description^page<br:248321:0.006167
description^photos:42958:0.001301
description^player:253065:0.000179
description^playing"><div:154681:0.000127
description^playlist-none"><div:172567:0.000127
description^plus:108350:0.001301
description^point:54503:0.019170
description^pose:170745:0.001760
description^possible)":35297:0.000127
description^presents<br:120349:0.011982
description^pretty-link:168890:0.010913
description^program:69306:-0.020320
description^property<br:121544:-0.001211
description^provided:69945:0.001760
description^pumps:168309:0.001760
description^quran/1000000.zip:145345:-0.000851
description^rabie3-alfirdws-ala3la.net:30446:-0.000851
description^reader<br:64855:-0.006837
description^readonly="readonly":142784:0.000127
description^regime:233444:0.003049
description^regime,:204222:0.001760
description^rel="nofollow">:120596:-0.005962
description^rel="nofollow">#<b>Vimeo</b></a><br:232906:0.007971
description^rel="nofollow">1436</a></h3><div><br:70991:0.003502
description^rel="nofollow"><font:63932:-0.008399
description^rel="nofollow"><img:153328:0.001361
description^rel="nofollow"><s:252044:0.001301
description^rel="nofollow"><span:199068:0.012726
description^rel="nofollow">British:33254:0.005879
description^rel="nofollow">Lend:97533:0.005879
description^rel="nofollow">Prefer:128562:0.000127
description^rel="nofollow">Voir:13401:0.000920
description^rel="nofollow">al.muslem:73055:-0.008399
description^rel="nofollow">al.muslem</a></font><br:123925:-0.008399
description^rel="nofollow">alfirdwsiy1433:231674:-0.005791
description^rel="nofollow">httpCOLON//vimeo.com/77491120:73596:0.005636
description^rel="nofollow">httpCOLON//vimeo.com/77501750:13788:0.005636
description^rel="nofollow">muslem28</a></font><br:13709:-0.031325
description^rel="nofollow">اضغط:204861:-0.013529
description^rel="nofollow">تحميل:183535:-0.035066
description^rel="nofollow">مركز:211811:0.019163
description^rel="nofollow">منتدى:9368:-0.014589
description^rel="nofollow">هنا:186563:-0.008176
description^rel="nofollow">ولاية:252539:0.030816
description^rel="nofollow">وهنا:93665:-0.007028
description^repeat:3237:0.000127
description^repelled:239283:0.001760
description^repetition:212077:-0.006837
description^report:134398:0.007355
description^requires:126092:0.000127
description^restore":50469:0.005186
description^resulted:241494:0.001760
description^returning:112515:0.001760
description^rgb(0,:175705:0.012852
description^rgb(255,:205512:0.000127
description^sans-serif,:163238:0.014865
description^sans-serif;":28485:0.003498
description^sans-serif;colorCOLONrgb(255,255,255);":240404:0.000127
description^sans-serif;text-alignCOLONright;"><b>فرسان:1940:0.002555
description^scroll:59848:0.000127
description^searche<br:131652:-0.007028
description^see:161242:0.000127
description^sent:78685:0.001760
description^settings:183243:0.000127
description^shocked:202575:0.026936
description^significant:128238:0.001760
description^similar:97305:0.001760
description^sipil:143578:-0.004496
description^site<br:256018:-0.006837
description^sivil:25486:-0.004496
description^size="2">البصمة:25960:0.012849
description^size="3"><a:696:0.015317
description^size="3"><br:208783:0.015317
description^size="4":8830:0.003505
description^size="4">017:250087:0.002838
description^size="4"><b><b>:163525:0.005847
description^size="4"><br:39901:0.014840
description^size="4"><font:48187:0.001130
description^size="4"><font>:195119:0.012506
description^size="4"><font><img:255310:0.008843
description^size="4"><span:202309:0.018171
description^size="4"><strong><img:226624:0.001760
description^size="4"><strong>And:199877:0.002489
description^size="4"><strong>Sha'er:50520:0.001760
description^size="4"><strong>وأسفرت:187376:0.001760
description^size="4"><strong>وقد:124303:0.001760
description^size="4"><strong>١-:128108:0.001760
description^size="4">Media:187568:0.002478
description^size="4">Pictorial:214237:0.001760
description^size="4">Sunday:52104:0.001760
description^size="4">اثر:146545:0.004392
description^size="4">جديد</font>)</font></font><br:11018:0.008843
description^size="5">250:54680:0.001130
description^size="5"><b><font:55066:-0.009509
description^size="5"><br:257313:0.003561
description^size="5"><font:76933:-0.006706
description^size="5"><strong>بسم:81236:0.001760
description^size="5">اكثر:138269:0.001130
description^size="5">الان:143048:0.001130
description^size="5">بسم:210575:0.028204
description^size="5">درس</font></font></b></b></font>:146296:0.001130
description^size="5">للأستماع:150506:0.008843
description^size="5">مؤسسة:20483:0.008843
description^size="6"><b><u><font:133312:-0.008399
description^size="6"><font:15137:0.015317
description^size="6"><font><b><font:142544:0.008843
description^size="6"><font>الإصدار:146888:0.024930
description^size="6"><font>السلام:86701:0.003551
description^size="6">المكتب:140612:0.005186
description^size="6">بسم:244724:0.005186
description^size="6">شبكة:172264:0.001130
description^size="6">للأمير:63062:0.008843
description^size="6">مؤسسة:210962:0.003551
description^size="6">هدم:11865:0.012849
description^size="7"><a:64050:-0.009398
description^size="7"><b><font:54348:-0.008399
description^size="7"><br:261951:-0.002955
description^size="7"><font:250876:-0.021446
description^size="7"><span:149098:-0.004237
description^size="7">quran:241227:-0.005672
description^size="7">برنامج:172849:-0.005356
description^size="7">قبل:170123:0.000760
description^size="7">كتب:44359:0.002002
description^so:143786:0.001760
description^software:178031:-0.013674
description^soldiers:75009:0.001760
description^something:241368:0.000127
description^spoils:106954:0.001760
description^states<br:160215:-0.001211
description^station:82366:0.002489
description^storm:82130:0.001760
description^stormed:222004:0.001760
description^strategic:138823:0.002489
description^style="borderCOLON0px;":75434:0.010327
description^style="borderCOLONmedium:253374:0.000358
description^style="colorCOLON#0000FF;">مشاهدة</span><br:153928:0.002726
