Version 8.1.1
Id
Min label:-50
Max label:50
bits:29
lda:0
1 ngram:2 
0 skip:
options: --quadratic sd --quadratic dt
Checksum: 61433791
:0
Constant:11650396:0.100971
addeddate^16COLON42COLON21:68104093:0.000502072
addeddate^2010-07-31:251635205:-0.000583906
addeddate^2010-09-08^12COLON13COLON03:491059108:1.4967e-05
addeddate^2010-11-28:304442618:-0.000429154
addeddate^2011-12-02:5933506:-0.000411232
addeddate^2011-12-02^16COLON42COLON21:64949335:0.000502072
addeddate^2014-09-03:444845927:0.00454622
addeddate^2014-11-21:171078152:0.00231543
addeddate^2015-01-27:390583926:-0.00453017
addeddate^2015-02-05:228138346:0.000600552
addeddate^2015-04-24:91172407:0.0285173
addeddate^2015-05-22:176101478:0.0126851
addeddate^2015-06-30:419872766:0.00804324
addeddate^2016-02-20:431412816:0.00229901
bookplateleaf^0003:272169137:-0.00713539
camera^5D:105179423:-0.0154001
camera^5D^Mark:358860358:-0.0117896
camera^Canon:86776652:-0.0154001
camera^Canon^5D:153301819:-0.00767985
camera^Canon^EOS:49506527:-0.0117896
camera^EOS:1384131:-0.0117896
camera^EOS^5D:45114326:-0.0117896
camera^II:110481475:-0.0117896
camera^Mark:300695203:-0.0117896
camera^Mark^II:516967258:-0.0117896
contributor^-:360495744:-0.0118432
contributor^-^University:106493272:-0.0118432
contributor^Carolina:184832940:-0.00761195
contributor^Carolina^at:506532785:-0.00761195
contributor^Chapel:87676408:-0.00761195
contributor^Chapel^Hill:219253249:-0.00761195
contributor^Hill:190051305:-0.00761195
contributor^Library,:19043564:-0.00761195
contributor^Library,^University:460890644:-0.00761195
contributor^North:160109690:-0.00761195
contributor^North^Carolina:131557438:-0.00761195
contributor^PIMS:251692979:0.00170044
contributor^Robarts:63126711:-0.0118432
contributor^Robarts^-:533167963:-0.0118432
contributor^Toronto:3298731:-0.0118432
contributor^University:504276184:-0.0171883
contributor^University^Library,:139009636:-0.00761195
contributor^University^of:255266768:-0.0154001
contributor^at:278958773:-0.00761195
contributor^at^Chapel:165011161:-0.00761195
contributor^of:135300696:-0.0154001
contributor^of^North:9927026:-0.00761195
contributor^of^Toronto:389986979:-0.0118432
date^01/10/2010*title^4-^هتاف:433578200:-0.000200198
date^02/12/2011:59290496:-0.000411232
date^02/12/2011*title^-:412985975:-0.000411232
date^02/12/2011*title^-^أبحاث:161557731:-0.000411232
date^02/12/2011*title^34:350195225:0.000502072
date^02/12/2011*title^34^-:64481964:0.000502072
date^02/12/2011*title^أبحاث:282803400:-0.000411232
date^02/12/2011*title^أبحاث^ورسائل:299083310:-0.000411232
date^02/12/2011*title^الأسطوانة:284397250:-0.000411232
date^02/12/2011*title^الأسطوانة^الرابعة:422628474:0.000502072
date^02/12/2011*title^الرابعة:236923712:0.000502072
date^02/12/2011*title^الرابعة^والثلاثون:348554319:0.000502072
date^02/12/2011*title^علمية:289891787:-0.000411232
date^02/12/2011*title^والثلاثون:430970511:0.000927918
date^02/12/2011*title^والثلاثون^34:57119212:0.000502072
date^02/12/2011*title^ورسائل:206341382:-0.000411232
date^02/12/2011*title^ورسائل^علمية:263310393:-0.000411232
date^03-09-2010*title^which^I:159331826:7.01639e-05
date^2011:181533430:-0.00308294
date^26/11/2010*taper^Father:152334996:-2.8435e-05
date^April^2011*title^fathermakary^all:31905287:0.00485443
date^April^2011*title^sermons:246827392:1.4967e-05
description^&*title^مرعي^تأمين:317836707:-0.000508999
description^&^www.way2allah.com*title^بالكتاب:469352211:-2.8279e-05
description^(:270105782:0.000504761
description^(*title^(:283879523:0.0078576
description^(*title^-:112224885:0.00017313
description^(*title^-^أبحاث:395111649:-0.000815325
description^(*title^34:183651867:0.00112263
description^(*title^34^-:502934190:0.00112263
description^(*title^أبحاث:251067594:-0.000815325
description^(*title^أبحاث^ورسائل:268330540:-0.000815325
description^(*title^إلى:69580898:0.000209143
description^(*title^اسطوانات:378032644:-0.000539223
description^(*title^الأسطوانة:249450176:-0.00104231
description^(*title^الأسطوانة^الرابعة:119344248:0.00112263
description^(*title^الاعتصام:366695580:-0.000267759
description^(*title^الرابعة:271772482:0.00112263
description^(*title^الرابعة^والثلاثون:183190605:0.00112263
description^(*title^الشيخ:518851694:0.00111719
description^(*title^الفقه:515141878:-0.000539223
description^(*title^رسالة:239490820:-0.000644978
description^(*title^علمية:258647497:-0.000815325
description^(*title^على:398101873:0.00283385
description^(*title^في:166439112:0.00093822
description^(*title^محمد:436370285:0.000682806
description^(*title^من:359790738:0.00356352
description^(*title^والثلاثون:127784589:0.00188036
description^(*title^والثلاثون^34:491409902:0.00112263
description^(*title^ورسائل:308364548:-0.000815325
description^(*title^ورسائل^علمية:295439419:-0.000815325
description^(1403هـ:32118211:0.000502072
description^(1403هـ*title^-:237992206:0.000502072
description^(1403هـ*title^-^أبحاث:521404314:0.000502072
description^(1403هـ*title^34:40721760:0.000502072
description^(1403هـ*title^34^-:358955477:0.000502072
description^(1403هـ*title^أبحاث:107605937:0.000502072
description^(1403هـ*title^أبحاث^ورسائل:123827543:0.000502072
description^(1403هـ*title^الأسطوانة:104947131:0.000502072
description^(1403هـ*title^الأسطوانة^الرابعة:260185859:0.000502072
description^(1403هـ*title^الرابعة:414054457:0.000502072
description^(1403هـ*title^الرابعة^والثلاثون:41178934:0.000502072
description^(1403هـ*title^علمية:133543602:0.000502072
description^(1403هـ*title^والثلاثون:251839990:0.000502072
description^(1403هـ*title^والثلاثون^34:366297749:0.000502072
description^(1403هـ*title^ورسائل:452875903:0.000502072
description^(1403هـ*title^ورسائل^علمية:419635008:0.000502072
description^(1403هـ^-1404هـ:488422256:0.000502072
description^(1403هـ^-1404هـ*title^-:211036583:0.000502072
description^(1403هـ^-1404هـ*title^-^أبحاث:497594163:-0.00164447
description^(1403هـ^-1404هـ*title^34:14028233:0.000502072
description^(1403هـ^-1404هـ*title^34^-:400451964:0.000502072
description^(1403هـ^-1404هـ*title^أبحاث:80920344:0.000502072
description^(1403هـ^-1404هـ*title^أبحاث^ورسائل:98182654:0.000502072
description^(1403هـ^-1404هـ*title^الأسطوانة:83496210:0.000502072
description^(1403هـ^-1404هـ*title^الأسطوانة^الرابعة:221859754:0.000502072
description^(1403هـ^-1404هـ*title^الرابعة:437692560:0.000502072
description^(1403هـ^-1404هـ*title^الرابعة^والثلاثون:13567903:0.000502072
description^(1403هـ^-1404هـ*title^علمية:89056795:0.000502072
description^(1403هـ^-1404هـ*title^والثلاثون:230266207:0.000502072
description^(1403هـ^-1404هـ*title^والثلاثون^34:393089596:0.000502072
description^(1403هـ^-1404هـ*title^ورسائل:407176918:0.000502072
description^(1403هـ^-1404هـ*title^ورسائل^علمية:465063913:0.000502072
description^(18/4/2010)*title^(^22/4/2010):491046517:2.11691e-05
description^(18/4/2010)^احداث*title^المسجد:489468807:-0.000510154
description^(20/4/2010)^قبس*title^الاب:43703614:5.99107e-05
description^(20/4/2010)^منبر*title^الجبهة:51153818:0.000595438
description^(20/4/2010)^منبر*title^الجبهة^الخارجية:18026429:0.000135104
description^(20/4/2010)^منبر*title^تأمين:103705530:1.4967e-05
description^(20/4/2010)^منبر*title^صقر^أيها:236798683:-0.00105516
description^(21/4/2010)*title^الخارجية^(21/4/2010):240745609:0.000382282
description^(21/4/2010)^نداء*title^قبس^الموطأ:356610118:0.000382282
description^(Within*title^et:437693496:0.000190565
description^(^161:254926315:0.000502072
description^(^161*title^-:506421254:0.000502072
description^(^161*title^-^أبحاث:252962450:0.000502072
description^(^161*title^34:309150824:0.000502072
description^(^161*title^34^-:90513629:0.000502072
description^(^161*title^أبحاث:376043193:0.000502072
description^(^161*title^أبحاث^ورسائل:392260703:0.000481118
description^(^161*title^الأسطوانة:373376179:0.000502072
description^(^161*title^الأسطوانة^الرابعة:528614923:0.000502072
description^(^161*title^الرابعة:145613105:0.000502072
description^(^161*title^الرابعة^والثلاثون:309612094:0.000502072
description^(^161*title^علمية:401977274:0.000502072
description^(^161*title^والثلاثون:520281342:0.000502072
description^(^161*title^والثلاثون^34:97868701:0.000502072
description^(^161*title^ورسائل:184438647:0.000502072
description^(^161*title^ورسائل^علمية:151193160:0.000502072
description^(^22/4/2010)*title^المؤسسة^العظمى:66543220:-2.8279e-05
description^(^382:254926536:0.0011977
description^(^382*title^-:456035375:0.000502072
description^(^382*title^-^أبحاث:168954555:0.000502072
description^(^382*title^34:392996929:0.000502072
description^(^382*title^34^-:6606068:0.000502072
description^(^382*title^أبحاث:325589648:0.000502072
description^(^382*title^أبحاث^ورسائل:308314230:0.000502072
description^(^382*title^الأسطوانة:323004570:0.000502072
description^(^382*title^الأسطوانة^الرابعة:444852770:0.000502072
description^(^382*title^الرابعة:229379352:0.000502072
description^(^382*title^الرابعة^والثلاثون:393585175:0.000502072
description^(^382*title^علمية:317997971:0.000502072
description^(^382*title^والثلاثون:436416727:0.000502072
description^(^382*title^والثلاثون^34:13940660:0.000502072
description^(^382*title^ورسائل:268411742:0.000502072
description^(^382*title^ورسائل^علمية:201517665:0.000502072
description^(^648:254926802:0.000502072
description^(^648*title^-:355233633:0.000502072
description^(^648*title^-^أبحاث:68217333:0.000502072
description^(^648*title^34:426658575:0.000502072
description^(^648*title^34^-:241577914:0.000502072
description^(^648*title^أبحاث:493550046:0.000502072
description^(^648*title^أبحاث^ورسائل:476209976:0.000502072
description^(^648*title^الأسطوانة:490884052:0.000502072
description^(^648*title^الأسطوانة^الرابعة:344000876:0.000502072
description^(^648*title^الرابعة:61795926:0.000502072
description^(^648*title^الرابعة^والثلاثون:427245913:0.000502072
description^(^648*title^علمية:485925085:0.000502072
description^(^648*title^والثلاثون:335664025:0.000502072
description^(^648*title^والثلاثون^34:248927482:0.000502072
description^(^648*title^ورسائل:33374224:0.000502072
description^(^648*title^ورسائل^علمية:33556783:0.000502072
description^(^direct*title^Prophecy^Spirit:530785714:0.00011154
description^(^direct*title^Spirit:276662553:-2.86334e-05
description^(^direct*title^freely^given:449850551:-0.00044094
description^(^الاناث:392333640:0.000502072
description^(^الاناث*title^-:280044719:0.000502072
description^(^الاناث*title^-^أبحاث:26059323:0.000502072
description^(^الاناث*title^34:485687489:0.000502072
description^(^الاناث*title^34^-:201024628:0.000502072
description^(^الاناث*title^أبحاث:418886160:0.000502072
description^(^الاناث*title^أبحاث^ورسائل:436152566:0.000502072
description^(^الاناث*title^الأسطوانة:417267738:0.000502076
description^(^الاناث*title^الأسطوانة^الرابعة:287064738:0.000502072
description^(^الاناث*title^الرابعة:104048024:0.000502072
description^(^الاناث*title^الرابعة^والثلاثون:485100183:0.000502072
description^(^الاناث*title^علمية:426502931:0.000502072
description^(^الاناث*title^والثلاثون:295475287:0.000502072
description^(^الاناث*title^والثلاثون^34:189472564:0.000502072
description^(^الاناث*title^ورسائل:73403358:0.000502072
description^(^الاناث*title^ورسائل^علمية:127746785:0.000502072
description^(^روابط*title^إلى^الخرس:163244489:1.4967e-05
description^(^روابط*title^يعبر:161011755:-0.000548721
description^(^في:304147091:0.000707102
description^(^في*title^-:343834014:0.000707102
description^(^في*title^-^أبحاث:88275722:0.000707102
description^(^في*title^34:406608368:0.000502072
description^(^في*title^34^-:255081797:0.000502072
description^(^في*title^أبحاث:473492257:0.000707102
description^(^في*title^أبحاث^ورسائل:489714119:0.000707102
description^(^في*title^الأسطوانة:470833451:0.000707102
description^(^في*title^الأسطوانة^الرابعة:366156691:0.000502072
description^(^في*title^الرابعة:50134185:0.000502072
description^(^في*title^الرابعة^والثلاثون:405099430:0.000502072
description^(^في*title^علمية:497332770:0.000707102
description^(^في*title^والثلاثون:357810534:0.000502072
description^(^في*title^والثلاثون^34:260326917:0.000502072
description^(^في*title^ورسائل:11490031:0.000707102
description^(^في*title^ورسائل^علمية:55712720:0.000707102
description^(^ليس:16494928:0.00011154
description^(الهيروين:534839583:0.000502072
description^(الهيروين*title^-:110885690:0.000502072
description^(الهيروين*title^-^أبحاث:396852654:0.000502072
description^(الهيروين*title^34:182050644:0.000502072
description^(الهيروين*title^34^-:500284385:0.000502072
description^(الهيروين*title^أبحاث:249392517:0.000502072
description^(الهيروين*title^أبحاث^ورسائل:265680739:0.000502072
description^(الهيروين*title^الأسطوانة:250994575:0.000502072
description^(الهيروين*title^الأسطوانة^الرابعة:121019703:0.000502072
description^(الهيروين*title^الرابعة:270105101:0.000502072
description^(الهيروين*title^الرابعة^والثلاثون:180409602:0.000502072
description^(الهيروين*title^علمية:255931526:0.000502072
description^(الهيروين*title^والثلاثون:129386434:0.000502072
description^(الهيروين*title^والثلاثون^34:492945569:0.000502072
description^(الهيروين*title^ورسائل:306893899:0.000502072
description^(الهيروين*title^ورسائل^علمية:297246068:0.000502072
description^(الهيروين^-الحشيش:127830997:0.000502072
description^(الهيروين^-الحشيش*title^-:456726712:0.000502072
description^(الهيروين^-الحشيش*title^-^أبحاث:168140332:0.000502072
description^(الهيروين^-الحشيش*title^34:393952470:0.000502072
description^(الهيروين^-الحشيش*title^34^-:7559267:0.000502072
description^(الهيروين^-الحشيش*title^أبحاث:327126535:0.000502072
description^(الهيروين^-الحشيش*title^أبحاث^ورسائل:309794017:0.000502072
description^(الهيروين^-الحشيش*title^الأسطوانة:324484109:0.000502072
description^(الهيروين^-الحشيش*title^الأسطوانة^الرابعة:445939381:0.000502072
description^(الهيروين^-الحشيش*title^الرابعة:230398351:0.000502072
description^(الهيروين^-الحشيش*title^الرابعة^والثلاثون:392312448:0.000502072
description^(الهيروين^-الحشيش*title^علمية:316921604:0.000502072
description^(الهيروين^-الحشيش*title^والثلاثون:437560384:0.000502072
description^(الهيروين^-الحشيش*title^والثلاثون^34:12788515:0.000502072
description^(الهيروين^-الحشيش*title^ورسائل:266876873:0.000502072
description^(الهيروين^-الحشيش*title^ورسائل^علمية:202735350:0.000502072
description^(دراسة:532141769:5.99205e-06
description^(دراسة*title^-:533210780:5.99205e-06
description^(في:445834027:0.000502072
description^(في*title^-:143959110:0.000502072
description^(في*title^-^أبحاث:430449362:0.000502072
description^(في*title^34:81166376:0.000502072
description^(في*title^34^-:333374621:0.000502072
description^(في*title^أبحاث:13775609:0.000502072
description^(في*title^أبحاث^ورسائل:31107103:0.000502072
description^(في*title^الأسطوانة:16417011:0.000502072
description^(في*title^الأسطوانة^الرابعة:154780235:0.000502072
description^(في*title^الرابعة:504767857:0.000502072
description^(في*title^الرابعة^والثلاثون:80710270:0.000502072
description^(في*title^علمية:21916666:0.000502072
description^(في*title^والثلاثون:163125438:0.000502072
description^(في*title^والثلاثون^34:326016989:0.000502072
description^(في*title^ورسائل:474319671:0.000502072
description^(في*title^ورسائل^علمية:532201992:0.000502072
description^(في^القرن:504864412:0.000502072
description^(في^القرن*title^-:327260003:0.000502072
description^(في^القرن*title^-^أبحاث:45945335:0.000502072
description^(في^القرن*title^34:532919053:0.000502072
description^(في^القرن*title^34^-:147576760:0.000502072
description^(في^القرن*title^أبحاث:466026972:0.000502072
description^(في^القرن*title^أبحاث^ورسائل:449813306:0.000502072
description^(في^القرن*title^الأسطوانة:468693974:0.000502072
description^(في^القرن*title^الأسطوانة^الرابعة:304935278:0.000502072
description^(في^القرن*title^الرابعة:84088404:0.000502072
description^(في^القرن*title^الرابعة^والثلاثون:534427995:0.000502072
description^(في^القرن*title^علمية:442194143:0.000502072
description^(في^القرن*title^والثلاثون:313273243:0.000502072
description^(في^القرن*title^والثلاثون^34:142322936:0.000502072
description^(في^القرن*title^ورسائل:122730514:0.000502072
description^(في^القرن*title^ورسائل^علمية:78508333:0.000502072
description^(من:375832745:-0.00039823
description^):222352494:-0.00165468
description^)*taper^مكاري^6-5-11_St.:19284792:-0.000416986
description^)*title^-:60903901:-0.000829548
description^)*title^-^أبحاث:312334153:-0.00161799
description^)*title^34:266565043:0.00122972
description^)*title^34^-:418058502:0.00122972
description^)*title^have^the:271349898:-2.8279e-05
description^)*title^أبحاث:199739234:-0.00161799
description^)*title^أبحاث^ورسائل:183459204:-0.00211339
description^)*title^اسطوانات:328821164:-0.000464521
description^)*title^الأسطوانة:198145384:-0.00182639
description^)*title^الأسطوانة^الرابعة:34355152:0.00122972
description^)*title^الرابعة:354668778:0.00122972
description^)*title^الرابعة^والثلاثون:268074981:0.00122972
description^)*title^الشيخ:469514182:0.000717063
description^)*title^ردود^الشيخ:409091238:0.000445341
description^)*title^علمية:175873633:-0.00161799
description^)*title^على:313243353:0.00304972
description^)*title^في:217748320:0.000721189
description^)*title^من:274776890:0.00356352
description^)*title^والثلاثون:42790181:0.00195904
description^)*title^والثلاثون^34:408644166:0.00122972
description^)*title^ورسائل:393248428:-0.00161799
description^)*title^ورسائل^علمية:344799123:-0.00161799
description^)^-:72065060:0.00354569
description^)^-*title^-:262283355:-5.15144e-06
description^)^-*title^-^أبحاث:513713871:-5.15144e-06
description^)^-*title^34:65012789:0.00100414
description^)^-*title^34^-:350773376:0.00100414
description^)^-*title^أبحاث:132429540:-5.15144e-06
description^)^-*title^أبحاث^ورسائل:116141058:-5.15144e-06
description^)^-*title^الأسطوانة:130811118:-5.15144e-06
description^)^-*title^الأسطوانة^الرابعة:235882070:0.00100414
description^)^-*title^الرابعة:421568876:0.00100414
description^)^-*title^الرابعة^والثلاثون:66653795:0.00100414
description^)^-*title^علمية:108589031:-5.15144e-06
description^)^-*title^والثلاثون:244292771:0.00168187
description^)^-*title^والثلاثون^34:341318592:0.00100414
description^)^-*title^ورسائل:460525354:-5.15144e-06
description^)^-*title^ورسائل^علمية:411977237:-5.15144e-06
description^)^او:348438650:0.000502072
description^)^او*title^-:51656953:0.000502072
description^)^او*title^-^أبحاث:304660077:0.000502072
description^)^او*title^34:257301655:0.000502072
description^)^او*title^34^-:408844322:0.000502072
description^)^او*title^أبحاث:189967942:0.000502072
description^)^او*title^أبحاث^ورسائل:173683872:0.000502072
description^)^او*title^الأسطوانة:192552012:0.000502072
description^)^او*title^الأسطوانة^الرابعة:45702900:0.000502072
description^)^او*title^الرابعة:362199502:0.000502072
description^)^او*title^الرابعة^والثلاثون:256841409:0.000502072
description^)^او*title^علمية:181335877:0.000502072
description^)^او*title^والثلاثون:37323777:0.000502072
description^)^او*title^والثلاثون^34:418251618:0.000502072
description^)^او*title^ورسائل:398792584:0.000502072
description^)^او*title^ورسائل^علمية:339238583:0.000502072
description^)^دراسة:501371730:-0.0002541
description^)^دراسة*title^-:367399649:-0.0002541
description^)^دراسة*title^-^أبحاث:81433717:-0.0002541
description^)^دراسة*title^34:430192271:0.000502072
description^)^دراسة*title^34^-:246174266:0.000502072
description^)^دراسة*title^أبحاث:497058910:-0.0002541
description^)^دراسة*title^أبحاث^ورسائل:480779960:-0.0002541
description^)^دراسة*title^الأسطوانة:495466068:-0.0002541
description^)^دراسة*title^الأسطوانة^الرابعة:340489452:0.000502072
description^)^دراسة*title^الرابعة:56923094:0.000502072
description^)^دراسة*title^الرابعة^والثلاثون:431832281:0.000502072
description^)^دراسة*title^علمية:473750877:-0.0002541
description^)^دراسة*title^والثلاثون:348892697:0.000502072
description^)^دراسة*title^والثلاثون^34:236726650:0.000502072
description^)^دراسة*title^ورسائل:20397456:-0.0002541
description^)^دراسة*title^ورسائل^علمية:46822575:-0.0002541
description^)^موقع*title^of^those:112559186:-0.000527792
description^)^موقع*title^the^mighty:417500544:-0.000885544
description^)^موقع*title^هتاف^المتشددين_know:533323122:-0.000429154
description^)الحفل:223352326:0.000502072
description^)الحفل*title^-:331191173:0.000502072
description^)الحفل*title^-^أبحاث:42013969:0.000502072
description^)الحفل*title^34:536852459:0.000502072
description^)الحفل*title^34^-:150459230:0.000502072
description^)الحفل*title^أبحاث:469435706:0.000502072
description^)الحفل*title^أبحاث^ورسائل:452173788:0.000502072
description^)الحفل*title^الأسطوانة:466859824:0.000502072
description^)الحفل*title^الأسطوانة^الرابعة:303101320:0.000502072
description^)الحفل*title^الرابعة:88019634:0.000502072
description^)الحفل*title^الرابعة^والثلاثون:535215549:0.000502072
description^)الحفل*title^علمية:442981433:0.000502072
description^)الحفل*title^والثلاثون:311439229:0.000502072
description^)الحفل*title^والثلاثون^34:138913822:0.000502072
description^)الحفل*title^ورسائل:124566772:0.000502072
description^)الحفل*title^ورسائل^علمية:76674507:0.000502072
description^)الحفل^الختامي:61704876:0.000502072
description^)الحفل^الختامي*title^-:513700915:0.000502072
description^)الحفل^الختامي*title^-^أبحاث:262337191:0.000502072
description^)الحفل^الختامي*title^34:316428381:0.000502072
description^)الحفل^الختامي*title^34^-:97793256:0.000502072
description^)الحفل^الختامي*title^أبحاث:383312524:0.000502072
description^)الحفل^الختامي*title^أبحاث^ورسائل:399538282:0.000502072
description^)الحفل^الختامي*title^الأسطوانة:384848006:0.000502072
description^)الحفل^الختامي*title^الأسطوانة^الرابعة:523440702:0.000502072
description^)الحفل^الختامي*title^الرابعة:136115460:0.000502072
description^)الحفل^الختامي*title^الرابعة^والثلاثون:314923531:0.000502072
description^)الحفل^الختامي*title^علمية:390380431:0.000502072
description^)الحفل^الختامي*title^والثلاثون:531876043:0.000502072
description^)الحفل^الختامي*title^والثلاثون^34:90460072:0.000502072
description^)الحفل^الختامي*title^ورسائل:172972866:0.000502072
description^)الحفل^الختامي*title^ورسائل^علمية:162665085:0.000502072
description^,دراسة:462249139:0.000502072
description^,دراسة*title^-:438818110:0.000502072
description^,دراسة*title^-^أبحاث:186340266:0.000502072
description^,دراسة*title^34:375779664:0.000502072
description^,دراسة*title^34^-:23959013:0.000502072
description^,دراسة*title^أبحاث:308364161:0.000502072
description^,دراسة*title^أبحاث^ورسائل:325704039:0.000502072
description^,دراسة*title^الأسطوانة:306835851:0.000502072
description^,دراسة*title^الأسطوانة^الرابعة:462074675:0.000502072
description^,دراسة*title^الرابعة:212161545:0.000502072
description^,دراسة*title^الرابعة^والثلاثون:377289478:0.000502072
description^,دراسة*title^علمية:335354498:0.000502072
description^,دراسة*title^والثلاثون:453667270:0.000502072
description^,دراسة*title^والثلاثون^34:31321765:0.000502072
description^,دراسة*title^ورسائل:251066959:0.000502072
description^,دراسة*title^ورسائل^علمية:218870640:0.000502072
description^,دراسة^مقارنة:71919145:0.000502072
description^,دراسة^مقارنة*title^-:2419324:0.000502072
description^,دراسة^مقارنة*title^-^أبحاث:286813416:0.000502072
description^,دراسة^مقارنة*title^34:208064018:0.000502072
description^,دراسة^مقارنة*title^34^-:460237479:0.000502072
description^,دراسة^مقارنة*title^أبحاث:140672195:0.000502072
description^,دراسة^مقارنة*title^أبحاث^ورسائل:158000677:0.000502072
description^,دراسة^مقارنة*title^الأسطوانة:139120329:0.000502072
description^,دراسة^مقارنة*title^الأسطوانة^الرابعة:25791601:0.000502072
description^,دراسة^مقارنة*title^الرابعة:380005195:0.000502072
description^,دراسة^مقارنة*title^الرابعة^والثلاثون:209699908:0.000502072
description^,دراسة^مقارنة*title^علمية:167650752:0.000502072
description^,دراسة^مقارنة*title^والثلاثون:17389188:0.000502072
description^,دراسة^مقارنة*title^والثلاثون^34:467587559:0.000502072
description^,دراسة^مقارنة*title^ورسائل:351651085:0.000502072
description^,دراسة^مقارنة*title^ورسائل^علمية:386436146:0.000502072
description^-:534128494:-0.00871601
description^-*title^-:76491485:-0.0108316
description^-*title^-^أبحاث:364096585:-0.00553841
description^-*title^-^الشيخ:96238893:-0.00984242
description^-*title^1:147656274:-0.00518733
description^-*title^2:147656275:-0.0007132
description^-*title^3:147656272:-4.07158e-05
description^-*title^34:147656371:0.0034062
description^-*title^34^-:533031430:0.00321491
description^-*title^4:147656273:0.00696303
description^-*title^5:147656278:0.000407444
description^-*title^6:147656279:0.000513791
description^-*title^7:147656276:-0.000746233
description^-*title^8:147656277:-3.9994e-05
description^-*title^COLONCOLON:218503406:0.000510008
description^-*title^أبحاث:214547554:-0.00553841
description^-*title^أبحاث^ورسائل:230762116:-0.00264973
description^-*title^أسطوانات:27073046:-0.0031238
description^-*title^اسطوانات:347542188:-0.00470649
description^-*title^الأسطوانة:216075880:-0.0021808
description^-*title^الأسطوانة^الرابعة:86133968:-0.00179366
description^-*title^الرابعة:302885866:-0.00219274
description^-*title^الرابعة^والثلاثون:148112613:0.00321491
description^-*title^الرسائل:144989879:-3.9994e-05
description^-*title^السنة:403749092:-0.00230131
description^-*title^الشيخ:483544262:-0.00893564
description^-*title^الشيخ^محمد:240769793:-0.00294633
description^-*title^العلمية:130542469:-0.000471794
description^-*title^العلمية^في:185053719:-0.000471794
description^-*title^الفقه:478883934:-0.00489957
description^-*title^الفقه^وأصوله:340792456:-0.00320778
description^-*title^القلوب:508144041:-0.00193737
description^-*title^برنامج:298321984:-0.00253764
description^-*title^علمية:223733089:-0.00553841
description^-*title^في:198502496:-0.00293144
description^-*title^في^مجال:221109336:-0.000950609
description^-*title^لا:185071511:0.000470303
description^-*title^مجال:385599866:-0.000950609
description^-*title^محمد:406666181:-0.00163386
description^-*title^من:391034938:0.00248537
description^-*title^وأصوله:96820180:-0.00320778
description^-*title^وأصوله^-:464302807:-0.00201132
description^-*title^والثلاثون:94541349:0.0076504
description^-*title^والثلاثون^34:527765830:0.00321491
description^-*title^ورسائل:274597292:-0.00297699
description^-*title^ورسائل^علمية:329469075:-0.00297699
description^--:247165213:0.00200732
description^--*title^2:184421598:-4.24997e-05
description^-1404هـ:41231801:0.000502072
description^-1404هـ*title^-:533027532:0.000502072
description^-1404هـ*title^-^أبحاث:251255896:0.000502072
description^-1404هـ*title^34:327646882:0.000502072
description^-1404هـ*title^34^-:76487191:0.000502072
description^-1404هـ*title^أبحاث:394513523:0.000502072
description^-1404هـ*title^أبحاث^ورسائل:378230421:0.000502072
description^-1404هـ*title^الأسطوانة:397115001:0.000502072
description^-1404هـ*title^الأسطوانة^الرابعة:510147777:0.000502072
description^-1404هـ*title^الرابعة:155704315:0.000502072
description^-1404هـ*title^الرابعة^والثلاثون:329151732:0.000502072
description^-1404هـ*title^علمية:371168624:0.000502072
description^-1404هـ*title^والثلاثون:518579764:0.000502072
description^-1404هـ*title^والثلاثون^34:71262551:0.000502072
description^-1404هـ*title^ورسائل:185890237:0.000502072
description^-1404هـ*title^ورسائل^علمية:149503106:0.000502072
description^-1404هـ^)الحفل:444520923:0.000502072
description^-1404هـ^)الحفل*title^-:404736822:0.000502072
description^-1404هـ^)الحفل*title^-^أبحاث:153308578:0.000502072
description^-1404هـ^)الحفل*title^34:341700440:0.000502072
description^-1404هـ^)الحفل*title^34^-:55938029:0.000502072
description^-1404هـ^)الحفل*title^أبحاث:274292105:0.000502072
description^-1404هـ^)الحفل*title^أبحاث^ورسائل:290572143:0.000502072
description^-1404هـ^)الحفل*title^الأسطوانة:275902339:0.000502072
description^-1404هـ^)الحفل*title^الأسطوانة^الرابعة:431140155:0.000502072
description^-1404هـ^)الحفل*title^الرابعة:245189121:0.000502072
description^-1404هـ^)الحفل*title^الرابعة^والثلاثون:340059406:0.000502072
description^-1404هـ^)الحفل*title^علمية:298124426:0.000502072
description^-1404هـ^)الحفل*title^والثلاثون:422737870:0.000502072
description^-1404هـ^)الحفل*title^والثلاثون^34:65401005:0.000502072
description^-1404هـ^)الحفل*title^ورسائل:214885447:0.000502072
description^-1404هـ^)الحفل*title^ورسائل^علمية:255044984:0.000502072
description^-^.pdf:176580802:0.000840937
description^-^.pdf*title^-:456774033:0.000840937
description^-^.pdf*title^-^أبحاث:168122117:0.000840937
description^-^.pdf*title^34:393999871:0.000502072
description^-^.pdf*title^34^-:7573834:0.000502072
description^-^.pdf*title^أبحاث:327108398:0.000840937
description^-^.pdf*title^أبحاث^ورسائل:309845448:0.000840937
description^-^.pdf*title^الأسطوانة:324531492:0.000840937
description^-^.pdf*title^الأسطوانة^الرابعة:445953948:0.000502072
description^-^.pdf*title^الرابعة:230379686:0.000502072
description^-^.pdf*title^الرابعة^والثلاثون:392363945:0.000502072
description^-^.pdf*title^علمية:316874285:0.000840937
description^-^.pdf*title^والثلاثون:437546345:0.000840937
description^-^.pdf*title^والثلاثون^34:12839434:0.000502072
description^-^.pdf*title^ورسائل:266927840:0.000840937
description^-^.pdf*title^ورسائل^علمية:202749919:0.000840937
description^-^1089:3193187:0.000502072
description^-^1089*title^-:119336494:0.000502072
description^-^1089*title^-^أبحاث:371222714:0.000502072
description^-^1089*title^34:190761536:0.000502072
description^-^1089*title^34^-:475442933:0.000502072
description^-^1089*title^أبحاث:257587345:0.000502072
description^-^1089*title^أبحاث^ورسائل:240312951:0.000502072
description^-^1089*title^الأسطوانة:259181211:0.000502072
description^-^1089*title^الأسطوانة^الرابعة:112298019:0.000502072
description^-^1089*title^الرابعة:295595801:0.000502072
description^-^1089*title^الرابعة^والثلاثون:189251606:0.000502072
description^-^1089*title^علمية:247865746:0.000502072
description^-^1089*title^والثلاثون:103895766:0.000502072
description^-^1089*title^والثلاثون^34:484890037:0.000502072
description^-^1089*title^ورسائل:332251487:0.000502072
description^-^1089*title^ورسائل^علمية:271616096:0.000502072
description^-^1200م:406799301:0.000502072
description^-^1200م*title^-:406362088:0.000502072
description^-^1200م*title^-^أبحاث:151261564:0.000502072
description^-^1200م*title^34:343585670:0.000502072
description^-^1200م*title^34^-:57857843:0.000502072
description^-^1200م*title^أبحاث:276693335:0.000502072
description^-^1200م*title^أبحاث^ورسائل:292985777:0.000502072
description^-^1200م*title^الأسطوانة:274117469:0.000502072
description^-^1200م*title^الأسطوانة^الرابعة:429257189:0.000502072
description^-^1200م*title^الرابعة:247076575:0.000502072
description^-^1200م*title^الرابعة^والثلاثون:342079952:0.000502072
description^-^1200م*title^علمية:300046420:0.000502072
description^-^1200م*title^والثلاثون:420817680:0.000502072
description^-^1200م*title^والثلاثون^34:63089779:0.000502072
description^-^1200م*title^ورسائل:216643737:0.000502072
description^-^1200م*title^ورسائل^علمية:253030822:0.000502072
description^-^1282:3193380:0.000502072
description^-^1282*title^-:404373083:0.000502072
description^-^1282*title^-^أبحاث:153532623:0.000502072
description^-^1282*title^34:341318197:0.000502072
description^-^1282*title^34^-:55606912:0.000502072
description^-^1282*title^أبحاث:274508004:0.000502072
description^-^1282*title^أبحاث^ورسائل:290730498:0.000502072
description^-^1282*title^الأسطوانة:276044526:0.000502072
description^-^1282*title^الأسطوانة^الرابعة:431446102:0.000502072
description^-^1282*title^الرابعة:244891500:0.000502072
description^-^1282*title^الرابعة^والثلاثون:339808355:0.000502072
description^-^1282*title^علمية:297857511:0.000502072
description^-^1282*title^والثلاثون:423068323:0.000502072
description^-^1282*title^والثلاثون^34:65013184:0.000502072
description^-^1282*title^ورسائل:214634794:0.000502072
description^-^1282*title^ورسائل^علمية:255219733:0.000502072
description^-^1332:3193430:0.000502072
description^-^1332*title^-:169504149:0.000502072
description^-^1332*title^-^أبحاث:455535361:0.000502072
description^-^1332*title^34:106449403:0.000502072
description^-^1332*title^34^-:290467150:0.000502072
description^-^1332*title^أبحاث:39648042:0.000502072
description^-^1332*title^أبحاث^ورسائل:55861708:0.000502072
description^-^1332*title^الأسطوانة:41175328:0.000502072
description^-^1332*title^الأسطوانة^الرابعة:196545432:0.000502072
description^-^1332*title^الرابعة:479784098:0.000502072
description^-^1332*title^الرابعة^والثلاثون:104940461:0.000502072
description^-^1332*title^علمية:62956073:7.15676e-05
description^-^1332*title^والثلاثون:188207469:0.000502072
description^-^1332*title^والثلاثون^34:299914766:0.000502072
description^-^1332*title^ورسائل:516637412:0.000502072
description^-^1332*title^ورسائل^علمية:490081243:0.000502072
description^-^1914م:131058507:0.000502072
description^-^1914م*title^-:531775462:0.000502072
description^-^1914م*title^-^أبحاث:244234610:0.000502072
description^-^1914م*title^34:334502792:0.000502072
description^-^1914م*title^34^-:83394365:0.000502072
description^-^1914م*title^أبحاث:401910105:0.000502072
description^-^1914م*title^أبحاث^ورسائل:385627071:0.000502072
description^-^1914م*title^الأسطوانة:400300883:0.000502072
description^-^1914م*title^الأسطوانة^الرابعة:505371115:0.000502072
description^-^1914م*title^الرابعة:154189521:0.000502072
description^-^1914م*title^الرابعة^والثلاثون:334041566:0.000502072
description^-^1914م*title^علمية:375976026:0.000502072
description^-^1914م*title^والثلاثون:513770270:0.000502072
description^-^1914م*title^والثلاثون^34:71828605:0.000502072
description^-^1914م*title^ورسائل:191041687:0.000502072
description^-^1914م*title^ورسائل^علمية:144595368:0.000502072
description^-^234:3192332:0.000502072
description^-^234*title^-:268545043:0.000502072
description^-^234*title^-^أبحاث:20785799:0.000502072
description^-^234*title^34:474187901:0.000502072
description^-^234*title^34^-:189525192:0.000502072
description^-^234*title^أبحاث:407321260:0.000502072
description^-^234*title^أبحاث^ورسائل:424648778:0.000502072
description^-^234*title^الأسطوانة:409962662:0.000502072
description^-^234*title^الأسطوانة^الرابعة:296536606:0.000502072
description^-^234*title^الرابعة:109260068:0.000502072
description^-^234*title^الرابعة^والثلاثون:475693611:0.000502072
description^-^234*title^علمية:433808303:0.000502072
description^-^234*title^والثلاثون:288100587:0.000502072
description^-^234*title^والثلاثون^34:201037704:0.000502072
description^-^234*title^ورسائل:80773986:0.000502072
description^-^234*title^ورسائل^علمية:120441437:0.000502072
description^-^482:3192580:0.000502072
description^-^482*title^-:404693947:0.000502072
description^-^482*title^-^أبحاث:153330991:0.000502072
description^-^482*title^34:341641173:0.000502072
description^-^482*title^34^-:55927648:0.000502072
description^-^482*title^أبحاث:274314500:0.000502072
description^-^482*title^أبحاث^ورسائل:290533346:0.000502072
description^-^482*title^الأسطوانة:275842830:0.000502072
description^-^482*title^الأسطوانة^الرابعة:431113654:0.000502072
description^-^482*title^الرابعة:245211788:0.000502072
description^-^482*title^الرابعة^والثلاثون:340004227:0.000502072
description^-^482*title^علمية:298183687:0.000502072
description^-^482*title^والثلاثون:422747971:0.000502072
description^-^482*title^والثلاثون^34:65345568:0.000502072
description^-^482*title^ورسائل:214830282:0.000502072
description^-^482*title^ورسائل^علمية:255018485:0.000502072
description^-^923:3193021:0.000502072
description^-^923*title^-:18737520:0.000502072
description^-^923*title^-^أبحاث:270626788:0.000502072
description^-^923*title^34:224382238:0.000502072
description^-^923*title^34^-:441952683:0.000502072
description^-^923*title^أبحاث:156991439:0.000502072
description^-^923*title^أبحاث^ورسائل:139715881:0.000502072
description^-^923*title^الأسطوانة:158584261:0.000502072
description^-^923*title^الأسطوانة^الرابعة:11571069:0.000502072
description^-^923*title^الرابعة:396322887:0.000502072
description^-^923*title^الرابعة^والثلاثون:222742344:0.000502072
description^-^923*title^علمية:147269324:0.000502072
description^-^923*title^والثلاثون:3167624:0.000502072
description^-^923*title^والثلاثون^34:451400427:0.000502072
description^-^923*title^ورسائل:365741569:0.000502072
description^-^923*title^ورسائل^علمية:372346686:0.000502072
description^-^أبحاث:424925457:-0.00250342
description^-^أبحاث*title^-:122785076:-0.00439141
description^-^أبحاث*title^-^أبحاث:376245152:-0.00250342
description^-^أبحاث*title^34:185837914:0.000502072
description^-^أبحاث*title^34^-:471584239:0.000502072
description^-^أبحاث*title^أبحاث:253172619:-0.00250342
description^-^أبحاث*title^أبحاث^ورسائل:236945773:-0.000492045
description^-^أبحاث*title^الأسطوانة:255830401:-0.00250342
description^-^أبحاث*title^الأسطوانة^الرابعة:117238585:0.000502072
description^-^أبحاث*title^الرابعة:299043843:0.000502072
description^-^أبحاث*title^الرابعة^والثلاثون:185246476:0.000502072
description^-^أبحاث*title^علمية:244007560:-0.00250342
description^-^أبحاث*title^والثلاثون:108802508:0.00123195
description^-^أبحاث*title^والثلاثون^34:481015471:0.000502072
description^-^أبحاث*title^ورسائل:327197253:0.000191417
description^-^أبحاث*title^ورسائل^علمية:276687738:0.000191417
description^-^الحلقة:319106765:0.00206553
description^-^الحلقة*title^4:449163468:0.00206553
description^-^الرسائل:464499794:-7.31928e-05
description^-^الرسائل*title^-:255321569:-7.31928e-05
description^-^الرسالة:275253631:0.000444757
description^-^الرسالة*title^-:443140634:0.000545301
description^-^الرسالة*title^-^أبحاث:190139534:0.000585848
description^-^الرسالة*title^34:371977844:0.00224526
description^-^الرسالة*title^34^-:19106497:0.00224526
description^-^الرسالة*title^أبحاث:305093797:0.000585848
description^-^الرسالة*title^أبحاث^ورسائل:321373763:0.000585848
description^-^الرسالة*title^الأسطوانة:302509743:0.000545301
description^-^الرسالة*title^الأسطوانة^الرابعة:465873943:0.00224526
description^-^الرسالة*title^الرابعة:216746797:0.00224526
description^-^الرسالة*title^الرابعة^والثلاثون:372433954:0.00224526
description^-^الرسالة*title^علمية:330499494:0.000585848
description^-^الرسالة*title^والثلاثون:457471714:0.00525202
description^-^الرسالة*title^والثلاثون^34:26472833:0.00224526
description^-^الرسالة*title^ورسائل:246998379:0.000585848
description^-^الرسالة*title^ورسائل^علمية:222669908:0.000585848
description^-^الرساله:197436151:-0.0010135
description^-^الرساله*title^-:354660898:-0.0010135
description^-^الرساله*title^-^أبحاث:69153974:-0.0010135
description^-^الرساله*title^34:425825868:0.000502072
description^-^الرساله*title^34^-:241824505:0.000502072
description^-^الرساله*title^أبحاث:493167773:-0.0010135
description^-^الرساله*title^أبحاث^ورسائل:476954235:-0.0010135
description^-^الرساله*title^الأسطوانة:491624087:-0.0010135
description^-^الرساله*title^الأسطوانة^الرابعة:344904751:0.000502072
description^-^الرساله*title^الرابعة:60896021:0.000502072
description^-^الرساله*title^الرابعة^والثلاثون:427334682:0.000502072
description^-^الرساله*title^علمية:486112670:-0.0010135
description^-^الرساله*title^والثلاثون:336465626:0.000840937
description^-^الرساله*title^والثلاثون^34:249137593:0.000502072
description^-^الرساله*title^ورسائل:32677203:-0.0010135
description^-^الرساله*title^ورسائل^علمية:34591852:-0.0010135
description^-^الشيخ:513559026:-0.00631206
description^-^الشيخ*title^-:178740993:-0.00990954
description^-^الشيخ*title^-^الشيخ:194250993:-0.00780872
description^-^الشيخ*title^COLONCOLON:53374258:-0.00049268
description^-^الشيخ*title^الشيخ:318388506:-0.00780872
description^-^الشيخ*title^الشيخ^محمد:7450333:-0.00262243
description^-^الشيخ*title^القلوب:274848885:-0.00150073
description^-^الشيخ*title^محمد:370495001:-0.00286001
description^-^الشيخ*title^من:426167782:0.00191061
description^-^الطائف:300043725:0.000840937
description^-^الطائف*title^-:485441856:0.000840937
description^-^الطائف*title^-^أبحاث:231983060:0.000840937
description^-^الطائف*title^34:279799086:0.000502072
description^-^الطائف*title^34^-:128254363:0.000502072
description^-^الطائف*title^أبحاث:346675199:0.000840937
description^-^الطائف*title^أبحاث^ورسائل:362892569:0.000840937
description^-^الطائف*title^الأسطوانة:344024565:0.000840937
description^-^الطائف*title^الأسطوانة^الرابعة:490874701:0.000502072
description^-^الطائف*title^الرابعة:174964855:0.000502072
description^-^الطائف*title^الرابعة^والثلاثون:280260472:0.000502072
description^-^الطائف*title^علمية:355831548:0.000840937
description^-^الطائف*title^والثلاثون:499318200:0.000840937
description^-^الطائف*title^والثلاثون^34:118848219:0.000502072
description^-^الطائف*title^ورسائل:138309169:0.000840937
description^-^الطائف*title^ورسائل^علمية:197338894:0.000840937
description^-^بحوث.pdf:457254366:-0.00144486
description^-^بحوث.pdf*title^-:220308621:-0.00144486
description^-^بحوث.pdf*title^-^أبحاث:471671321:-0.00144486
description^-^بحوث.pdf*title^34:23298275:0.00071001
description^-^بحوث.pdf*title^34^-:376169558:0.00071001
description^-^بحوث.pdf*title^أبحاث:90649138:-0.00144486
description^-^بحوث.pdf*title^أبحاث^ورسائل:74426580:-0.00144486
description^-^بحوث.pdf*title^الأسطوانة:89096248:-0.00144486
description^-^بحوث.pdf*title^الأسطوانة^الرابعة:210551424:0.00071001
description^-^بحوث.pdf*title^الرابعة:463676858:0.00071001
description^-^بحوث.pdf*title^الرابعة^والثلاثون:24808117:0.00071001
description^-^بحوث.pdf*title^علمية:83585841:-0.00144486
description^-^بحوث.pdf*title^والثلاثون:202119285:0.00226781
description^-^بحوث.pdf*title^والثلاثون^34:383491862:0.00071001
description^-^بحوث.pdf*title^ورسائل:435194876:-0.00144486
description^-^بحوث.pdf*title^ورسائل^علمية:437109443:-0.00144486
description^-^تقرير.pdf:390640666:0.000502072
description^-^تقرير.pdf*title^-:165461017:0.000502072
description^-^تقرير.pdf*title^-^أبحاث:417348237:0.000502072
description^-^تقرير.pdf*title^34:94279799:0.000502072
description^-^تقرير.pdf*title^34^-:311884994:0.000502072
description^-^تقرير.pdf*title^أبحاث:26880678:0.000502072
description^-^تقرير.pdf*title^أبحاث^ورسائل:9613376:0.000502072
description^-^تقرير.pdf*title^الأسطوانة:28481708:0.000502072
description^-^تقرير.pdf*title^الأسطوانة^الرابعة:141679124:0.000502072
description^-^تقرير.pdf*title^الرابعة:526269742:0.000502072
description^-^تقرير.pdf*title^الرابعة^والثلاثون:92770849:0.000502072
description^-^تقرير.pdf*title^علمية:422821:0.000502072
description^-^تقرير.pdf*title^والثلاثون:150012129:0.000502072
description^-^تقرير.pdf*title^والثلاثون^34:304514946:0.000502072
description^-^تقرير.pdf*title^ورسائل:487428968:0.000502072
description^-^تقرير.pdf*title^ورسائل^علمية:519101015:0.000502072
description^-^جدة:219930893:0.000840937
description^-^جدة*title^-:122453888:0.000840937
description^-^جدة*title^-^أبحاث:376502548:0.000840937
description^-^جدة*title^34:185490414:0.000502072
description^-^جدة*title^34^-:470171483:0.000502072
description^-^جدة*title^أبحاث:252373311:0.000840937
description^-^جدة*title^أبحاث^ورسائل:235041753:0.000840937
description^-^جدة*title^الأسطوانة:253909813:0.000840937
description^-^جدة*title^الأسطوانة^الرابعة:115415437:0.000502072
description^-^جدة*title^الرابعة:298778295:0.000502072
description^-^جدة*title^الرابعة^والثلاثون:186077624:0.000502072
description^-^جدة*title^علمية:244756540:0.000840937
description^-^جدة*title^والثلاثون:107070328:0.000840937
description^-^جدة*title^والثلاثون^34:481707035:0.000502072
description^-^جدة*title^ورسائل:329076977:0.000840937
description^-^جدة*title^ورسائل^علمية:274733518:0.000840937
description^-^رسالة:220846338:0.000502072
description^-^رسالة*title^-:307209937:0.000502072
description^-^رسالة*title^-^أبحاث:57876549:0.000502072
description^-^رسالة*title^34:504201919:0.000502072
description^-^رسالة*title^34^-:151381514:0.000502072
description^-^رسالة*title^أبحاث:436809838:0.000502072
description^-^رسالة*title^أبحاث^ورسائل:453094024:0.000502072
description^-^رسالة*title^الأسطوانة:438403684:0.000502072
description^-^رسالة*title^الأسطوانة^الرابعة:333627612:0.000502072
description^-^رسالة*title^الرابعة:80553958:0.000502072
description^-^رسالة*title^الرابعة^والثلاثون:504662249:0.000502072
description^-^رسالة*title^علمية:462776685:0.000502072
description^-^رسالة*title^والثلاثون:325196329:0.000502072
description^-^رسالة*title^والثلاثون^34:162897226:0.000502072
description^-^رسالة*title^ورسائل:111053216:0.000502072
description^-^رسالة*title^ورسائل^علمية:90423455:0.000502072
description^-^ضبط:239271421:-0.000508999
description^-^كتاب.pdf:149091239:-0.00149283
description^-^كتاب.pdf*title^-:216708882:-0.00149283
description^-^كتاب.pdf*title^-^أبحاث:500576646:-0.00149283
description^-^كتاب.pdf*title^34:11047804:0.00071001
description^-^كتاب.pdf*title^34^-:396425161:0.00071001
description^-^كتاب.pdf*title^أبحاث:78389677:-0.00149283
description^-^كتاب.pdf*title^أبحاث^ورسائل:94681931:-0.00149283
description^-^كتاب.pdf*title^الأسطوانة:75797415:-0.00149283
description^-^كتاب.pdf*title^الأسطوانة^الرابعة:222810399:0.00071001
description^-^كتاب.pdf*title^الرابعة:443037221:0.00071001
description^-^كتاب.pdf*title^الرابعة^والثلاثون:11639082:0.00071001
description^-^كتاب.pdf*title^علمية:87062702:-0.00149283
description^-^كتاب.pdf*title^والثلاثون:231148522:0.00215762
description^-^كتاب.pdf*title^والثلاثون^34:386960521:0.00071001
description^-^كتاب.pdf*title^ورسائل:406558819:-0.00149283
description^-^كتاب.pdf*title^ورسائل^علمية:466014556:-0.00149283
description^-^مؤتمر.pdf:380443927:0.000768734
description^-^مؤتمر.pdf*title^-:19657666:0.000768734
description^-^مؤتمر.pdf*title^-^أبحاث:269972822:0.000768734
description^-^مؤتمر.pdf*title^34:225040300:0.000502072
description^-^مؤتمر.pdf*title^34^-:442610457:0.000502072
description^-^مؤتمر.pdf*title^أبحاث:158164349:0.000768734
description^-^مؤتمر.pdf*title^أبحاث^ورسائل:140902299:0.000768734
description^-^مؤتمر.pdf*title^الأسطوانة:155572087:0.000768734
description^-^مؤتمر.pdf*title^الأسطوانة^الرابعة:8820175:0.000502072
description^-^مؤتمر.pdf*title^الرابعة:396980981:0.000502072
description^-^مؤتمر.pdf*title^الرابعة^والثلاثون:225500666:0.000502072
description^-^مؤتمر.pdf*title^علمية:150027390:0.000768734
description^-^مؤتمر.pdf*title^والثلاثون:413498:0.000502072
description^-^مؤتمر.pdf*title^والثلاثون^34:449955929:0.000502072
description^-^مؤتمر.pdf*title^ورسائل:368762035:0.000768734
description^-^مؤتمر.pdf*title^ورسائل^علمية:369595788:0.000768734
description^-^محمد:276296023:-0.00601285
description^-^مقالات.pdf:452719410:-0.0002541
description^-^مقالات.pdf*title^-:70315841:-0.0002541
description^-^مقالات.pdf*title^-^أبحاث:353135061:-0.0002541
description^-^مقالات.pdf*title^34:141740847:0.000502072
description^-^مقالات.pdf*title^34^-:528134042:0.000502072
description^-^مقالات.pdf*title^أبحاث:209091070:-0.0002541
description^-^مقالات.pdf*title^أبحاث^ورسائل:226419480:-0.0002541
description^-^مقالات.pdf*title^الأسطوانة:207539188:-0.0002541
description^-^مقالات.pdf*title^الأسطوانة^الرابعة:94210380:0.000502072
description^-^مقالات.pdf*title^الرابعة:313683574:0.000502072
description^-^مقالات.pdf*title^الرابعة^والثلاثون:141279609:0.000502072
description^-^مقالات.pdf*title^علمية:233447677:-0.0002541
description^-^مقالات.pdf*title^والثلاثون:85808057:0.000502072
description^-^مقالات.pdf*title^والثلاثون^34:533386458:0.000502072
description^-^مقالات.pdf*title^ورسائل:283230256:-0.0002541
description^-^مقالات.pdf*title^ورسائل^علمية:320637199:-0.0002541
description^-الحشيش:205737010:0.000502072
description^-الحشيش*title^-:392153665:0.000502072
description^-الحشيش*title^-^أبحاث:107171029:0.000502072
description^-الحشيش*title^34:454946351:0.000502072
description^-الحشيش*title^34^-:202738330:0.000502072
description^-الحشيش*title^أبحاث:521755902:0.000502072
description^-الحشيش*title^أبحاث^ورسائل:504481304:0.000502072
description^-الحشيش*title^الأسطوانة:523366132:0.000502072
description^-الحشيش*title^الأسطوانة^الرابعة:385002572:0.000502072
description^-الحشيش*title^الرابعة:31279990:0.000502072
description^-الحشيش*title^الرابعة^والثلاثون:453305465:0.000502072
description^-الحشيش*title^علمية:512034301:0.000502072
description^-الحشيش*title^والثلاثون:376600249:0.000502072
description^-الحشيش*title^والثلاثون^34:212201946:0.000502072
description^-الحشيش*title^ورسائل:59696432:0.000502072
description^-الحشيش*title^ورسائل^علمية:7580687:0.000502072
description^-الحشيش^-الكبتاجون):88739821:0.000502072
description^-الحشيش^-الكبتاجون)*title^-:137898720:0.000502072
description^-الحشيش^-الكبتاجون)*title^-^أبحاث:419736692:0.000502072
description^-الحشيش^-الكبتاجون)*title^34:75107982:0.000502072
description^-الحشيش^-الكبتاجون)*title^34^-:326265403:0.000502072
description^-الحشيش^-الكبتاجون)*title^أبحاث:8305759:0.000502072
description^-الحشيش^-الكبتاجون)*title^أبحاث^ورسائل:24520377:0.000502072
description^-الحشيش^-الكبتاجون)*title^الأسطوانة:5639765:0.000502072
description^-الحشيش^-الكبتاجون)*title^الأسطوانة^الرابعة:160779501:0.000502072
description^-الحشيش^-الكبتاجون)*title^الرابعة:515550167:0.000502072
description^-الحشيش^-الكبتاجون)*title^الرابعة^والثلاثون:73598168:0.000502072
description^-الحشيش^-الكبتاجون)*title^علمية:31647068:0.000502072
description^-الحشيش^-الكبتاجون)*title^والثلاثون:152409624:0.000502072
description^-الحشيش^-الكبتاجون)*title^والثلاثون^34:331485563:0.000502072
description^-الحشيش^-الكبتاجون)*title^ورسائل:485033361:0.000502072
description^-الحشيش^-الكبتاجون)*title^ورسائل^علمية:521424046:0.000502072
description^-الرسالة*title^أسطوانات^الرسائل:297997644:0.000562235
description^-الكبتاجون):204589699:0.000502072
description^-الكبتاجون)*title^-:500102350:0.000502072
description^-الكبتاجون)*title^-^أبحاث:217215578:0.000502072
description^-الكبتاجون)*title^34:294441120:0.000502072
description^-الكبتاجون)*title^34^-:109360149:0.000502072
description^-الكبتاجون)*title^أبحاث:361259633:0.000502072
description^-الكبتاجون)*title^أبحاث^ورسائل:343996567:0.000502072
description^-الكبتاجون)*title^الأسطوانة:362860667:0.000502072
description^-الكبتاجون)*title^الأسطوانة^الرابعة:476287683:0.000502072
description^-الكبتاجون)*title^الرابعة:189560313:0.000502072
description^-الكبتاجون)*title^الرابعة^والثلاثون:295033590:0.000502072
description^-الكبتاجون)*title^علمية:336870258:0.000502072
description^-الكبتاجون)*title^والثلاثون:484657206:0.000502072
description^-الكبتاجون)*title^والثلاثون^34:104124245:0.000502072
description^-الكبتاجون)*title^ورسائل:153082815:0.000502072
description^-الكبتاجون)*title^ورسائل^علمية:182620800:0.000502072
description^-الكبتاجون)^بالتوافق:466857404:0.000502072
description^-الكبتاجون)^بالتوافق*title^-:43337219:0.000502072
description^-الكبتاجون)^بالتوافق*title^-^أبحاث:329891991:0.000502072
description^-الكبتاجون)^بالتوافق*title^34:248996461:0.000502072
description^-الكبتاجون)^بالتوافق*title^34^-:434046680:0.000502072
description^-الكبتاجون)^بالتوافق*title^أبحاث:181653692:0.000502072
description^-الكبتاجون)^بالتوافق*title^أبحاث^ورسائل:198920794:0.000502072
description^-الكبتاجون)^بالتوافق*title^الأسطوانة:184246966:0.000502072
description^-الكبتاجون)^بالتوافق*title^الأسطوانة^الرابعة:54009870:0.000502072
description^-الكبتاجون)^بالتوافق*title^الرابعة:337102644:0.000502072
description^-الكبتاجون)^بالتوافق*title^الرابعة^والثلاثون:248408123:0.000502072
description^-الكبتاجون)^بالتوافق*title^علمية:189761983:0.000502072
description^-الكبتاجون)^بالتوافق*title^والثلاثون:62454523:0.000502072
description^-الكبتاجون)^بالتوافق*title^والثلاثون^34:426737048:0.000502072
description^-الكبتاجون)^بالتوافق*title^ورسائل:373582194:0.000502072
description^-الكبتاجون)^بالتوافق*title^ورسائل^علمية:364453965:0.000502072
description^.:231985392:-0.00735142
description^.*title^2:278721961:0.000135104
description^.*title^على:232011299:-0.000828103
description^..:4017443:0.00735224
description^..*title^2:124613216:0.000135104
description^...:529335145:-0.00315013
description^...*title^2:387007026:0.000135143
description^..^بعد:465757649:0.000330045
description^.pdf:11135244:-0.00178393
description^.pdf*title^-:534177043:-0.00163771
description^.pdf*title^-^أبحاث:250241927:-0.000575497
description^.pdf*title^34:328515965:0.000502072
description^.pdf*title^34^-:77374920:0.000502072
description^.pdf*title^أبحاث:395342764:-0.000575497
description^.pdf*title^أبحاث^ورسائل:379119946:-0.000788113
description^.pdf*title^الأسطوانة:397984166:-0.00154128
description^.pdf*title^الأسطوانة^الرابعة:511410974:-0.000407934
description^.pdf*title^الرابعة:156525604:-0.000407934
description^.pdf*title^الرابعة^والثلاثون:328059691:0.000502072
description^.pdf*title^علمية:369896111:-0.000575497
description^.pdf*title^والثلاثون:519789035:0.000840937
description^.pdf*title^والثلاثون^34:70049416:0.000502072
description^.pdf*title^ورسائل:185059938:-0.000575497
description^.pdf*title^ورسائل^علمية:150635357:-0.000575497
description^.pdf^8473:469235553:0.000502072
description^.pdf^8473*title^-:16078148:0.000502072
description^.pdf^8473*title^-^أبحاث:298439632:0.000502072
description^.pdf^8473*title^34:213348650:0.000502072
description^.pdf^8473*title^34^-:465507743:0.000502072
description^.pdf^8473*title^أبحاث:145998843:0.000502072
description^.pdf^8473*title^أبحاث^ورسائل:163272989:0.000502072
description^.pdf^8473*title^الأسطوانة:144404977:0.000502072
description^.pdf^8473*title^الأسطوانة^الرابعة:22557513:0.000502072
description^.pdf^8473*title^الرابعة:376951923:0.000502072
description^.pdf^8473*title^الرابعة^والثلاثون:212761468:0.000502072
description^.pdf^8473*title^علمية:154114808:0.000502072
description^.pdf^8473*title^والثلاثون:30992828:0.000502072
description^.pdf^8473*title^والثلاثون^34:453996255:0.000502072
description^.pdf^8473*title^ورسائل:337934901:0.000502072
description^.pdf^8473*title^ورسائل^علمية:400110346:0.000502072
description^/:325710725:0.00738527
description^/*title^السيسي:503286542:0.000172641
description^/*title^جيش:521618237:0.0033554
description^/^عبد:406301198:-0.00377661
description^01COLON35*title^بواسطة:526533566:-0.000314015
description^01COLON35^علموا*title^2:19624384:7.01639e-05
description^02COLON19^مميز*title^jodallah:300844530:-7.31042e-05
description^06COLON06^في*title^jodallah^_____:172633480:2.11691e-05
description^09COLON32^فصل*title^mohammed:171402388:-4.9221e-05
description^09COLON49^التصفية*title^2:197327960:0.000147893
description^1:374617453:-0.000665602
description^1*title^-:457122400:-0.0044079
description^1*title^1:394069743:-0.00211372
description^1*title^من:150909063:0.00587153
description^1-:414240689:-0.00958047
description^101:374617553:-0.000307636
description^1063:374618515:0.000502072
description^1063*title^-:288987806:0.000502072
description^1063*title^-^أبحاث:334858:0.000502072
description^1063*title^34:494649072:0.000502072
description^1063*title^34^-:175364677:0.000502072
description^1063*title^أبحاث:427756577:0.000502072
description^1063*title^أبحاث^ورسائل:410490567:0.000502072
description^1063*title^الأسطوانة:425180715:0.000502072
description^1063*title^الأسطوانة^الرابعة:278199443:0.000502072
description^1063*title^الرابعة:129702825:0.000502072
description^1063*title^الرابعة^والثلاثون:493008038:0.000502072
description^1063*title^علمية:417551650:0.000502072
description^1063*title^والثلاثون:269756006:0.000502072
description^1063*title^والثلاثون^34:180592901:0.000502072
description^1063*title^ورسائل:99137007:0.000502072
description^1063*title^ورسائل^علمية:102104272:0.000502072
description^1063^-:73523637:0.000502072
description^1063^-*title^-:330921752:0.000502072
description^1063^-*title^-^أبحاث:42332556:0.000502072
description^1063^-*title^34:536564598:0.000502072
description^1063^-*title^34^-:150157251:0.000502072
description^1063^-*title^أبحاث:469754279:0.000502072
description^1063^-*title^أبحاث^ورسائل:452426561:0.000502072
description^1063^-*title^الأسطوانة:467096493:0.000502072
description^1063^-*title^الأسطوانة^الرابعة:303304981:0.000502072
description^1063^-*title^الرابعة:87815727:0.000502072
description^1063^-*title^الرابعة^والثلاثون:534927648:0.000502072
description^1063^-*title^علمية:442742948:0.000502072
description^1063^-*title^والثلاثون:311741408:0.000502072
description^1063^-*title^والثلاثون^34:138628227:0.000502072
description^1063^-*title^ورسائل:124278889:0.000502072
description^1063^-*title^ورسائل^علمية:76878166:0.000502072
description^1089:374618541:0.000502072
description^1089*title^-:456782752:0.000502072
description^1089*title^-^أبحاث:168129844:0.000502072
description^1089*title^34:393992142:0.000502072
description^1089*title^34^-:7582587:0.000502072
description^1089*title^أبحاث:327116063:0.000502072
description^1089*title^أبحاث^ورسائل:309854201:0.000502072
description^1089*title^الأسطوانة:324523797:0.000502072
description^1089*title^الأسطوانة^الرابعة:445945261:0.000502072
description^1089*title^الرابعة:230388375:0.000502072
description^1089*title^الرابعة^والثلاثون:392355224:0.000502072
description^1089*title^علمية:316881948:0.000502072
description^1089*title^والثلاثون:437538648:0.000502072
description^1089*title^والثلاثون^34:12830779:0.000502072
description^1089*title^ورسائل:266919121:0.000502072
description^1089*title^ورسائل^علمية:202741230:0.000502072
description^1089^م:470906183:0.000502072
description^1089^م*title^-:517252658:0.000502072
description^1089^م*title^-^أبحاث:266870950:0.000502072
description^1089^م*title^34:311853660:0.000502072
description^1089^م*title^34^-:94299881:0.000502072
description^1089^م*title^أبحاث:378679437:0.000502072
description^1089^م*title^أبحاث^ورسائل:396012139:0.000502072
description^1089^م*title^الأسطوانة:381321863:0.000502072
description^1089^م*title^الأسطوانة^الرابعة:528072767:0.000502072
description^1089^م*title^الرابعة:139863813:0.000502072
description^1089^م*title^الرابعة^والثلاثون:311396362:0.000502072
description^1089^م*title^علمية:386820494:0.000502072
description^1089^م*title^والثلاثون:536419018:0.000502072
description^1089^م*title^والثلاثون^34:86941097:0.000502072
description^1089^م*title^ورسائل:168134979:0.000502072
description^1089^م*title^ورسائل^علمية:167297148:0.000502072
description^11:374617463:-6.12339e-06
description^1200م:241353743:0.000502072
description^1200م*title^-:483761002:0.000502072
description^1200م*title^-^أبحاث:233381374:0.000502072
description^1200م*title^34:278380292:0.000502072
description^1200م*title^34^-:127916977:0.000502072
description^1200م*title^أبحاث:345181653:0.000502072
description^1200م*title^أبحاث^ورسائل:362518323:0.000502072
description^1200م*title^الأسطوانة:347848671:0.000502072
description^1200م*title^الأسطوانة^الرابعة:494468455:0.000502072
description^1200م*title^الرابعة:173480541:0.000502072
description^1200م*title^الرابعة^والثلاثون:277787986:0.000502072
description^1200م*title^علمية:353326294:0.000502072
description^1200م*title^والثلاثون:502802322:0.000502072
description^1200م*title^والثلاثون^34:120561905:0.000502072
description^1200م*title^ورسائل:134525979:0.000502072
description^1200م*title^ورسائل^علمية:200932644:0.000502072
description^1200م^-:383602241:0.000502072
description^1200م^-*title^-:399313060:0.000502072
description^1200م^-*title^-^أبحاث:116493872:0.000502072
description^1200م^-*title^34:462367946:0.000502072
description^1200م^-*title^34^-:210192511:0.000502072
description^1200م^-*title^أبحاث:529243675:0.000502072
description^1200م^-*title^أبحاث^ورسائل:511902973:0.000502072
description^1200م^-*title^الأسطوانة:530787345:0.000502072
description^1200م^-*title^الأسطوانة^الرابعة:375418537:0.000502072
description^1200م^-*title^الرابعة:21989779:0.000502072
description^1200م^-*title^الرابعة^والثلاثون:462825116:0.000502072
description^1200م^-*title^علمية:504874776:0.000502072
description^1200م^-*title^والثلاثون:383824988:0.000502072
description^1200م^-*title^والثلاثون^34:204944191:0.000502072
description^1200م^-*title^ورسائل:52176853:0.000502072
description^1200م^-*title^ورسائل^علمية:14773994:0.000502072
description^1259:374618711:0.000502072
description^1259*title^-:356052482:0.000502072
description^1259*title^-^أبحاث:67397782:0.000502072
description^1259*title^34:427477612:0.000502072
description^1259*title^34^-:242396889:0.000502072
description^1259*title^أبحاث:494827709:0.000502072
description^1259*title^أبحاث^ورسائل:477553243:0.000502072
description^1259*title^الأسطوانة:492227255:0.000502072
description^1259*title^الأسطوانة^الرابعة:345344015:0.000502072
description^1259*title^الرابعة:62549813:0.000502072
description^1259*title^الرابعة^والثلاثون:425967674:0.000502072
description^1259*title^علمية:484581822:0.000502072
description^1259*title^والثلاثون:336941818:0.000502072
description^1259*title^والثلاثون^34:247649689:0.000502072
description^1259*title^ورسائل:32096627:0.000502072
description^1259*title^ورسائل^علمية:34900044:0.000502072
description^1259^-:181474153:0.000502072
description^1259^-*title^-:412006076:0.000502072
description^1259^-*title^-^أبحاث:162672680:0.000502072
description^1259^-*title^34:348951250:0.000502072
description^1259^-*title^34^-:63239783:0.000502072
description^1259^-*title^أبحاث:281550851:0.000502072
description^1259^-*title^أبحاث^ورسائل:297843429:0.000502072
description^1259^-*title^الأسطوانة:283152905:0.000502072
description^1259^-*title^الأسطوانة^الرابعة:421777585:0.000502072
description^1259^-*title^الرابعة:235681675:0.000502072
description^1259^-*title^الرابعة^والثلاثون:349542532:0.000502072
description^1259^-*title^علمية:290748672:0.000502072
description^1259^-*title^والثلاثون:430115396:0.000502072
description^1259^-*title^والثلاثون^34:57969959:0.000502072
description^1259^-*title^ورسائل:207591885:0.000502072
description^1259^-*title^ورسائل^علمية:262328562:0.000502072
description^1282:374618734:0.000502072
description^1282*title^-:473482205:0.000502072
description^1282*title^-^أبحاث:218383689:0.000502072
description^1282*title^34:276490163:0.000502072
description^1282*title^34^-:124945158:0.000502072
description^1282*title^أبحاث:343823714:0.000502072
description^1282*title^أبحاث^ورسائل:360107908:0.000502072
description^1282*title^الأسطوانة:341239656:0.000502072
description^1282*title^الأسطوانة^الرابعة:496346576:0.000502072
description^1282*title^الرابعة:179978986:0.000502072
description^1282*title^الرابعة^والثلاثون:274984421:0.000502072
description^1282*title^علمية:367135841:0.000502072
description^1282*title^والثلاثون:487948069:0.000502072
description^1282*title^والثلاثون^34:130218054:0.000502072
description^1282*title^ورسائل:149548204:0.000502072
description^1282*title^ورسائل^علمية:185902483:0.000502072
description^1282^هـ:476785238:0.000502072
description^1282^هـ*title^-:438082965:0.000502072
description^1282^هـ*title^-^أبحاث:186653441:0.000502072
description^1282^هـ*title^34:375306747:0.000502072
description^1282^هـ*title^34^-:22469966:0.000502072
description^1282^هـ*title^أبحاث:307890986:0.000502072
description^1282^هـ*title^أبحاث^ورسائل:324178380:0.000502072
description^1282^هـ*title^الأسطوانة:309508384:0.000502072
description^1282^هـ*title^الأسطوانة^الرابعة:464649112:0.000502072
description^1282^هـ*title^الرابعة:211688610:0.000502072
description^1282^هـ*title^الرابعة^والثلاثون:373797805:0.000502072
description^1282^هـ*title^علمية:331764265:0.000502072
description^1282^هـ*title^والثلاثون:456204653:0.000502072
description^1282^هـ*title^والثلاثون^34:31893006:0.000502072
description^1282^هـ*title^ورسائل:248361700:0.000502072
description^1282^هـ*title^ورسائل^علمية:221314011:0.000502072
description^1319:374618771:0.000502072
description^1319*title^-:288820638:0.000502072
description^1319*title^-^أبحاث:756490:0.000502072
description^1319*title^34:494217712:0.000502072
description^1319*title^34^-:175983941:0.000502072
description^1319*title^أبحاث:426875681:0.000502072
description^1319*title^أبحاث^ورسائل:410583495:0.000502072
description^1319*title^الأسطوانة:425273643:0.000502072
description^1319*title^الأسطوانة^الرابعة:278555539:0.000502072
description^1319*title^الرابعة:129338537:0.000502072
description^1319*title^الرابعة^والثلاثون:493626278:0.000502072
description^1319*title^علمية:418234914:0.000502072
description^1319*title^والثلاثون:270184806:0.000502072
description^1319*title^والثلاثون^34:181220869:0.000502072
description^1319*title^ورسائل:98968303:0.000502072
description^1319*title^ورسائل^علمية:102460368:0.000502072
description^1319^-:247389877:0.000502072
description^1319^-*title^-:64466456:0.000502072
description^1319^-*title^-^أبحاث:317401228:0.000502072
description^1319^-*title^34:261458550:0.000502072
description^1319^-*title^34^-:413003459:0.000502072
description^1319^-*title^أبحاث:194066599:0.000502072
description^1319^-*title^أبحاث^ورسائل:177840705:0.000502072
description^1319^-*title^الأسطوانة:196709037:0.000502072
description^1319^-*title^الأسطوانة^الرابعة:41601045:0.000502072
description^1319^-*title^الرابعة:357904175:0.000502072
description^1319^-*title^الرابعة^والثلاثون:260866080:0.000502072
description^1319^-*title^علمية:168649124:0.000502072
description^1319^-*title^والثلاثون:49943264:0.000502072
description^1319^-*title^والثلاثون^34:405640579:0.000502072
description^1319^-*title^ورسائل:386302313:0.000502072
description^1319^-*title^ورسائل^علمية:352045142:0.000502072
description^1332:374618784:0.000502072
description^1332*title^-:238514455:0.000502072
description^1332*title^-^أبحاث:520877955:0.000502072
description^1332*title^34:41244025:0.000502072
description^1332*title^34^-:360526284:0.000502072
description^1332*title^أبحاث:108128168:0.000502072
description^1332*title^أبحاث^ورسائل:125402446:0.000502074
description^1332*title^الأسطوانة:106517922:0.000502072
description^1332*title^الأسطوانة^الرابعة:261756698:0.000502072
description^1332*title^الرابعة:414576672:0.000707102
description^1332*title^الرابعة^والثلاثون:40656687:0.000502072
description^1332*title^علمية:133021355:0.000502072
description^1332*title^والثلاثون:253414895:0.000502072
description^1332*title^والثلاثون^34:365775500:0.000502072
description^1332*title^ورسائل:451305062:0.000502072
description^1332*title^ورسائل^علمية:421205849:0.000502072
description^1332^هـ:263279552:0.000502072
description^1332^هـ*title^-:478801847:0.000502072
description^1332^هـ*title^-^أبحاث:229992739:0.000502072
description^1332^هـ*title^34:281791449:0.000502072
description^1332^هـ*title^34^-:130264940:0.000502072
description^1332^هـ*title^أبحاث:349141256:0.000502072
description^1332^هـ*title^أبحاث^ورسائل:365421550:0.000502072
description^1332^هـ*title^الأسطوانة:350735106:0.000502072
description^1332^هـ*title^الأسطوانة^الرابعة:488933818:0.000502072
description^1332^هـ*title^الرابعة:168521344:0.000502072
description^1332^هـ*title^الرابعة^والثلاثون:282247567:0.000502072
description^1332^هـ*title^علمية:357769227:0.000502072
description^1332^هـ*title^والثلاثون:497308495:0.000502072
description^1332^هـ*title^والثلاثون^34:125031468:0.000502072
description^1332^هـ*title^ورسائل:140034246:0.000502072
description^1332^هـ*title^ورسائل^علمية:195398137:0.000502072
description^14:374617466:-0.000277461
description^1434هــ*title^الحق:19208871:0.00022308
description^1434هــ^برنامج*title^-:234188709:-0.000481085
description^15م:50489050:0.000502072
description^15م):163421852:0.000502072
description^15م)*title^-:422549347:0.000502072
description^15م)*title^-^أبحاث:135467511:0.000502072
description^15م)*title^34:359510797:0.000502072
description^15م)*title^34^-:40228792:0.000502072
description^15م)*title^أبحاث:292094428:0.000502072
description^15م)*title^أبحاث^ورسائل:274832186:0.000502072
description^15م)*title^الأسطوانة:289518550:0.000502072
description^15م)*title^الأسطوانة^الرابعة:411234670:0.000502072
description^15م)*title^الرابعة:263001684:0.000502072
description^15م)*title^الرابعة^والثلاثون:359971163:0.000502072
description^15م)*title^علمية:284514527:0.000502072
description^15م)*title^والثلاثون:402795419:0.000502072
description^15م)*title^والثلاثون^34:47557880:0.000502072
description^15م)*title^ورسائل:234797074:0.000502072
description^15م)*title^ورسائل^علمية:235139373:0.000502072
description^15م)^دراسة:241871560:0.000502072
description^15م)^دراسة*title^-:289792047:0.000502072
description^15م)^دراسة*title^-^أبحاث:7956155:0.000502072
description^15م)^دراسة*title^34:487048257:0.000502072
description^15م)^دراسة*title^34^-:168796404:0.000502072
description^15م)^دراسة*title^أبحاث:419657360:0.000502072
description^15م)^دراسة*title^أبحاث^ورسائل:403434614:0.000502072
description^15م)^دراسة*title^الأسطوانة:422298778:0.000502072
description^15م)^دراسة*title^الأسطوانة^الرابعة:283674146:0.000502072
description^15م)^دراسة*title^الرابعة:130507032:0.000502072
description^15م)^دراسة*title^الرابعة^والثلاثون:488558103:0.000502072
description^15م)^دراسة*title^علمية:413085587:0.000502072
description^15م)^دراسة*title^والثلاثون:275274967:0.000502072
description^15م)^دراسة*title^والثلاثون^34:180345780:0.000502072
description^15م)^دراسة*title^ورسائل:93638494:0.000502072
description^15م)^دراسة*title^ورسائل^علمية:107578977:0.000502072
description^15م*title^-:510185945:0.000502072
description^15م*title^-^أبحاث:257185613:0.000502072
description^15م*title^34:304805303:0.000502072
description^15م*title^34^-:86151426:0.000502072
description^15م*title^أبحاث:372131686:0.000502072
description^15م*title^أبحاث^ورسائل:388423040:0.000502072
description^15م*title^الأسطوانة:369554796:0.000502072
description^15م*title^الأسطوانة^الرابعة:533051348:0.000502072
description^15م*title^الرابعة:149573870:0.000502072
description^15م*title^الرابعة^والثلاثون:305397729:0.000502072
description^15م*title^علمية:397549157:0.000502072
description^15م*title^والثلاثون:524643617:0.000502072
description^15م*title^والثلاثون^34:93514306:0.000502072
description^15م*title^ورسائل:179961512:0.000502072
description^15م*title^ورسائل^علمية:155498391:0.000502072
description^15م^):173724128:0.000502072
description^15م^)*title^-:72833879:0.000502072
description^15م^)*title^-^أبحاث:359390659:0.000502072
description^15م^)*title^34:135626553:0.000502072
description^15م^)*title^34^-:522001292:0.000502072
description^15م^)*title^أبحاث:202493416:0.000502072
description^15م^)*title^أبحاث^ورسائل:219764494:0.000502072
description^15م^)*title^الأسطوانة:205094882:0.000502072
description^15م^)*title^الأسطوانة^الرابعة:100285786:0.000502072
description^15م^)*title^الرابعة:316004960:0.000502072
description^15م^)*title^الرابعة^والثلاثون:135034223:0.000502072
description^15م^)*title^علمية:227382507:0.000502072
description^15م^)*title^والثلاثون:91940783:0.000502072
description^15م^)*title^والثلاثون^34:531456204:0.000502072
description^15م^)*title^ورسائل:277247014:0.000502072
description^15م^)*title^ورسائل^علمية:326843673:0.000502072
description^16-9-2011^New*title^all:421282688:-0.00269342
description^161:374617613:0.000502072
description^161*title^-:457059968:0.000502072
description^161*title^-^أبحاث:167946260:0.000502072
description^161*title^34:394005230:0.000502072
description^161*title^34^-:7630427:0.000502072
description^161*title^أبحاث:326678591:0.000502072
description^161*title^أبحاث^ورسائل:309338841:0.000502072
description^161*title^الأسطوانة:324012597:0.000502072
description^161*title^الأسطوانة^الرابعة:445859981:0.000502072
description^161*title^الرابعة:230469559:0.000502072
description^161*title^الرابعة^والثلاثون:392495288:0.000502072
description^161*title^علمية:316989756:0.000502072
description^161*title^والثلاثون:437490296:0.000502072
description^161*title^والثلاثون^34:12850459:0.000502072
description^161*title^ورسائل:267321841:0.000502072
description^161*title^ورسائل^علمية:202524878:0.000502072
description^161^-:102645319:0.000502072
description^161^-*title^-:3354930:0.000502072
description^161^-*title^-^أبحاث:286242726:0.000502072
description^161^-*title^34:208737628:0.000502072
description^161^-*title^34^-:460943849:0.000502072
description^161^-*title^أبحاث:141928333:0.000502072
description^161^-*title^أبحاث^ورسائل:159202667:0.000502072
description^161^-*title^الأسطوانة:140318087:0.000502072
description^161^-*title^الأسطوانة^الرابعة:27154239:0.000502072
description^161^-*title^الرابعة:380743685:0.000502072
description^161^-*title^الرابعة^والثلاثون:208150282:0.000502072
description^161^-*title^علمية:166329998:0.000502072
description^161^-*title^والثلاثون:18779594:0.000502072
description^161^-*title^والثلاثون^34:466160297:0.000502072
description^161^-*title^ورسائل:350363203:0.000502072
description^161^-*title^ورسائل^علمية:387929980:0.000502072
description^16COLON59*title^_____^2:457967869:-0.000584754
description^18/4/2010)*title^الشيخ^راشد:165486072:8.47289e-05
description^18/4/2010)*title^محمود^مرعي:221329018:0.000939909
description^1843-:448129905:0.000502072
description^1843-*title^-:365861396:0.000502072
description^1843-*title^-^أبحاث:82975872:0.000502072
description^1843-*title^34:428654202:0.000502072
description^1843-*title^34^-:243587791:0.000502072
description^1843-*title^أبحاث:495455403:0.000502072
description^1843-*title^أبحاث^ورسائل:478189133:0.000502072
description^1843-*title^الأسطوانة:497073825:0.000502072
description^1843-*title^الأسطوانة^الرابعة:342096921:0.000502072
description^1843-*title^الرابعة:55319331:0.000502072
description^1843-*title^الرابعة^والثلاثون:429241388:0.000502072
description^1843-*title^علمية:471094696:0.000502072
description^1843-*title^والثلاثون:350430956:0.000502072
description^1843-*title^والثلاثون^34:238330255:0.000502072
description^1843-*title^ورسائل:18855269:0.000502072
description^1843-*title^ورسائل^علمية:48430170:0.000502072
description^1843-^1865م:494333710:0.000502072
description^1843-^1865م*title^-:412445693:0.000502072
description^1843-^1865م*title^-^أبحاث:162131305:0.000502072
description^1843-^1865م*title^34:349654931:0.000502072
description^1843-^1865م*title^34^-:64957222:0.000502072
description^1843-^1865م*title^أبحاث:282328386:0.000502072
description^1843-^1865م*title^أبحاث^ورسائل:299591588:0.000502072
description^1843-^1865م*title^الأسطوانة:284905288:0.000502072
description^1843-^1865م*title^الأسطوانة^الرابعة:423103984:0.000502072
description^1843-^1865م*title^الرابعة:236448458:0.000502072
description^1843-^1865م*title^الرابعة^والثلاثون:349062597:0.000502072
description^1843-^1865م*title^علمية:290432065:0.000502072
description^1843-^1865م*title^والثلاثون:431544069:0.000502072
description^1843-^1865م*title^والثلاثون^34:57626726:0.000502072
description^1843-^1865م*title^ورسائل:205800588:0.000502072
description^1843-^1865م*title^ورسائل^علمية:263785907:0.000502072
description^1865م:218539105:0.000502072
description^1865م*title^-:182189124:0.000502072
description^1865م*title^-^أبحاث:468155088:0.000502072
description^1865م*title^34:110745642:0.000502072
description^1865م*title^34^-:294763679:0.000502072
description^1865م*title^أبحاث:43870971:0.000502072
description^1865م*title^أبحاث^ورسائل:60157981:0.000502072
description^1865م*title^الأسطوانة:45471985:0.000502072
description^1865م*title^الأسطوانة^الرابعة:192322121:0.000502072
description^1865م*title^الرابعة:475626867:0.000502072
description^1865م*title^الرابعة^والثلاثون:109105788:0.000502072
description^1865م*title^علمية:50410488:0.000502072
description^1865م*title^والثلاثون:200687804:0.000502072
description^1865م*title^والثلاثون^34:287426527:0.000502072
description^1865م*title^ورسائل:504025909:0.000502072
description^1865م*title^ورسائل^علمية:502766090:0.000502072
description^1865م^-:199456587:0.000502072
description^1865م^-*title^-:180089830:0.000502072
description^1865م^-*title^-^أبحاث:461862258:0.000502072
description^1865م^-*title^34:117036936:0.000502072
description^1865م^-*title^34^-:301052733:0.000502072
description^1865م^-*title^أبحاث:50160985:0.000502072
description^1865م^-*title^أبحاث^ورسائل:66453439:0.000502072
description^1865م^-*title^الأسطوانة:47568723:0.000502072
description^1865م^-*title^الأسطوانة^الرابعة:186029547:0.000502072
description^1865م^-*title^الرابعة:473526993:0.000502072
description^1865م^-*title^الرابعة^والثلاثون:115400158:0.000502072
description^1865م^-*title^علمية:56704090:0.000502072
description^1865م^-*title^والثلاثون:194400030:0.000502072
description^1865م^-*title^والثلاثون^34:289523837:0.000502072
description^1865م^-*title^ورسائل:510319767:0.000502072
description^1865م^-*title^ورسائل^علمية:496473512:0.000502072
description^19:374617471:-0.000544946
description^1902:374619354:0.000502072
description^1902*title^-:137688025:0.000502072
description^1902*title^-^أبحاث:419984717:0.000502072
description^1902*title^34:74897335:0.000502072
description^1902*title^34^-:327070466:0.000502072
description^1902*title^أبحاث:7497062:0.000502072
description^1902*title^أبحاث^ورسائل:24838016:0.000502072
description^1902*title^الأسطوانة:5953388:0.000502072
description^1902*title^الأسطوانة^الرابعة:161060308:0.000502072
description^1902*title^الرابعة:515273454:0.000502072
description^1902*title^الرابعة^والثلاثون:74440161:0.000502072
description^1902*title^علمية:32390245:0.000502072
description^1902*title^والثلاثون:152653601:0.000502072
description^1902*title^والثلاثون^34:332318786:0.000502072
description^1902*title^ورسائل:484826280:0.000502072
description^1902*title^ورسائل^علمية:521704855:0.000502072
description^1902^-:431530720:0.000502072
description^1902^-*title^-:352804439:0.000502072
description^1902^-*title^-^أبحاث:71030979:0.000502072
description^1902^-*title^34:423983673:0.000502072
description^1902^-*title^34^-:239935116:0.000502072
description^1902^-*title^أبحاث:490850536:0.000502072
description^1902^-*title^أبحاث^ورسائل:474567182:0.000502072
description^1902^-*title^الأسطوانة:493452002:0.000502072
description^1902^-*title^الأسطوانة^الرابعة:346699866:0.000502072
description^1902^-*title^الرابعة:59105120:0.000502072
description^1902^-*title^الرابعة^والثلاثون:425488495:0.000502072
description^1902^-*title^علمية:484282859:0.000502072
description^1902^-*title^والثلاثون:338354863:0.000502072
description^1902^-*title^والثلاثون^34:251487692:0.000502072
description^1902^-*title^ورسائل:30830886:0.000502072
description^1902^-*title^ورسائل^علمية:36386841:0.000502072
description^1914م:502483861:0.000502072
description^1914م*title^-:307282808:0.000502072
description^1914م*title^-^أبحاث:57427436:0.000502072
description^1914م*title^34:504555286:0.000502072
description^1914م*title^34^-:152732579:0.000502072
description^1914م*title^أبحاث:437671367:0.000502072
description^1914م*title^أبحاث^ورسائل:455003937:0.000502072
description^1914م*title^الأسطوانة:440330189:0.000502072
description^1914م*title^الأسطوانة^الرابعة:335390069:0.000502072
description^1914م*title^الرابعة:80888399:0.000502072
description^1914م*title^الرابعة^والثلاثون:504098112:0.000502072
description^1914م*title^علمية:462032068:0.000502072
description^1914م*title^والثلاثون:326991744:0.000502072
description^1914م*title^والثلاثون^34:162199779:0.000502072
description^1914م*title^ورسائل:109177865:0.000502072
description^1914م*title^ورسائل^علمية:92054838:0.000502072
description^1914م^-:241395119:0.000502072
description^1914م^-*title^-:500574858:0.000502072
description^1914م^-*title^-^أبحاث:216706078:0.000502072
description^1914م^-*title^34:294915812:0.000502072
description^1914م^-*title^34^-:110914129:0.000502072
description^1914م^-*title^أبحاث:361806901:0.000502072
description^1914م^-*title^أبحاث^ورسائل:345515731:0.000502072
description^1914م^-*title^الأسطوانة:364383807:9.73894e-05
description^1914م^-*title^الأسطوانة^الرابعة:477842567:0.000502072
description^1914م^-*title^الرابعة:190098365:0.000502072
description^1914م^-*title^الرابعة^والثلاثون:294454450:0.000502072
description^1914م^-*title^علمية:336389430:0.000502072
description^1914م^-*title^والثلاثون:486250098:0.000502072
description^1914م^-*title^والثلاثون^34:103551249:0.000502072
description^1914م^-*title^ورسائل:151455227:0.000502072
description^1914م^-*title^ورسائل^علمية:184175812:0.000502072
description^1991:374619443:-0.00394974
description^1991*title^-:288583614:-0.00394974
description^1991*title^all^sermons:259057529:-0.000527792
description^1991*title^indescribable^gift:16708003:-0.000589207
description^1991^to*title^12-11-2010_2-1^الروح:130153733:-0.000471794
description^1991^الي*taper^مكاري^03-12-2010_4-روح:141450383:8.4761e-05
description^1991^الي*title^12-11-2010_2-1:103270650:-4.03558e-05
description^1^أحسن*title^-^رمضان:158111582:0.000147893
description^2:374617454:-0.00431735
description^2*title^-:473900253:3.37837e-07
description^2*title^1:276627538:0.000410244
description^2*title^2:276627539:0.00704137
description^2*title^7:276627540:-0.00940414
description^2*title^برنامج:158860864:0.00113833
description^2*title^من:268351034:0.00504835
description^2-:475558585:-0.00745013
description^2-^Be*taper^Makary_ابونا:38674621:-0.000549794
description^20:374617472:0.000268814
description^2005^الي*title^Sermons:164743147:-0.000187891
description^2010:374619462:0.00193704
description^2010*title^-:70471109:0.00193704
description^2010*title^29-10-2010_الأشياء^الموهوبة:292089386:-4.9221e-05
description^2010*title^by^GOD:361215364:1.4967e-05
description^2010^and*title^15-10-2010_6-^هتاف:512312093:-0.00154485
description^2010^و*title^2007:42105595:-5.70692e-05
description^2010^و*title^2008:42105594:-6.12881e-05
description^2010^و*title^Grace_النعمة:99628235:-0.000481085
description^2011^و*title^march^2011:474745557:-2.8279e-05
description^2014:374619466:0.00140509
description^22/4/2010)^الحصون*title^غيرت^التاريخ:152465910:0.000196259
description^23:374617475:-0.00191802
description^234:374617686:0.000502072
description^234*title^-:339653013:0.000502072
description^234*title^-^أبحاث:84031233:0.000502072
description^234*title^34:410818043:0.000502072
description^234*title^34^-:259322190:0.000502072
description^234*title^أبحاث:477636394:0.000502072
description^234*title^أبحاث^ورسائل:493927884:0.000502072
description^234*title^الأسطوانة:475043104:0.000502072
description^234*title^الأسطوانة^الرابعة:362010520:0.000502072
description^234*title^الرابعة:45887650:0.000502072
description^234*title^الرابعة^والثلاثون:409313197:0.000502072
description^234*title^علمية:501513769:0.000502072
description^234*title^والثلاثون:353570157:0.000502072
description^234*title^والثلاثون^34:264538638:0.000502072
description^234*title^ورسائل:15703780:0.000502072
description^234*title^ورسائل^علمية:51566555:0.000502072
description^234^هـ:184450718:0.000502072
description^234^هـ*title^-:68053581:0.000502072
description^234^هـ*title^-^أبحاث:355658969:0.000502072
description^234^هـ*title^34:139218467:0.000502072
description^234^هـ*title^34^-:524561046:0.000502072
description^234^هـ*title^أبحاث:206109938:0.000502072
description^234^هـ*title^أبحاث^ورسائل:222324244:0.000502072
description^234^هـ*title^الأسطوانة:207638264:0.000502072
description^234^هـ*title^الأسطوانة^الرابعة:94571584:0.000502072
description^234^هـ*title^الرابعة:311225210:0.000502072
description^234^هـ*title^الرابعة^والثلاثون:139805813:0.000502072
description^234^هـ*title^علمية:232039921:0.000502072
description^234^هـ*title^والثلاثون:86234805:0.000502072
description^234^هـ*title^والثلاثون^34:536105430:0.000502072
description^234^هـ*title^ورسائل:283067708:0.000502072
description^234^هـ*title^ورسائل^علمية:320998403:0.000502072
description^26:374617478:6.19879e-05
description^26*title-alt-script^في:389820778:-0.000543899
description^26*title^al-Kuttab;^ou,:364115919:8.27625e-05
description^26^cm*title-alt-script^الجلساء^في:272694201:-0.000221764
description^27:374617479:6.19879e-05
description^29-4-2011*title^fathermakary:322184003:1.4967e-05
description^2^حنان*title^فتنة:2874499:0.000410096
description^3:374617455:-0.00339776
description^3*title^-:490677578:-0.00380708
description^3*title^1:293405125:0.000410244
description^3*title^3:293405127:0.00695529
description^3*title^الشيخ:90325841:-0.00229205
description^3*title^من:251574189:-0.000683015
description^3-:523563538:-0.0071767
description^30:374617482:-0.00437612
description^34:374617486:8.38508e-05
description^34*title^-:473921149:0.000420122
description^34*title^-^أبحاث:218362089:0.000420122
description^34*title^34:276648467:0.00123174
description^34*title^34^-:125122214:0.000502072
description^34*title^أبحاث:343531714:0.000420122
description^34*title^أبحاث^ورسائل:359758372:0.000502072
description^34*title^الأسطوانة:340873928:0.000420122
description^34*title^الأسطوانة^الرابعة:496111728:0.000502072
description^34*title^الرابعة:180221770:0.000502072
description^34*title^الرابعة^والثلاثون:275011653:0.000502072
description^34*title^علمية:367376833:0.000420122
description^34*title^والثلاثون:487770757:0.000502072
description^34*title^والثلاثون^34:130371046:0.000502072
description^34*title^ورسائل:149838092:0.000420122
description^34*title^ورسائل^علمية:185798707:0.000420122
description^34^-:312089796:0.000502072
description^34^-*title^-:70545531:0.000502072
description^34^-*title^-^أبحاث:352909039:0.000502072
description^34^-*title^34:141972501:0.000502072
description^34^-*title^34^-:528363680:0.000502072
description^34^-*title^أبحاث:208856772:0.000502072
description^34^-*title^أبحاث^ورسائل:226130978:0.000502072
description^34^-*title^الأسطوانة:207246542:0.000502072
description^34^-*title^الأسطوانة^الرابعة:93918838:0.000502072
description^34^-*title^الرابعة:313979212:0.000502072
description^34^-*title^الرابعة^والثلاثون:141516355:0.000502072
description^34^-*title^علمية:233750471:0.000502072
description^34^-*title^والثلاثون:85576835:0.000502072
description^34^-*title^والثلاثون^34:533613536:0.000502072
description^34^-*title^ورسائل:283467530:0.000502072
description^34^-*title^ورسائل^علمية:320345653:0.000502072
description^382:374617834:0.000502072
description^382*title^-:406669993:0.000502072
description^382*title^-^أبحاث:151112765:0.000502072
description^382*title^34:343895751:0.000502072
description^382*title^34^-:58133106:0.000502072
description^382*title^أبحاث:276552726:0.000502072
description^382*title^أبحاث^ورسائل:292767472:0.000502072
description^382*title^الأسطوانة:273903132:0.000502072
description^382*title^الأسطوانة^الرابعة:428879012:0.000502072
description^382*title^الرابعة:247450526:0.000502072
description^382*title^الرابعة^والثلاثون:342254737:0.000502072
description^382*title^علمية:300385557:0.000502072
description^382*title^والثلاثون:420542033:0.000502072
description^382*title^والثلاثون^34:63402290:0.000502072
description^382*title^ورسائل:216819160:0.000502072
description^382*title^ورسائل^علمية:252783847:0.000502072
description^382^-:372278448:0.000502072
description^382^-*title^-:382720487:0.000502072
description^382^-*title^-^أبحاث:133390195:0.000502072
description^382^-*title^34:445513097:0.000502072
description^382^-*title^34^-:226859324:0.000502072
description^382^-*title^أبحاث:512315224:0.000502072
description^382^-*title^أبحاث^ورسائل:528602558:0.000502072
description^382^-*title^الأسطوانة:513932626:0.000502072
description^382^-*title^الأسطوانة^الرابعة:392347626:0.000502072
description^382^-*title^الرابعة:5069008:0.000502072
description^382^-*title^الرابعة^والثلاثون:445970399:0.000502072
description^382^-*title^علمية:521475675:0.000502072
description^382^-*title^والثلاثون:400712991:0.000502072
description^382^-*title^والثلاثون^34:221635196:0.000502072
description^382^-*title^ورسائل:35583638:0.000502072
description^382^-*title^ورسائل^علمية:31702953:0.000502072
description^3^القلوب*title^وحنان:218287454:0.000410096
description^4:374617456:-0.000253016
description^4*title^-:507455399:0.00269973
description^4*title^1:310182696:0.000410244
description^4*title^4:310182699:0.00331497
description^4*title^من:234796352:-0.000683015
description^4-:289685607:-0.00689448
description^456-597هـ:98408851:0.000502072
description^456-597هـ*title^-:108526238:0.000502072
description^456-597هـ*title^-^أبحاث:390822922:0.000502072
description^456-597هـ*title^34:171302640:0.000502072
description^456-597هـ*title^34^-:490584645:0.000502072
description^456-597هـ*title^أبحاث:238119969:0.000502072
description^456-597هـ*title^أبحاث^ورسائل:255456967:0.000502072
description^456-597هـ*title^الأسطوانة:236576299:0.000502072
description^456-597هـ*title^الأسطوانة^الرابعة:131767443:0.000502072
description^456-597هـ*title^الرابعة:284523433:0.000502072
description^456-597هـ*title^الرابعة^والثلاثون:170710182:0.000502072
description^456-597هـ*title^علمية:263009570:0.000502072
description^456-597هـ*title^والثلاثون:123356774:0.000502072
description^456-597هـ*title^والثلاثون^34:495829253:0.000502072
description^456-597هـ*title^ورسائل:312923631:0.000502072
description^456-597هـ*title^ورسائل^علمية:291216592:0.000502072
description^456-597هـ^1063:337892314:0.000502072
description^456-597هـ^1063*title^-:113883353:0.000502072
description^456-597هـ^1063*title^-^أبحاث:401948237:0.000502072
description^456-597هـ^1063*title^34:176921783:0.000502072
description^456-597هـ^1063*title^34^-:495187970:0.000502072
description^456-597هـ^1063*title^أبحاث:244264550:0.000502072
description^456-597هـ^1063*title^أبحاث^ورسائل:260551808:0.000502072
description^456-597هـ^1063*title^الأسطوانة:245865580:0.000502072
description^456-597هـ^1063*title^الأسطوانة^الرابعة:124051156:0.000502072
description^456-597هـ^1063*title^الرابعة:273365486:0.000502072
description^456-597هـ^1063*title^الرابعة^والثلاثون:177379041:0.000502072
description^456-597هـ^1063*title^علمية:252933989:0.000502072
description^456-597هـ^1063*title^والثلاثون:132383777:0.000502072
description^456-597هـ^1063*title^والثلاثون^34:489915202:0.000502072
description^456-597هـ^1063*title^ورسائل:303601576:0.000502072
description^456-597هـ^1063*title^ورسائل^علمية:300277399:0.000502072
description^482:374617934:0.000502072
description^482*title^-:473708349:0.000502072
description^482*title^-^أبحاث:218149289:0.000502072
description^482*title^34:276697939:0.000502072
description^482*title^34^-:125204454:0.000502072
description^482*title^أبحاث:343581058:0.000502072
description^482*title^أبحاث^ورسائل:359807844:0.000502072
description^482*title^الأسطوانة:340923272:0.000502072
description^482*title^الأسطوانة^الرابعة:496062768:0.000502072
description^482*title^الرابعة:180270602:0.000502072
description^482*title^الرابعة^والثلاثون:275192069:0.000502072
description^482*title^علمية:367458433:0.000502072
description^482*title^والثلاثون:487689157:0.000502072
description^482*title^والثلاثون^34:130419878:0.000502072
description^482*title^ورسائل:149755980:0.000502072
description^482*title^ورسائل^علمية:185618803:-3.25519e-05
description^482^هـ:134779830:0.000502072
description^482^هـ*title^-:321896309:0.000502072
description^482^هـ*title^-^أبحاث:34814433:0.000502072
description^482^هـ*title^34:527276827:0.000502072
description^482^هـ*title^34^-:140902318:0.000502072
description^482^هـ*title^أبحاث:459876810:0.000502072
description^482^هـ*title^أبحاث^ورسائل:442610476:0.000502072
description^482^هـ*title^الأسطوانة:457284544:0.000502072
description^482^هـ*title^الأسطوانة^الرابعة:310565240:0.000502072
description^482^هـ*title^الرابعة:95239746:0.000502072
description^482^هـ*title^الرابعة^والثلاثون:527733069:0.000502072
description^482^هـ*title^علمية:452292809:0.000502072
description^482^هـ*title^والثلاثون:302121869:0.000502072
description^482^هـ*title^والثلاثون^34:148210926:0.000502072
description^482^هـ*title^ورسائل:134123524:0.000502072
description^482^هـ*title^ورسائل^علمية:67361083:0.000502072
description^5:374617457:-0.000597698
description^5*title^-:524228628:0.000679305
description^5*title^1:326974619:0.000410244
description^5*title^2:326974618:0.00011154
description^5*title^5:326974623:-0.000760198
description^5*title^الشيخ:123895311:-0.00222625
description^5*title^من:218008307:-0.000683015
description^6:374617458:0.000524056
description^6*title^-:272571009:0.0011528
description^6*title^1:477969934:0.000410244
description^6*title^من:67012710:-0.000683015
description^648:374618100:0.000502072
description^648*title^-:305868267:0.000502072
description^648*title^-^أبحاث:50834303:0.000502072
description^648*title^34:511248773:0.000502072
description^648*title^34^-:158428464:0.000502072
description^648*title^أبحاث:444447572:0.000502072
description^648*title^أبحاث^ورسائل:460661170:0.000502072
description^648*title^الأسطوانة:441780574:0.000502072
description^648*title^الأسطوانة^الرابعة:328616934:0.000502072
description^648*title^الرابعة:79277276:0.000502072
description^648*title^الرابعة^والثلاثون:509608915:0.000502072
description^648*title^علمية:467788375:0.000502072
description^648*title^والثلاثون:320246035:0.000502072
description^648*title^والثلاثون^34:163649136:0.000502072
description^648*title^ورسائل:115999386:0.000502072
description^648*title^ورسائل^علمية:85412773:0.000502072
description^648^-:288695186:0.000502072
description^648^-*title^-:640545:0.000502072
description^648^-*title^-^أبحاث:288702645:0.000502072
description^648^-*title^34:206299727:0.000502072
description^648^-*title^34^-:457410298:0.000502072
description^648^-*title^أبحاث:139415710:0.000502072
description^648^-*title^أبحاث^ورسائل:155699832:0.000502072
description^648^-*title^الأسطوانة:141025940:0.000502072
description^648^-*title^الأسطوانة^الرابعة:27566124:0.000502072
description^648^-*title^الرابعة:378226454:0.000502072
description^648^-*title^الرابعة^والثلاثون:206759961:0.000502072
description^648^-*title^علمية:164825501:0.000502072
description^648^-*title^والثلاثون:19167961:0.000502072
description^648^-*title^والثلاثون^34:468975034:0.000502072
description^648^-*title^ورسائل:349759824:0.000502072
description^648^-*title^ورسائل^علمية:388341871:0.000502072
description^7:374617459:-0.00272517
description^7*title^-:289348862:0.000368825
description^7*title^1:494745713:0.000410244
description^7*title^7:494745719:-2.90238e-05
description^7*title^الشيخ:157448933:7.01639e-05
description^7*title^من:50236953:-0.00112946
description^7*title^من^فتنة:362721443:0.000233303
description^7^صراع*title^لا^تنام:318017442:-0.000200198
description^8:374617460:-0.00134294
description^8*title^-:306126187:0.000410244
description^8*title^1:511523300:0.000410244
description^8*title^الشيخ:174226288:-0.00324162
description^8*title^من:33460108:-0.000683015
description^8454:374625906:0.000502072
description^8454*title^-:275459457:0.000502072
description^8454*title^-^أبحاث:22522645:0.000502072
description^8454*title^34:472451567:0.000502072
description^8454*title^34^-:186740058:0.000502072
description^8454*title^أبحاث:405650238:0.000502072
description^8454*title^أبحاث^ورسائل:421863896:0.000502072
description^8454*title^الأسطوانة:402983220:0.000502072
description^8454*title^الأسطوانة^الرابعة:298208140:0.000502072
description^8454*title^الرابعة:115977398:0.000502072
description^8454*title^الرابعة^والثلاثون:472908729:0.000502072
description^8454*title^علمية:431088189:0.000502072
description^8454*title^والثلاثون:289837433:0.000502072
description^8454*title^والثلاثون^34:194057754:0.000502072
description^8454*title^ورسائل:79299312:0.000502072
description^8454*title^ورسائل^علمية:122112975:0.000502072
description^8454^علاقات:285143494:0.000502072
description^8454^علاقات*title^-:268018245:0.000502072
description^8454^علاقات*title^-^أبحاث:516236497:0.000502072
description^8454^علاقات*title^34:62621227:0.000502072
description^8454^علاقات*title^34^-:347333278:0.000502072
description^8454^علاقات*title^أبحاث:129971450:0.000502072
description^8454^علاقات*title^أبحاث^ورسائل:112700956:0.000502072
description^8454^علاقات*title^الأسطوانة:127370992:0.000502072
description^8454^علاقات*title^الأسطوانة^الرابعة:240436296:0.00030647
description^8454^علاقات*title^الرابعة:427500402:0.000502072
description^8454^علاقات*title^الرابعة^والثلاثون:60984445:0.000502072
description^8454^علاقات*title^علمية:102985209:0.000502072
description^8454^علاقات*title^والثلاثون:248782525:0.000502072
description^8454^علاقات*title^والثلاثون^34:335780318:0.000502072
description^8454^علاقات*title^ورسائل:455642420:0.000502072
description^8454^علاقات*title^ورسائل^علمية:416662539:0.000502072
description^8455:374625907:0.000502072
description^8455*title^-:292237310:0.000502072
description^8455*title^-^أبحاث:5745002:0.000502072
description^8455*title^34:489229200:0.000502072
description^8455*title^34^-:169963301:0.000502072
description^8455*title^أبحاث:422426945:0.000502072
description^8455*title^أبحاث^ورسائل:405087143:0.000502072
description^8455*title^الأسطوانة:419760971:0.000502072
description^8455*title^الأسطوانة^الرابعة:281430515:0.000502072
description^8455*title^الرابعة:132755145:0.000502072
description^8455*title^الرابعة^والثلاثون:489685446:0.000502072
description^8455*title^علمية:414310466:0.000502072
description^8455*title^والثلاثون:273060614:0.000502072
description^8455*title^والثلاثون^34:177280101:0.000502072
description^8455*title^ورسائل:96075919:0.000502072
description^8455*title^ورسائل^علمية:105335216:0.000502072
description^8455^علاقات:313085635:0.000502072
description^8455^علاقات*title^-:187286542:0.000502072
description^8455^علاقات*title^-^أبحاث:437600922:0.000502072
description^8455^علاقات*title^34:124510304:0.000502072
description^8455^علاقات*title^34^-:274957525:0.000502072
description^8455^علاقات*title^أبحاث:57627313:0.000502072
description^8455^علاقات*title^أبحاث^ورسائل:40355927:0.000502072
description^8455^علاقات*title^الأسطوانة:55042235:0.000502072
description^8455^علاقات*title^الأسطوانة^الرابعة:176464387:0.000502072
description^8455^علاقات*title^الرابعة:497763641:0.000502072
description^8455^علاقات*title^الرابعة^والثلاثون:124971574:0.000502072
description^8455^علاقات*title^علمية:49482674:0.000502072
description^8455^علاقات*title^والثلاثون:168065270:0.000502072
description^8455^علاقات*title^والثلاثون^34:282328981:0.000502072
description^8455^علاقات*title^ورسائل:536406911:0.000502072
description^8455^علاقات*title^ورسائل^علمية:470131264:0.000502072
description^8456:374625908:0.000502072
description^8456*title^-:309010539:0.000502072
description^8456*title^-^أبحاث:56076031:0.000502072
description^8456*title^34:506004485:0.000502072
description^8456*title^34^-:153182384:0.000502072
description^8456*title^أبحاث:439203540:0.000502072
description^8456*title^أبحاث^ورسائل:455420978:0.000502072
description^8456*title^الأسطوانة:436536542:0.000502072
description^8456*title^الأسطوانة^الرابعة:331761254:0.000502072
description^8456*title^الرابعة:82420060:0.000502072
description^8456*title^الرابعة^والثلاثون:506465875:0.000502072
description^8456*title^علمية:464646103:0.000502072
description^8456*title^والثلاثون:323394707:0.000502072
description^8456*title^والثلاثون^34:160504816:0.000502072
description^8456*title^ورسائل:112856858:0.000502072
description^8456*title^ورسائل^علمية:88557093:0.000502072
description^8456^علاقات:341027776:0.000502072
description^8456^علاقات*title^-:387475383:0.000502072
description^8456^علاقات*title^-^أبحاث:103080227:0.000502072
description^8456^علاقات*title^34:458900441:0.000502072
description^8456^علاقات*title^34^-:206710636:0.000502072
description^8456^علاقات*title^أبحاث:526315784:0.000502072
description^8456^علاقات*title^أبحاث^ورسائل:508980206:0.000502072
description^8456^علاقات*title^الأسطوانة:527844098:0.000502072
description^8456^علاقات*title^الأسطوانة^الرابعة:380961210:0.000502072
description^8456^علاقات*title^الرابعة:26928768:0.000502072
description^8456^علاقات*title^الرابعة^والثلاثون:457394575:0.000502072
description^8456^علاقات*title^علمية:516073483:0.000502072
description^8456^علاقات*title^والثلاثون:372628303:0.000502072
description^8456^علاقات*title^والثلاثون^34:216161324:0.000502072
description^8456^علاقات*title^ورسائل:63523014:0.000502072
description^8456^علاقات*title^ورسائل^علمية:3408377:0.000502072
description^8457:374625909:0.000502072
description^8457*title^-:325788376:0.000502072
description^8457*title^-^أبحاث:39298124:0.000502072
description^8457*title^34:522782390:0.000502072
description^8457*title^34^-:136405507:0.000502072
description^8457*title^أبحاث:455980135:0.000502072
description^8457*title^أبحاث^ورسائل:438644353:0.000502072
description^8457*title^الأسطوانة:453314157:0.000502072
description^8457*title^الأسطوانة^الرابعة:314983637:0.000502072
description^8457*title^الرابعة:99197935:0.000502072
description^8457*title^الرابعة^والثلاثون:523242720:0.000502072
description^8457*title^علمية:447868260:0.000502072
description^8457*title^والثلاثون:306617888:0.000502072
description^8457*title^والثلاثون^34:143726915:0.000502072
description^8457*title^ورسائل:129633705:0.000502072
description^8457*title^ورسائل^علمية:71779478:0.000502072
description^8457^علاقات:368969917:0.000502072
description^8457^علاقات*title^-:323549552:0.000502072
description^8457^علاقات*title^-^أبحاث:41189348:0.000502072
description^8457^علاقات*title^34:520805662:0.000502072
description^8457^علاقات*title^34^-:134396331:0.000502072
description^8457^علاقات*title^أبحاث:453930959:0.000502072
description^8457^علاقات*title^أبحاث^ورسائل:436663593:0.000502072
description^8457^علاقات*title^الأسطوانة:455531973:0.000502072
description^8457^علاقات*title^الأسطوانة^الرابعة:317038461:0.000502072
description^8457^علاقات*title^الرابعة:97155143:0.000502072
description^8457^علاقات*title^الرابعة^والثلاثون:521393992:0.000502072
description^8457^علاقات*title^علمية:445789900:0.000502072
description^8457^علاقات*title^والثلاثون:308626824:0.000502072
